{"layers":[784,3,1],"weights":[[[-0.8969184982656364,-0.04434342436029004,-0.8024104347955408,0.3680669057255188,-0.6603525968444544,-0.789097698341999,0.8698789955412445,0.24835309743525524,-0.0002816836277117485,0.5506918399992486,0.49645785011150156,0.9157754776075526,-0.3252484264437496,0.7169388271556814,0.6477673345563648,0.851084508932259,-0.372341561163102,0.7698768581664,0.6964458589889142,-0.6693113976722249,0.6156723919881364,0.7733648667154605,-0.5541473479510286,-0.09972978775337693,-0.9197393180723052,-0.9648687025304774,-0.6400539646329724,0.43933670607268294,0.5944261243049234,-0.24351091252547463,-0.8673361583819315,-0.7620191825057059,0.7458509908683431,0.5699804436437039,-0.580070490985868,0.866012420010063,0.753223210628069,0.9188309845329881,-0.770890572772482,-0.2667524059729225,0.1773174131613875,-0.9909327081577388,0.27551122802791705,-0.819619152383757,0.40686878546947236,-0.06649910721822039,-0.18885939181681088,0.8005944203246136,-0.9108740920729348,0.15652825849654728,-0.4591216031787497,-0.4385190393617877,-0.11476731094944315,0.5651169443811044,0.7942690101432424,0.41690683197977463,0.8693489070111879,0.2875935222425161,-0.9042696095750531,0.6241055365266057,-0.7261243939348969,-0.5510316916144018,0.01936470416204683,0.9183961325279852,-0.9734844378470127,-0.08798741616281958,-0.8073562282895526,-0.8018803260651339,-0.9098849817926924,-0.8756856175753094,0.09281712433086997,0.9892673036623134,-0.10464752078339123,-0.16696126641899922,0.2014330550405301,0.8932258050243083,-0.8969202956506852,-0.6712047471674194,0.5677242467962615,-0.8802088146994451,-0.12434823007050144,-0.2941470012842913,-0.9714018131317472,0.9565495675373055,-0.9679401168075004,0.5589746442971124,0.5307382431316168,-0.6096994618811766,0.15549720038403092,-0.8239280494111656,0.2971169977726196,0.2359624349487468,0.5775396636378498,0.8642026181506235,-0.13083826502692664,0.973913112949111,0.8976706352860211,-0.093269436005891,0.7993256291213211,-0.16457726044045562,0.536712347990012,-0.3658261139972361,-0.12063155589425678,0.9988897470960307,0.01438786365708955,0.2451005797741519,0.4419652177736302,-0.8167716932733569,0.8521644919331677,-0.5684403945713477,0.8434713041320114,-0.5884664722658537,0.8147809192605149,-0.3841517731265016,-0.757605803491999,0.9869724759309413,0.5719161466071203,-0.8337648147057868,0.1641345173533324,0.27110504019363457,-0.32315481664179124,-0.9381313421424822,-0.08670145481728575,0.9566375325609198,0.9509391357530835,0.08569009922539028,0.3010452830650188,0.12288124298302935,-0.19319110414791701,-0.7088069637759954,0.3035291264350835,-0.35590641721487615,0.739380321942509,-0.6206497700903344,-0.6422953663741722,-0.7915597337585223,0.6187349650259744,0.38331713043278315,-0.6508158079410955,-0.3083175229825925,0.16820697642203464,-0.011645138131612054,0.8986039046087388,0.4797018812279359,-0.4419831467060351,-0.1906726811182613,0.4868651570687166,-0.35637573973301984,0.7586215965465963,-0.24124841135014252,0.48568282811303054,0.6235717508849808,0.11148314352649676,-0.33457197069695044,-0.49186116337507335,-0.029749255505903315,0.6311423417694103,0.4668733911403885,-0.3019886295700708,-0.09167418568625682,0.9958146212323027,-0.6171534284609574,-0.9174880065941042,0.44336746091760193,0.2910177855131386,-0.7414166443582395,0.681258370662241,0.23042647779102188,-0.5448384702622264,0.1894354311265054,-0.5988775994654778,0.8567014016672092,0.4113810240395126,0.3162467813819363,-0.5857807025926778,-0.3241366336993561,-0.1805881772013922,0.4272916479364415,0.2238176555913396,-0.09428023756403225,-0.7011646576100444,0.5556100078031043,0.057638713103727694,-1.035706394853475,-0.0918538717139587,0.2743480944032575,-0.7030184874317538,0.20412857014410637,-0.45645216545733325,0.7973169265831547,-0.6751718352278285,-0.8367117987253168,-0.25722798194419916,0.07511398760986276,-0.6642824545139567,0.823609825995071,0.7757066967229489,-0.12053531373003978,-0.777227458606361,-0.11694833746318989,0.17001808667601792,-0.2408622529371427,-0.5734829799125303,-0.36478252965212743,-0.5556308042791807,-0.974231254184738,0.6546185164692879,-0.9683149242907527,-0.3085433819636818,0.8103826619820279,0.5203428742710567,-0.17098708788726927,-1.217602817665701,0.7285602757452775,0.8496354007555839,-0.42244678146353964,0.6229095616232058,0.7192769814613656,-0.22798535297043646,-0.9110529506427889,-0.20712673010944993,0.1922790102361187,-0.07060830596605427,0.9350006385532048,0.9719435954507187,-0.3233838835649201,0.41433620203052524,-0.5184436932843353,-0.29541674106238647,0.6429149242532848,0.5237875825664533,0.010592470737791349,-0.8670632048264353,-0.7785975241325684,0.5709266615456754,0.08199633581078895,0.910812165342805,-0.9314667046614287,0.5888219497142406,-0.7459400129182658,-0.264094825060805,-0.42772347647475145,-0.6326743434260577,0.14735409974994335,-0.6912666045421207,-0.5438801451994655,0.694699360217253,0.9557715884501874,0.1969289577065354,0.42369748402678553,-0.6932628850670082,0.23229526762806385,0.5181240434623116,0.6829964626217842,0.7981062020729681,-0.1321130827062149,-0.8360498087013333,0.9746455472061486,0.5872864189676539,-0.9217326175706391,-0.6086339108331149,0.31680428513790915,0.2793357636277119,-0.9472698411010612,-0.00803527548703154,0.6996838816157765,-0.35140434872614257,0.14426866889504006,-0.5494570479709188,0.08129502710022163,-0.2654381788159556,0.7333032657791669,-1.2353028807037518,0.17432023264969512,-0.9994000582167081,-0.6463283254900158,0.6505372222384138,-0.8506139434309332,0.9679600285019958,-0.6071366828137545,-0.19940301982512043,-0.3975095493532239,-0.3635433786861213,-0.2710460407121642,-0.2593141313838918,0.06840102440953566,-0.55689903917581,-0.204542862962505,-0.6911701656467308,-0.5099325367854163,-0.9864835488934495,-0.48609648259410565,-0.029283525726907025,0.07558168478004369,-0.4275976827069447,-0.6781787312718978,-0.497685779389802,0.026672976718544735,-0.20213990777448732,-0.9151718337252915,0.5318748903095025,-0.5678399105076024,-0.9624648912347237,-0.42663780865700884,0.8453813459794282,0.8562036901979306,0.07375850113635041,-0.4481233278118315,0.32014678836536925,0.37736321610657053,-0.7235367210864583,-0.2572916656852766,-0.48475334383512614,0.18692324731944332,-0.7325912318267822,-0.35978090841429067,-0.4047578642216829,-0.20782602102528097,-0.19852977691529583,0.4622450405736388,-0.3347512379325311,-0.08236134035282014,-0.19088897438957464,0.5845245467654928,0.545169268758074,0.04374323092275514,0.13285027555604648,-0.16893627652486812,-1.0033933424579073,-1.0972364199934401,-0.48926018003841193,0.9354280110050541,-0.7457599898777827,-0.6875283958613538,-0.688657483603081,-0.5641641557021639,-0.39561987424043,0.8690182549808187,-0.6952364300764311,-0.6772186557564588,-0.5186199785094836,0.09672369766129174,-0.7710652775290014,0.9434849629907451,0.4401865248790685,-0.9477059299420446,-0.16039577500887756,0.5924001470997439,-0.007309046479713603,-0.4808528623307223,0.89058604666324,0.058406202872739274,0.8995610414975959,-0.5955141398784027,-0.4736653629393473,-0.36192685864663526,-0.07128355338010586,-1.14271425151322,-0.7528855692563464,-0.9216616911474966,-0.7866410729136244,0.3058326055813938,0.7174822540311414,0.9949898981052361,0.8221962521120534,0.1240892968202365,0.23723474711293568,0.5815516193410617,-0.43927450750239627,-0.9111808127350867,-0.9764115022309845,0.49286933172387676,-0.300599442711537,-0.01316268733730166,-0.9085700287789843,-0.3554886612762048,0.18437359541764442,-0.04955720847752653,0.902700510907508,1.1466245879509709,-0.4290799448205172,-0.8727875863624305,-0.27732761194071304,0.42125381350913754,-0.31385809831292755,-0.7247324805886329,0.026374867363220516,-0.7403718512018247,0.4252885962635209,-0.8834920206990737,-0.3666600992864395,0.06456281608963921,-0.38552985702358966,-0.375877499018773,-0.7291726867643389,0.014045526688508447,-0.001775696061992127,-0.46870267761033246,-0.6677046650617878,-0.0872745793794458,0.6565258516483524,-0.7836130426200549,0.6644058446814012,0.7707922809146927,0.1297276799546647,1.0900428648990157,0.7695428623729944,-0.16688853780187604,0.46704217971665024,-0.8281045086192802,-0.7020128802299952,0.07267830768648259,-0.8341218314216299,0.19623552406267483,-1.0037223329655054,-0.3447119131874963,-0.4537056871555265,-0.1799910818150181,-0.21978157184917158,-0.32573991600483865,-0.2724637049021581,-0.9059119145924504,-0.9340400100059658,-0.04176971511467542,0.5446016113254177,-0.8421619392852373,0.4389807716077181,0.46579695680080785,-0.7970224218758769,0.3869676414657382,-0.023284086047147604,0.18273947662515072,-0.5469249586373315,0.7257793088962932,-0.21107061993966736,-0.6076080042435831,1.0550525459009323,-0.30758798183292124,0.6647746731386294,-0.5250006848204664,-0.4490689957774801,0.8067502639325957,-0.3593066452327089,0.2967394279740627,0.5209004302115647,-0.9329790358206187,-0.6641832836779387,-0.11959827658216482,-0.03928530671991748,0.9014027669865765,0.13118668357473218,-0.7486294821757629,-0.9517432405387163,-0.17258643727349915,-0.2877642721864704,0.1257578935364584,0.52844666902312,0.6616003387736232,0.7396013441564906,0.10838322312880341,-0.0008990550105425394,1.0166293017253694,0.1617265880999959,0.967463659705127,0.18282119204393812,-0.8675103451325584,-0.12926971423518988,-0.6516463791681466,0.6425047155352003,0.043728738728911865,0.7102297682793544,0.07826043024942764,0.6506397735043887,0.688836371381865,-0.32591052474865734,0.36279745983501677,0.10715654783801076,0.7758734592791212,0.043174275554243025,-0.1972711482917664,-0.6089409768809335,0.0783497760616043,-0.6512006996439209,-0.4895557046511563,0.4888827901744116,0.5806311735719275,-0.9863200220628485,0.5803474567289886,0.2791664930001601,1.1663749799301055,0.6060807613664867,0.15984775007003482,-0.2747435305258661,-0.7171597298107233,0.7143715378594063,0.27836743624942023,-0.01978658042232085,0.40619106722204007,0.7259179390865358,0.6360554343859783,0.3476159404268562,-0.09274891726256285,0.6292408821889068,-0.1495113296053363,0.4254779460061955,-0.06071084254479908,-0.5122181366353451,-0.45679651142932887,0.7602930004617592,0.9355619825557598,0.7855853475454263,0.13916711177341373,-1.0704350503041682,0.1327460751928681,0.7215199571103381,1.0183550088718771,-0.06029840626088081,-0.6786213254836699,-0.5080131724658375,0.23013767497251006,-0.046810355302516496,-0.19309292446858634,-0.4861446372105617,-0.19668813535208846,0.45080472245483305,0.6970447033922842,-0.13670417872798657,0.5652801074715406,-0.609912737999394,-0.9448332845988068,-0.617129929563432,-0.5002830285894742,-0.5440342741647906,-0.49243004860710005,0.9342502813885962,0.28905045100676174,0.2136161412628632,0.8962950669625646,-0.11076901734315815,-0.26745212787634526,-0.3637117143838048,0.3452565352691679,-0.22915431915231377,-0.11241672600123806,-0.02831063218076104,-0.26947038120707245,0.36804902502891285,-0.585055101246193,0.08297432654334935,0.05772286297177633,-0.9253827165356319,-0.29950013914840723,0.0668537263734565,0.1450965280338936,-0.23780106087189878,-0.06663586234942986,0.4023807728706956,-0.6133687112516475,-0.7122953238691987,0.4102543623985444,0.794071393990897,0.2396911467702536,0.1842827258138089,-0.8572131118549902,0.3886399809336951,0.24523534210246686,-0.11953935776552103,0.7047437819382996,0.5886561142945144,0.24280976895895914,0.35757456772979335,0.9819902840682221,-0.13677942179396574,-1.0088151131168237,0.47072645737219904,0.6368970490594695,-0.3274762450493277,-0.7039569938231055,0.40001575780732307,0.012125355876900763,-0.37431844117620305,0.16519426347569777,-0.21069145283941082,-0.02805829520699188,-0.012309638882670448,-0.06574227191099058,0.04290599345657786,-0.5974703819373108,0.6083554380267415,0.6935975373842262,-0.02924940843670143,0.771088562875438,0.9995878391948505,0.4215788561611167,0.12730840170922758,-0.9867681865830551,0.004319067526231121,0.17525777061618347,0.5075120485813446,-0.6172415029238772,-0.34641203430104694,-0.4274505565261851,0.8333754192526546,0.37240653559333675,0.09978359798007538,-0.8310441569348095,-0.337783758093573,-0.6740049624134659,-0.894135654046845,-0.552411902104119,-0.5452967512547864,0.48415869339702544,-0.9788756253652537,0.20633625619513452,-0.4766857243399727,-0.12831130470187935,-0.17296377482842606,0.4790899475382331,-0.05325764284807177,0.3552944421395927,-0.17963782801625294,-0.15177464767219662,-0.108270879801634,0.4214038244278007,0.24091890479354622,0.7620561321704108,-0.5047115272828508,-1.0365855351348616,0.31354127825984546,-0.6061933002124635,0.4778650984139508,-0.06225871209553635,0.2662540030194156,-0.4790156734489594,-0.9369934744958721,-0.904807598612307,-0.8713426443264216,-0.46586114228455733,0.8624304574027377,0.3756319309457794,0.742209114859163,0.1587466500727892,-0.13975872593488115,0.14594857325471033,-0.6506113284872377,0.7016743425479972,-0.7215930914882382,-0.16221604710079274,-0.8789960122794866,0.28336635926250864,0.14923249742877331,-0.12345052715327177,-0.4899931183828585,-0.6009777136865786,-0.8454049008800518,0.5622373633733277,-0.7145553854807031,-1.0108230798325366,-0.3544295106987565,1.029522335478309,-0.7776089838419237,0.5102905624948819,-0.02066217997959597,0.5457803975514921,0.8791005908074301,-0.14675490119896795,0.9994339263426486,-0.15521141081370105,0.22555696918243306,-0.6412528736319816,-0.8569736913518846,-0.024593378337713467,-0.7044220758103483,-0.808138822351804,-0.1282134830775452,0.09705107511779154,-0.576901924927858,-0.39435833008132715,0.9134166471429521,0.0650123380007781,0.024507310491517453,0.5081662084623988,0.6320099204116626,0.35505614209602676,-0.221815531260998,-0.04561293999468056,0.06312259445401339,0.7901347892913692,-0.17290777038569569,-0.6037909899250653,-0.7131060644774225,0.5200803882117795,-0.3233122773877839,-0.23418650821383435,-0.9986158905936657,0.309094258988061,-0.6010786572521654,-0.8984891312798147,-0.4751928514245636,0.3005254295660047,0.3857634761695241,-0.13424301730364463,-0.03914210554467101,0.3116395143661812,0.008380644917071578,0.6204085805120974,-0.48752617536864995,-0.2919837335026598,-0.3149538616604657,0.48050701790059414,-0.011837997559541735,0.3972696421460722,0.39001653916698964,-0.6944472725764996,-0.7040054922890038,0.013069263626420469,-0.08333790404772312,-0.7811873808965566,-0.6027598722672154,-0.329559665076264,-0.3864510999457669,0.8486939491832381,0.731906165798841,0.7704075560573358,-0.8461292206295312,0.8263391792528887,0.002357016503567344,0.41069810932096673,-0.3160920994316332,-0.9125682565499436,0.6359376796299618,0.7299139858876338,0.41993175763340407,-0.5068754548713408,-0.9058628707266305,-0.006550623370413566,-0.322616922995137,-0.0151587567446414,-0.44806470931857034,0.9299495698452875,-0.78367335152903,-0.8791827344661676,-0.9289545581767638,-0.44591465109822015,-0.5078137814150876,0.7840003403834066,0.35956183368155425,0.45999487470087463,-0.9469510868655877,0.6172243208820951,0.6828454748527537,-0.06011333760215054,0.9037761316160724,-0.17262843541786288,-0.9508089860503255,0.8877648485808174,0.4307178984194133,-0.526275765840666,0.27704940497742014,-0.2401959914933003,0.4315553311450506,0.1388928433767853,0.0462309908524996,0.7188935569004213,0.27356337644070705,0.6363151606839073,-0.061754552636147375,-0.5366001920627386,-0.7648061179855525,-0.2221168864112042,-0.9174125107946569,0.775896258631817,0.9190297412286239,-0.1929655907915,-0.3061933242888826,0.5102310319113494,-0.6445488167133246,-0.5936760935548715,-0.04592354703498991,0.3134678452850084,0.45708638223079623,-0.4651537223876141,0.4192158419998244,0.11534117521409626],[-0.19005154624486198,0.9113533228702002,0.3824639977341411,-0.19141495912115936,0.5034795107083205,0.6514901312076375,-0.10448655112896921,0.9582620589205688,-0.7096117689422479,-0.448258812038854,-0.190854870515355,0.13170051207561118,0.6171328375899978,0.43551291308871765,0.4313252123893492,0.19134674065513013,-0.7734066800849317,-0.7677937356750668,-0.988083585670799,0.675493669848158,0.41934808640907373,-0.12049339456848918,-0.48346158374570636,-0.23812396944360992,0.4564950193559363,-0.2741717748382644,-0.26011476947464107,-0.744789633561564,0.04348979744090453,-0.04288956250750808,-0.7037170123919125,-0.610021187173645,0.9044607925501746,0.9790311871844328,-0.810316444547283,0.2356206784545456,-0.31881516560052003,0.10016518305830746,-0.5432673565747594,0.31636394438105486,0.6175623704514843,0.8858106535535955,0.11240790409988732,0.4187340308687042,0.9930632999916045,0.14674573060927343,0.8895874434180975,0.6782176384908849,-0.9809992777419616,0.4304796133148723,0.7608626372980145,0.9327523482247224,-0.2939718228121846,-0.2530086715867492,0.6386882654580677,-0.6771501877294335,0.7233427049626286,-0.3555282365048371,-0.542801690078156,0.2081770500968274,-0.7245054737861709,-0.8348457280740615,0.2765036525529705,0.255605580311965,-0.2890088855188606,0.898796595484038,-0.8509385199560544,-0.28055029654879604,-0.7841004453775917,-0.22107324267130601,-0.9968446826299207,0.8693242135403751,-0.15517451283673322,0.18311770749072576,-0.7942512321032724,0.5273449499261762,-0.14064097694126443,-0.4129750578563398,0.6754655257725855,-0.25623443970292015,0.6167194321689629,0.571441103516285,0.5942474354023695,-0.5839406707027996,-0.256672607078251,-0.32299042465033945,0.0737673018415137,-0.47579615006538845,0.4638420283283784,0.6807568651363636,0.25636147392849695,0.6088423149421396,-0.4422664801547782,0.23169058713098623,0.9794630261607187,-0.07230559844054807,-0.4348178202795763,-0.9345620848055884,-0.9520683874323299,0.97749115352158,0.6094936641634916,-0.2682627170583649,0.41285274735116007,0.4419217953281158,0.05434307881789113,0.2755703884814409,0.871313488290117,-0.5873373868025835,-0.7076406916491302,0.2646303532957899,-0.9026002161341629,0.5504291849452363,-0.5832169894561576,0.8442027695240337,0.2454831036421321,-0.4858089123221063,-0.4347052067037165,0.03623276121312147,0.35263159938570987,0.8256668578326516,-0.2837195768888716,-0.8892844802505409,0.10975154756601357,0.33734650875835115,0.019160264173887824,0.3509086261782561,0.23327134530731272,-0.7626878951454286,0.15685164264092358,0.06150559572928933,-0.20230983568621352,-0.04028159756406728,-0.39168937716758856,-0.44135018826108285,0.9225873484095644,0.3047964586094396,0.31743696469037186,0.10017942356503862,-0.3528897048559738,0.7291521187435555,0.30955411322436244,-0.5386119242803122,0.8887809850442834,0.28639354671024386,-0.12532821523389837,0.7586898797333967,-0.6807731245248367,-0.5562329869249023,0.7643875035072871,0.18733788891512537,-0.5280153967597201,0.5756054829264442,-0.697895751402552,0.7219194382970946,-0.21326235466715826,0.7452642687671632,0.7687294193627028,-0.9702303514780447,-0.1469664515045665,0.09868435877864831,0.16538716419786484,0.6682281540232637,-0.8743162243414163,0.8213245985910351,-0.8505454022612957,-0.918411211382274,-0.8612602426793832,0.8709712511544079,-0.10609585273716715,-0.17946905592835938,-0.10800906437608893,-0.5144509121275751,0.4189307407055727,0.36506837306824624,0.4764080867975058,0.4550137323335226,-0.5941612864215069,-0.674714140487543,0.010570898174668386,-0.9353899092600636,-0.5887026245664373,1.0099812689463579,-0.48110786958945456,-0.5398850103201591,0.6293637676413595,-0.361640325038331,0.32847061761555163,0.32434352668573413,0.2549671275603826,0.5544602752545358,0.2398103702831248,0.3561605186842294,0.13253827630002046,-0.6685593719980443,0.14237950861468573,-0.6734448991039979,0.0844350853553193,0.738413881938158,-0.8197306666344448,-0.7117989776941509,0.150168740161571,-0.00944591988410437,-0.7769188679542103,0.6608073316851959,-0.8430673438414416,0.36122817385370576,0.9778123171230975,0.29981005209546985,0.6990278544566232,0.8395836312815089,-0.6459831907657362,-0.31778735778436507,0.1940175940622001,0.7330551885546296,0.6349779782020364,0.926587294172915,-0.07166737286383726,-0.34063938582635755,0.5801406269979268,0.7979657976500125,-0.9556616959156681,0.5255601543391548,0.32758841818569295,0.6783339672419668,0.13454615604545683,0.21628273074044024,0.18651168270834617,-0.2863149333453998,-0.5118990920121109,-0.5290374604385535,0.5531928448733692,-0.7421153805871934,0.1591708105746512,-0.5658777134697228,0.9634670658421847,0.45863562847829364,-0.6099812570348195,0.2942526005724543,0.48018434102009205,-0.03178563345291266,0.1979849163884391,-0.6759587535695869,0.8958304569198273,0.6026447838004105,0.12102519586554965,0.2192013368437714,0.010971047819794117,0.7005856497565313,0.3587351851727947,0.03417315807419352,-0.17661528766987256,0.6265195791964722,-0.6734263031918692,-0.8638049680041229,0.021504569916477978,0.8588738901093067,0.6389550091249143,0.6217221524096495,-0.8126210671986331,-0.951526403775435,-0.1668845071568794,-0.31278074201179673,-0.24125782758084835,-0.20148346595774494,-1.0778937854054982,0.38610388995319844,0.6169575879291344,-0.9167818013134713,0.45801367585894337,-0.676014959060236,-0.692387946605793,-0.36459771050554574,-0.3019954997031231,-1.0110188168749443,-0.8878005000694542,0.3310387649632449,0.3008507730599579,-0.16763166766722404,0.8616273526393148,-0.6147370013948061,0.4231009900830225,-0.5489940129549262,-0.501194941108265,0.878293880099098,0.1240305511042723,-0.4678867195314451,0.10544609889658041,-0.1986791847580769,0.4639831867104849,-0.19248267337964456,0.263845334714383,-0.9807256768570645,0.23340017296827073,-0.5990518414899405,0.2132917421269168,0.0011981535168317902,-0.30737852991473924,0.807274193266474,0.06687118451501081,-0.7117687681905837,0.586758251867562,-0.7179944439296281,0.19074342874592612,0.6810212583084065,-0.17674377630463867,-0.739812296774726,0.6394351934312807,0.15228246750057717,0.04709547294252592,-0.8919725499373057,0.9964418583063299,0.8955975576671169,0.31143249156593233,-0.14298123221379333,-0.2135070495964566,0.8495992747302992,0.14227787493793453,-0.7890652573041426,0.24587441308733382,-0.5021175843344948,0.7505491360223031,0.03652832938883775,-0.32485710379863514,1.3473144811847746,0.8863321560834087,-0.7754977353527294,0.20232434911805822,-0.22085975123121265,-0.8886844274697102,-0.230536752758589,-0.5624301041290756,-0.6781990750275888,0.9124983719602671,0.050230421052923635,-0.32730921074383024,0.2965558584134713,-0.3260208945055727,-0.32621538859173405,-0.9498415257076911,0.5133749623211183,-0.5725868772773213,-0.7133962458042709,-0.935862271922582,-0.5868537932929261,-0.8867235527094351,-0.6834610923260461,-0.5086950166116696,-0.4152701092869877,-0.30616168566004587,0.12104407169216862,0.6848533078968175,0.8637390495395134,-0.052409269397779464,0.8640642174542508,-0.9873240445561464,-0.23223784492789884,0.09272631324320663,-0.26355727005563756,-0.9471808189410658,-0.957697907457794,-0.7008586140611994,0.7456894057172474,-0.7015597336024535,-0.0379866249531875,0.8982444901249538,0.13140137868620716,0.8739994339708088,0.6305970199890469,0.5570611067078917,0.3843933518397731,0.23871909631296018,-0.07966689028019441,-0.6483348784248473,-0.16742503123008368,0.49341190210288177,-0.21519983008322927,-0.7210616633595415,-0.707865051158162,-0.03971078073947213,-0.36170282895318795,-0.6940475085756671,-0.07740082425997313,0.29629195729606306,-1.0531144320135186,-0.7517150707935335,-1.0040758130672833,0.5680313017221944,0.8358276887934009,-0.6747998939913704,0.42446904028697974,0.9420496126604194,0.39344324862815694,-0.6679365689408965,0.02216295442566807,-0.6615281957192027,0.014674383640870259,-0.3768730737792738,0.27499869328394366,-0.6806270237532175,-0.10717888566768947,0.5907309081038121,-0.4179165501505713,-1.1193602559556548,0.26435993635287425,-0.589064753538419,-0.24394575771976199,-0.3813080383268971,1.1983911524437507,0.22371558872635233,0.23803849704241542,0.2597342178228165,-0.04397987868075765,-0.5477036518677831,-0.8345405832921752,0.26977370613392077,0.9481457486112728,-0.25694786080537435,-0.23204339603833168,-0.4253147333875549,0.9956992501133113,0.6923775388210276,0.46514438520367274,-0.3202356175386252,0.8384941788653069,0.11497251270512998,-0.010768098781121173,-0.21930834731778845,0.336697492530341,-0.09161986315970119,0.44696084588785684,-0.07256101984154952,0.4125850830608043,-0.3237672895422399,-0.07814745855720213,1.0419477882901234,-0.27282221596543543,0.062100740100050206,0.05027370203163556,-0.3920198026620063,0.06064964561298978,0.15094039826065975,-0.9762774334289335,0.2945052737644656,-0.8587114356071739,0.3870248636128686,-0.2731168517933258,0.8085082931846483,0.6059147841658996,-0.9824295833146499,-0.3000020159513066,0.01650727135213259,-0.9563966610251917,-0.3255663250336047,0.8830804934123334,-0.6384511976789067,-0.0938478764799927,0.08692509454972706,-0.9436318855888064,-0.26377732770612083,0.3603192703659304,0.5761905083477649,0.002252647723827417,1.3009073209121569,0.6770921200654684,-0.963782303175256,-0.5799148806866864,0.7190825661374763,-0.23356769122458496,-0.07987500986317003,-0.9168799268817936,-0.16634779809309536,0.3593960544378014,0.8237456967405892,0.07681957992954325,-0.7358444745541455,-0.3103864017104294,-0.5510916825199772,0.6047264068375011,0.3055516815523205,0.7579037909078565,0.6200031138078002,-0.5146833440578694,0.3302538698046573,0.13404050006612736,-1.0741098597406384,0.24202190864319018,-1.110795939971628,-0.24065308935202948,-0.39407016550893215,-0.13486674649441938,0.013735950267864384,0.853055041065387,-0.10381673774735621,-0.7021275455832906,-0.4898095773990229,-0.8176694590825014,-0.30284941961223677,-0.22852005017249022,-0.9609725002480186,-0.3054507100705215,0.6630874961347115,-0.5849668839907871,-0.47134806789914374,-0.04906812033557428,-0.10729012549018946,-0.16449128409053682,-0.14345606133554778,-0.17820317701201183,-0.3706937783437214,-0.9328603638419731,-0.3672171418840613,0.8156010186673831,-0.06953623679257682,0.2592670659568402,0.6389539416363312,-0.7357997900484503,0.5611063925212224,0.927339908281318,-0.01866459875501578,0.356565309392742,-0.8853773122958426,0.42564231161115385,-1.145678858874904,0.20889525652533195,0.04091600756146336,0.4623972802420289,0.7317141697308698,-0.38606137782438865,-0.38219695142922694,-0.2923846669142036,0.8760024076715087,0.9500669919663176,0.8376117907657812,0.5124785624760475,-0.38218922642052466,0.27440469967806824,-0.0620809440597323,-0.6406297799616053,-0.7469298031184226,0.13088560210168168,-1.0458346543363022,0.703118173011912,-0.35866934665242317,-0.2236224082327054,0.7464813081474424,-0.18149670305481053,-0.6490640707238537,-0.03503103986937706,-0.16244677206900193,-0.08796581226155498,-1.0026072571552778,0.03611599167489987,0.6440936815962104,-0.2267258425829175,0.9026024784425077,0.4460332080741385,-0.7114922355510107,-0.17315576275395927,0.029734135515276483,0.7967659039080128,-0.6209123747731411,0.9558414055222682,0.48168255665392823,-0.47137123066108333,-0.8425237481846268,-0.27122978745084697,0.4149767205631378,0.07659582295490223,0.06319403550847487,0.7101595343943896,-0.6961979532530265,0.6722932403821781,0.6268240615139615,-1.0237754726446544,0.33796689029777693,-0.615308643711619,0.814124773884685,0.9104538263039021,-0.04246469473042403,-0.31333821786565186,0.892812940399422,-0.891306479996667,0.5716289605634066,0.43764898495313953,0.7022059838058834,0.7273340903618679,0.6047422595528413,-0.3624017342892427,0.7806457123934989,0.8772574276508538,-0.07504283323450212,-0.9590435314768804,0.39998150855466497,0.20850966017187988,0.41604318761906206,-0.1976129172746444,0.04580922431528829,-0.26383147498093906,-0.9979062683939205,0.12941205317697574,-0.20337972813565228,0.7641053092176914,0.7104060553324115,-0.8652108450884717,-0.038098247260311684,0.8661727264912735,-0.05042186570669773,-0.4499064490761333,0.425407793672097,-0.5266930951456017,-0.8527504150449681,0.652135468075068,0.2504476722389233,0.7129013977595717,0.3305502661712445,0.040428849757819796,-0.6497989613498287,0.06109218070408717,0.4513885441562142,0.8191813015023266,0.7273165592196034,-0.2450380898433071,0.2600493510807567,-0.9074164229525015,0.7056846531821693,0.8706972631517621,-0.008236891524262106,0.1076538243566043,0.5787874003001497,-0.5565413682400118,-0.18061720990452537,-0.5657183922989509,0.8686810340065207,0.5620843848112347,-0.2664756616840257,0.8077190337712041,0.1960663706580137,-0.6169918073724803,0.589350245999982,0.20129260121845816,0.5752532656531908,0.3886349859860172,-0.6679121581816141,-0.9286062516695976,0.5458764602807133,-0.19565525329818323,0.12328597996566981,0.1781504509699745,-0.5031708043135044,-0.06892708097637201,0.5532878424331056,-0.6612274443112701,0.35319381308883996,-0.2063669746029603,0.24412978665982218,0.6608823304247072,-0.9125118246272191,0.6555088550833631,0.9609082641070376,0.9601728433979884,0.8116918068187492,1.020449004395063,0.3679908884525097,0.9274550373917847,0.7905845466548469,0.2623177221596005,0.7248941358108514,-0.07987323810891112,-0.7131027311104792,-0.49551139286399626,0.46607640316476817,0.13164027305212422,-0.09350147961276134,-0.8895725710946225,0.008212633448763773,-0.03533659002801426,0.8020659291018633,0.8764150840953373,0.9278671060163872,-0.8202367306219758,-0.0731361140567684,-0.16290697434547607,-0.7797199565076027,0.82709074948744,-0.616343968675655,0.8058790626289928,0.6583036031106184,0.8377268106629414,0.6176995944394994,-0.215929567947448,-0.7331663411642999,-0.5632790893827186,0.47193091775033036,-0.16889037158957243,-0.4542346021726822,0.29378870078247643,0.2192493795388497,-0.9003888513449743,0.701962532730187,-0.5765218664933274,0.17903716226645172,0.5241883630045792,0.09909597763569722,0.4096892822699367,0.6984017654798993,-0.1697409796863909,-0.331904972380874,-0.7818450928264487,-0.19218336144194503,0.42122858716663547,0.13128021656946154,-0.48517941153938104,0.2908550928559894,-0.8018648122232217,-0.5185439801302327,0.6619989684557304,0.9704097977766049,-0.3911114313630548,-0.6712951543178807,0.7269379616022251,-0.7206921467113243,-0.7837868157631578,0.8658062729327354,0.26596342913672033,0.9646529117778446,0.21923258210709617,-0.7815059505012298,-0.3026267660131772,0.7287830774910877,0.4942753355233138,-0.8685105854518362,-0.6298055190405993,-0.8082941306100115,0.6395301274311924,-0.5533660795808668,0.4537571129339646,0.53699101743067,0.06343058318131645,-0.34741096403435723,-0.320681366807402,-0.8348416250852957,-0.7826479205720263,0.589501646110673,0.5129323357208095,-0.609097517448447,0.15937762038083902,-0.7290486364552338,0.2858339003349031,0.8699926109350882,-0.7649234197366737,0.0947191039876143,-0.752734263111452,-0.6229806079861024,0.24655813335186627,0.27149300596884607,0.9332885040469459,0.9887186525830589,0.8463165456679513,0.41349487476433144,0.483271022616631,-0.838525093133353,0.8737850483270322,-0.7841780146305157,-0.45117807519307784,0.49166021464769916,-0.9362702287394926,0.609518301050425,-0.4666518518406477,-0.47082115848298667,0.4894772499814588,-0.6186883479576399,0.6196216200804476,-0.053237959004944546,0.23047024587169496,0.7645505890252184,0.02124955268668005,-0.5738044401406965,0.8656873762686734,-0.054901759610360035,-0.2141407505124575,0.492824688606577,0.8950163999509857,-0.9953777555940431,0.5441656208318184],[-0.12641142941800454,-0.21025141695566307,-0.4886190561058412,0.2541543932283339,-0.42990538879036655,0.017373752080453997,-0.323624301897268,0.5411530675717502,-0.7592515279582268,-0.8695554625181505,0.1782866415921256,0.9290169280818124,0.9431658050317242,0.5862999715874302,0.5894922205695254,0.10943655135206365,0.27096030476182764,-0.9669639807038133,0.7961100947292765,-0.32512975711127856,0.45772452469704805,0.5763629609848977,-0.8499017213987021,0.9263797505474127,0.43267131719259,-0.6159148608788576,0.6337005404885823,-0.898479350552223,-0.6778546872117452,-0.20674073208791688,-0.25909836873247905,-0.23848441102937512,-0.21955397138734378,-0.07050709719628334,-0.9803840580677599,-0.15422182876818602,-0.6760970102011161,-0.8629187387039368,-0.16698069002283433,-0.6807968598597454,-0.234304783835795,-0.8398142069384311,0.3357689545996172,-0.3970789293320591,0.6197583394827497,-0.40293166156858784,-0.6639883398797803,-0.2959039023347305,0.9957858569763332,0.5133983382845844,-0.4737261819990488,-0.77759164807421,-0.6576303525172245,-0.018331587547094408,-0.8400375278659704,0.46859453077214686,-0.6950983399915946,0.22803083734375296,0.46740846755456666,-0.28130052293984864,0.18922830420728243,-0.19167468904090978,0.20825250182887944,-0.5304288529984071,-0.11356130620910299,0.8150895841100483,0.22947539767673653,-0.4224388541016324,-0.8826454325157469,0.9011959927396336,-0.7074239872194206,-0.4807981901475482,0.737706989765242,-0.47210347273661735,-0.37094338499120805,-0.41896465664568017,-0.35571567835617923,0.8262055593044664,0.8041699456163132,0.03553777901647348,-0.5337089385077001,-0.4317001353794796,0.9699573887216923,0.6058990836592864,0.67436936994378,0.9337607648993229,-0.6003997617881507,0.26278739494081216,0.17909032629095223,-0.5906394440624845,-0.5409976614400589,0.24935805369570807,0.9304872566016678,0.05455748502904134,0.4112487322503302,-0.8042799968338741,0.7255809269930982,0.17775906697554356,-0.06087619000817379,0.1004398712111374,0.14304621810251295,-0.15646421481786388,-0.9709313014440626,0.6669184554247054,0.9807912899373601,0.34253683934240486,-0.6520780057853386,0.3969015867652732,0.8517021545059407,-0.11924952391940913,-0.5369301737899574,-0.9116813339854819,-0.7049111953814409,0.9326378105112914,0.84031671169792,-0.6866724453714326,-0.05904243512997831,0.8161582451682581,0.8012418440813551,-0.8928834672250638,-0.008957797012109081,0.8301947982794526,0.09888772935324175,0.01175721528125373,-0.5643664845966884,-0.7914449525933995,0.4162609246330318,0.22027215764503716,0.3837035377624529,0.5800149339670536,0.45483194269297855,0.3331383756757376,-0.20207605064074463,-0.4820933836044523,-0.05169448474192406,0.2117268030963153,-0.7644576513633952,0.5099616007805547,-0.7576880458257047,-0.8714751212599727,0.9224664432520056,0.032056031042895894,0.4906383863705248,-0.8004529687160906,-0.25732204713563656,-0.5507013022590683,-0.9582650370337251,-0.29070327884607505,-0.9331962640966565,0.46764314379331995,-0.0566909553287025,0.022585819737454386,-0.7684809428625634,-0.6925618636355491,-0.5648038563930522,0.5985316827903391,0.7487878111906686,0.8023816127020309,0.6027704332599101,0.5105811577834205,0.3522595422664036,0.49242001268821123,0.3003266488505844,-0.44070640974990005,-0.6960333363684288,0.9293244147057436,0.2519453683887287,-0.4429476080206174,0.5839103348099888,0.8969696074732887,0.7941845447877811,0.5248631867207558,-0.13057525249094937,-0.14057450202516342,0.6224751366632282,0.2442157263909317,0.7167928457819757,-0.05746893825459143,-0.23580199598167217,-0.8724656269333074,-1.0310701762079393,-0.4359383302835363,-0.312089084664856,-0.4227691096224369,0.32535777763532575,-0.7553129271370613,-0.30061322866980256,0.20270242063169777,-0.7940167614103424,0.1310517277515798,-0.043643596371816785,0.8290223502914977,0.923981285069958,-0.3769891842586013,0.47925540893574703,-0.8536854477006908,-0.46755537488770194,-0.587211104400295,0.8676811266164546,0.2156866400175088,-0.9049199950026141,0.3239671647452216,0.5767314968344126,0.15740400814600064,-0.6207380281489232,0.4265225308538674,0.6553736575335887,0.5671415695385031,0.30717192378874775,0.37259268175454463,-0.7981748930221488,0.5055770123760612,0.27195200579303963,0.24514021188896645,-0.6455227478056148,0.06754713322094041,-0.49513761327584815,-0.1874450274266157,-0.8800154326684554,-0.8049520916845465,-0.8921432400979021,-0.8400127192681628,0.5859530089455116,-0.9332068124872286,-0.3095905936352674,0.6284333627523173,-0.8010723615674238,0.5195774939212543,-0.32515087171889157,-0.9851142912821016,0.6462872615796065,-0.1900161862087324,-0.3876067705388797,-0.574586863458165,0.5517790500415691,0.9300775598535507,-0.38473236416877865,-0.8318149402855912,-0.08520398837195521,0.7397353136409124,0.8237873350032711,-0.11982446781890987,-0.890921173275218,0.9126588892561288,0.9903919939598883,1.0555465864393512,-0.5093714199227576,-0.5427698553085849,0.644584540576006,-0.3328807833360199,-0.08420400213202028,0.6583473133102558,0.17584126398883493,-0.1067388084036398,-0.2533166621074645,-0.538368068698921,-0.43064784336643314,0.3619734665490262,0.15191320369390748,-0.16497046074367194,-0.03751642546755507,-0.7280545857470238,0.9785255638673755,0.9229135544652015,-0.03455979115178707,0.5087042668242385,0.182654969369744,-0.8587981952923486,0.7917878706600826,0.08553084155659235,-0.8457744408411512,0.28016671886268946,-0.6294685226279862,0.7967580395568786,-0.8816910157196859,0.6098039168950389,0.5726851142357821,-0.058594121079050154,0.6016436994044427,0.7829903760539187,-0.38423050806730674,0.12428652780558003,-0.03389832221037348,-0.34447987294977644,-0.20940867505769112,0.6894327409309027,-0.14653385407204578,-0.6109684103249642,-0.9150400261924738,-0.11454246183067658,0.42375756311029616,-0.26762425594305916,-0.6737941057382985,-0.16721368773800832,-0.9444343659606111,-0.837221349513411,-0.1473200063968713,0.571005027012121,0.16480894715546576,1.0420488413345153,-0.3970054312895391,1.0221648595422437,-0.9280930980687294,0.18105639587053068,0.9256035507275622,-0.5485605118889789,-0.24233212685392913,0.5421783824611692,0.8766384639090481,-0.5313686723574695,0.9454320251279471,0.4328373775849297,0.10665435597498485,-0.5396924879946152,-0.7574389163948618,0.2979657878983033,-0.7465567041292128,-0.9291517723868052,-0.7230296802350009,0.9048077958744305,0.25577467623797345,-0.14977677634299474,-0.7785732090939562,-1.0788785772818876,-0.3104185171849735,-0.5954084633932445,-0.6920657619895141,-0.28593959789260637,0.37274525651537405,-0.49040576263857244,0.6482337826545173,-0.3598656153001969,-0.5019136425301529,-0.004348172072196066,0.8496797773928941,-0.3994426060443381,0.599717996399554,0.8666854615739001,0.9682003975201889,0.08600092669678472,0.6831711527311908,-0.4703365664901442,-0.08429571078618281,-0.22672161156170378,0.5163464864773202,0.12628424954876385,-0.45955396270710697,1.0359007129239037,0.960884676559222,-0.4487025905404474,-0.27573481555029083,0.4647442571646168,-0.235130274566102,-1.0096353654744938,0.12961850177420023,0.7595245735301435,-0.21299828628867196,0.2761703704257172,0.6938263819363273,-0.7699618488372892,0.07570380388374298,0.9682651711091612,0.22841969728934464,0.44300962294622614,0.9989419962893242,-0.5432436245258647,-0.9149245363621104,0.6208538591158819,-0.38473679966941354,0.31856602015912006,0.03619691874482234,0.8549254342834662,-0.4268619104284801,-0.1755005796717899,-0.3960223245661722,0.9480781870356927,-0.756334783210489,0.35385820548274566,-1.121891577947859,-0.5524390333787219,-0.3139273565468341,0.5267363188135344,1.1004924372286295,0.49851025890036255,-0.30013538622654373,-0.5979923754243174,-0.38952707964667865,-0.6002909395962852,-0.7711448151121769,0.6720474079395675,0.9219601142996596,0.5718602297861644,-0.17312711053202068,0.688391300648947,-0.543611857028512,-0.6302828912890539,0.5100748403658306,-0.9762797910461576,0.8985718662503747,-0.6174499701090453,0.9871554642782484,-0.499740478386256,-0.3415695076670005,1.004710430109826,-0.7884724544387164,0.04344711669564709,-1.185413144861122,-0.8193055427434361,-0.2407964253045007,-0.2268117494566512,0.4430142623451582,-0.10859277692249465,1.146537472729479,0.613257905857944,0.9117222944002843,-0.9440610162796075,0.8072946829826686,-0.5846761611707216,-0.5736690567067149,-0.6241972367220268,-0.05956893200734026,0.3654152233521699,0.020102906125291753,-0.36631719308150745,0.9328154137233262,-0.7137516964909785,0.08169548738583719,-0.16654237517083373,-0.9071392857840159,-0.7164351802609945,0.3707073751693894,0.6978994618334636,-0.5108123117204367,0.08768664154477608,0.3076335741149545,-0.06127241924938262,-0.17215775713356574,-0.04918307932973768,0.3677880848928325,0.06596796733494047,-0.8594282399064084,-0.1780248211160659,0.7609734827329862,0.2145326574205626,0.9894363051227553,-0.0945312870814714,-0.6638487439048755,0.39862199797524545,-0.639917093601345,0.19352496604574232,-0.7346860789208918,-0.7105006530838811,-0.893180010315288,0.9687472851007054,-0.8706860250346135,0.6488740362054997,0.6069047137409971,0.6305513942286674,-0.8268576918318357,0.9327745915842127,-0.15865153656818762,0.25064187637007507,0.15570517814232449,0.53014094194341,0.3506981397889077,-0.8596584073673624,-0.3241433874627319,-0.7634003695058489,-0.2813350509817169,0.8042485480599978,0.4659655639682553,0.9791929486304425,-0.44730107007322717,0.10693950793498441,-0.46636396037225825,0.021392482349029462,-0.9643493120012909,-0.8927318230310413,-0.47259224509248443,0.7335904750437783,-0.16957489641109946,0.4725880505580143,-0.4880816049506066,-0.2823254717163453,1.0921253173641983,-0.02699038076606539,0.18139059550927525,-0.21918511612399855,-0.3271120587139861,-1.2800519626526994,-0.7958099802613392,-0.15113030493868496,-0.5740087228339464,0.24513291149209726,0.8631494455405011,-0.36297517236451843,-0.7189643879167134,-0.0974932097444003,-0.5246896447513062,0.8184675916370547,-0.5648442339587991,-0.33738927220002823,0.8116437246514512,0.0886019177139461,0.801521529988005,-0.8487771778611712,0.9259944386316641,-0.2470578523710889,0.5082790260213108,0.6284961739813729,-0.45271402128287963,1.0216874634465523,-0.5836754093746245,-0.591395262298093,0.4792027893122523,0.26867254732256,0.39087508129307524,-0.046792056690551344,0.3344660194136114,-0.32623224757179714,0.8465998838548074,0.4837949031830892,0.22157843458078927,0.7518283969463495,0.8151154319752962,-0.2198645857530747,0.02561661658293546,-0.4123362458026105,-0.41266563577491877,-0.046406845951050935,-0.8657752771470464,-0.040009157778384985,0.5427212073984067,-0.9119142482356162,0.9171492364445855,0.10954666075819142,-0.1881831981211095,0.5985621953374378,0.26871698028422736,0.7177566594081427,-0.5403363787398892,-0.5066609467345776,0.6392109668961783,-0.6868983043159056,-1.0301516774120094,0.7066269232500254,0.08149098152769584,-0.6392633956197794,-0.24154504206835978,-0.2767296024345457,0.17146771301709454,-0.6423994107711472,0.46357491564739983,0.8451673816261587,-0.06534245436811092,-0.1317262069988827,-0.4584238238581866,-0.44011385893277866,-0.7092838317700483,-0.28620037487449435,0.5405860424885651,-0.7610783553200651,-0.36061444279425503,-0.3330145296802518,0.501343127385665,0.7638584039658177,0.7182990597528522,0.8281282133143762,0.7867113267687946,0.87343050782586,0.505946221692005,0.9581820595640962,-1.0426868756136383,0.905566230646251,-0.21285298503660346,0.5059149989754769,-0.19556613543237383,-0.5353231266801989,0.055940773388621766,-0.45084433597718765,0.4621589757311235,-0.422784611987846,-0.757022336587988,-0.5580139591882904,0.18735724774406215,-0.6047901235115167,0.3913919909864787,0.4762109643531234,0.6137976509720586,-0.7685018010278251,-0.5343598813583055,-0.060102763282653404,-0.6177496079632561,0.2999812307930585,-0.054326543528094295,0.7265708492664699,0.12016354297809677,0.2807578966043564,-0.6314099761982087,0.07752853890615094,0.4998487913032164,-0.3471453657142414,0.25861580283605157,0.34180325646727633,0.9148965765477654,0.9431595437867499,-0.5884661661229565,-0.4504281362302478,0.9410997227538878,-0.05581725295840001,0.4227164878735601,-0.585239502109336,-0.09218727711480956,-0.8836416035062196,-0.4075303845679601,0.6376555985194887,-0.8262678155653809,0.960834368894931,-0.2680271844550599,0.36179549901316,-0.48247224466446403,-0.7471174129382105,0.21245641793796957,-0.7110720837554222,0.5385743180310973,-0.8203799885548726,-0.5149501358120676,0.060788633285316966,1.059679141184983,-0.07986418743549716,0.6029929801580134,0.3056911181341985,0.3142980779123408,-0.2961640998099112,0.5802268293174709,-0.4347290804016761,0.49047779969243654,0.9115282266026317,0.7284625842121293,0.3127408900736002,0.5164237512831675,-0.9538617064925574,0.6953216350940743,0.39748227031174244,0.5870313377593155,-0.4011921620797909,-0.33997285476457484,-0.4223322025882015,0.6059750572402145,-0.7324072811113684,-0.4853438596609656,0.48698845682847564,-0.7209223754606101,-0.23508725064498354,-0.4499851624131693,-0.8861054077579751,0.6614585895569435,-0.6469425221318789,0.6759091221745909,-0.5530434698023827,-0.8313899447646779,-0.9295300910538804,-0.5219638720710141,0.07178281113264551,0.32220541537055425,-0.6006537717755531,0.5803138515526238,-0.5001410085294895,0.7986738040755603,0.0008345168050487572,0.4440792689096702,-0.3700870152651792,-0.27798423817670104,-0.24892650819697093,-0.27612816039947874,0.29224646588368985,-0.17749872473883865,-0.28286670811654124,0.4683357104361783,0.7083035368940933,0.15393415763217064,-0.2487293783773689,0.7007646898808081,0.7085372903107324,-0.682912761365216,0.20023128014599387,0.49568539181136156,-1.19064028384702,0.38326896867064686,0.15253079397231173,0.9141482555135776,-0.6971143494491236,0.40475433981227993,0.6972951904500662,0.7931178231608991,-0.13367404739345412,0.9602699796888183,0.6297327102156043,0.42203886061561957,0.27180690353347026,-0.7324395768483929,-0.22313715855020821,-0.6311437691006554,-0.5110754973554033,0.8694980051600614,0.1176590840726559,0.9966247595629376,0.5465423864246575,0.0907300955943302,-0.7520840731286713,0.6561509008908821,-0.19009225674281227,0.6164432229964243,-0.9240871065744083,-0.8958316222385105,0.4526437426318204,-0.7331394593873475,0.801087087505439,0.5957820480412166,0.6801004830481368,-0.3065671058317956,-0.7888047424872784,0.828830309954814,0.11427158154875494,0.2092255960794669,0.41961316789976677,0.7374090575702967,0.8026772198649847,0.17831621973820533,0.49893280866591017,-0.3105069610897464,0.5339409494440515,0.5220750147918207,-0.0707508853873482,-0.8253971087936092,-0.634843535968709,0.013142031257768139,0.5196708600804145,0.7001730436412534,0.037097241802468206,0.5021983021013967,-0.33209658865484304,-0.2512466478960378,-0.07527576306582517,-0.5438891915240855,-0.5195710921430714,-0.6184323943275272,-0.5101750153428499,-0.9823845666647923,0.3918038328961162,0.5677975674988718,-0.687945674090189,0.8734621453180738,-0.16403648473096943,0.9074282620790302,0.1210070698521375,-0.9791524226132482,0.11321290941315265,0.6808136330711596,0.19698392604098602,0.848906743003691,0.8993582293229376,0.575358943315234,0.02083470112506358,0.5205382493904016,0.9251665385111458,0.034895979066822624,-0.6401066785217997,-0.7378329664838623,-0.020363255119481005,-0.8034129241618742,0.11883908106705787,-0.6395855128645407,0.12737393417005394,0.9450059538377242,-0.3771818081159355,-0.6266049427098574,0.47570215114928627,-0.4988283823450057,-0.5786764994642237,0.00336876516098239,0.16429504009248697,0.7288007838466659,0.14547640923534466]],[[2.882182554752113,3.3857754595401537,-4.673442313043942]]],"biases":[[[-0.16234837304670272],[0.09983684306114807],[-0.15734936061900623]],[[-0.7242573605420476]]],"data":[],"learning_rate":0.5,"activation":"sigmoid"}