{"layers":[3136,3,1],"weights":[[[-0.9198623175180589,0.021043580382627658,-0.2321572954756035,-0.4904899540181254,0.7303307689740646,-0.13468383592366573,-0.923380696990922,-0.27874812634653506,-0.42118424808779986,-0.5883813514240079,-0.7142464142770477,-0.8707632320934882,-0.9306133066312732,-0.7375198637982092,0.3742865505469639,0.689786174702018,-0.7484340507265981,-0.19418846010533986,0.8808324778267405,-0.01302550682887753,0.634766353129079,-0.5923241251095006,0.5594732637313882,-0.7092786668002253,0.20556220389818036,0.15330048019716558,-0.6768896769322754,0.1269820981593569,-0.05439609444611482,0.22239424403496688,-0.23697377507600748,0.3672334967959056,-0.47149063518199275,-0.40624534078076646,-0.8219231707694257,-0.7060081631479782,0.858692658417517,0.8582251348610215,-0.07350333106814211,-0.6683006577088362,-0.7296386790912339,0.31269894647696117,-0.43350399987495436,-0.46022372723662747,0.26685207530696986,0.8395931437764403,-0.9064465003881923,0.7495847476823818,0.4382572082680998,-0.7961734340217446,-0.16312782545450277,0.2113967161845029,-0.3564950425951112,-0.0392161505373414,-0.12710939393062226,-0.2737099551266951,0.3368874508019428,-0.7361822960191071,0.78682114422822,-0.9195780305578634,-0.29198768942461006,-0.3253382016755135,0.16318265822219602,-0.8996687049067926,-0.37520235797305257,-0.45386300443233574,-0.031453744650905335,0.5021952478701369,-0.843739190885427,-0.48298306455167084,-0.774794384913362,-0.42975120591239807,0.7883984690235983,-0.9311335933117308,-0.8238745058942223,-0.5891174812899003,-0.7277052149208834,-0.8562773229408993,0.7719941291759054,0.9667965947657544,-0.9246083463763333,0.17937234543497071,-0.396384556658516,0.30102884663375645,-0.1355165236492899,-0.20330086066173614,0.763494914352324,-0.055731066873729425,-0.1275356800054861,-0.990652998453168,0.05629553432650081,-0.25071493950433404,0.9184671928004204,0.3121245231365368,-0.35631186329381404,-0.24779130471746316,0.8521856811257369,0.5039955443925086,-0.711253218703334,0.12868810798631464,-0.5089518926492567,0.8535619259546148,-0.76762796490112,0.12726694350351478,0.6180890641632062,0.2571145168896656,0.12890364058447812,0.31735844905489013,-0.7542939577112313,-0.5063542594532269,0.3895291979863622,0.4960443408513439,-0.4525109883240179,-0.3463554726880882,0.8959582491666143,-0.21270347096892467,0.28887014245964315,0.24648627429893355,0.5134931055870473,-0.7520542400927155,-0.19519721040911997,0.32404650709939387,0.18661331050559293,-0.8409765072830562,-0.6511400255167417,-0.5485505934661823,0.8135862239681948,0.4089929332419288,-0.1774613374165459,-0.2765786526239373,0.11814921602080797,-0.30739465709734587,-0.8148542526050679,0.4964300526311074,-0.8799102946895951,0.6606289255977185,0.615865674399096,-0.01266859539223053,-0.3480661605899116,0.6518946836332564,0.6291788577618671,0.7784147663401988,-0.1798811340108677,0.563537242419629,-0.09386101163398308,0.8907846661044974,0.35116277151697295,-0.16762721963349675,-0.9154620957256538,-0.8767421890250924,-0.6179704423935097,0.9271530457241419,-0.5283109527390244,0.49416113079456636,-0.16980038648309081,0.9083747570101519,-0.2699335161423986,0.7833324106248065,-0.8331736210725782,-0.3643713474418196,-0.9672874569483929,-0.04598444431715465,-0.5380816261242423,0.035257047477377214,-0.7005735629669778,0.38690690415604223,-0.6656591181575686,-0.6800833555155312,-0.4789383788330295,-0.48038111582774534,-0.9628806673591241,0.9767434753240445,-0.2748597995166093,-0.12312120692940143,0.5019046179263522,-0.2701923275482954,0.731200045708184,0.9786590142254605,-0.6918727296765723,0.544719500853345,0.9369985969939472,0.17475063996834295,0.44293289201894903,-0.11949157348490591,-0.17592139605907287,-0.8914505794915033,-0.38297596456265093,-0.41175829057747665,-0.6094060542550392,0.17838751683213183,-0.5824626096973406,-0.2874357535888921,0.32352804943482516,-0.7406677267966708,-0.31109627652787,-0.5626860959539284,-0.8979087826512553,-0.49697395562352753,-0.14704839090234167,-0.7675964573667318,-0.31554237635452353,-0.13573070516252028,0.4835277549469992,-0.42499210422165895,0.36309303360060885,-0.4856410331182446,0.7242150079917042,-0.3229734399378595,0.9048586754393728,0.16134742051841378,0.40832365249547986,-1.0000667665642833,0.9750810089355413,-0.969615338635025,-0.046078448490305846,-0.501631675054693,0.07382303577845173,0.12627475552647072,0.8394600567339241,0.7622594673743357,0.7623054177993387,0.5244369156445918,-0.9228119252583642,-0.63367223413177,-0.9939396949136239,0.8962293383811291,0.6768414487092596,0.5058675997461982,-0.12570402729963948,0.718955968471767,0.1403414593256085,0.9170517114186698,-0.6949443433959488,0.9810667582848036,0.5460360626774705,-0.6262262511987609,-0.22815867881588292,0.7089336197341356,0.9915633833295125,0.9763508896443616,0.030425287303011306,-0.18991913580036668,0.9238042399957713,-0.984910068437813,-0.31286645744852204,0.4545023896020186,-0.792317945429519,0.7018319710900967,-0.18953506523087937,0.12436737389903296,0.6027224079870062,-0.8825882726775076,0.025489551829527057,0.6007060385120999,-0.596791174729719,-0.30127871226746233,-0.4024743376831905,0.9997529587672251,0.9868368964876055,0.7869313582693054,0.2496099479209084,0.910175910610636,0.8339633329367098,-0.37834095525462136,0.9438324429010247,-0.9038108236766078,0.12669060476265748,-0.10383846434745975,0.6057824010006645,-0.01078180434158127,0.04713121017236355,0.6090320062896593,0.22415632065063584,0.5074758207064065,-0.8153404332541074,-0.7228711596232413,-0.32011215519253233,0.6032349479428489,0.3513314149283526,0.9506308008128681,0.3602889642894489,0.09628147607655735,0.8746831151686913,0.2651392420896573,-0.8050574630974339,-0.5452319244119865,-0.03219184219851945,0.703017248625476,-0.8018443015103485,0.19630259715153087,-0.20767456989039168,0.22321229606701748,-0.556349626446593,-0.8083619240322355,0.8650230585557623,-0.44350443637858766,-0.5495092338074521,0.37125038252702214,-0.43969726067005577,-0.23834064072409722,0.7474245346568327,-0.003739895969314011,-0.8882897992657253,0.903802684740391,0.18707412941511414,-0.9445318439413468,-0.4979056785095264,-0.8585377003246559,-0.37048499358838693,-0.15698132821006072,0.09851798546859869,-0.9075758559378093,0.43710835124864156,-0.6069895814829016,0.7769878128213572,0.6287949902783807,-0.2675093523640495,-0.7784830509191325,0.9575568883384094,-0.8590062825950309,0.7872536176329821,-0.34299352769273184,0.9525987562591018,0.6791756120798484,0.8190398136675672,-0.5546315425353465,-0.5393868200090248,0.9430981676572898,-0.824992349131213,-0.7531472380920785,0.5854003735064033,-0.9464464654597691,-0.35706360017002936,-0.9335636797372415,0.23325000203625978,-0.5013709230959338,-0.6825454792040504,0.5393627836704669,-0.9910524774925109,0.7599766356279534,0.8283548130515068,-0.14710117380957755,0.9585052426342,0.42195382574593737,-0.31744976033404115,0.6274821135806041,-0.1019957198341157,0.7130083350492167,-0.8940045012302285,0.32485739746372544,0.7332266902748834,0.13952327263733372,-0.3111115127972508,-0.3437664975937893,-0.6949781865650742,-0.27818645489171573,-0.9800068631700083,-0.5004029543506741,-0.9478333586699408,0.8766335273646764,-0.04875422620991543,0.11607085118302596,0.7868092165872353,-0.6927658927714408,0.13291460618465423,-0.5844731360842848,-0.2948550918135542,0.9987886972115023,0.9157477591701013,0.49576049769207353,0.7363266993803259,0.5792980272567805,0.2488845269454334,0.8765744407896965,-0.5418030726541365,0.5018448333386042,0.41148521506889035,0.2999635876825406,0.7851263536674509,-0.9630655852362218,-0.6803487050143242,0.13993632468016703,0.8658234384130734,0.42366051117049713,-0.12104156337369787,0.5115391543796401,-0.8813186110517577,-0.47372977454130055,-0.6377020647748177,0.725489155005163,-0.08568346501607449,0.4577972459679142,-0.1594469777476566,-0.9670691156429747,0.3141197558116271,0.513811847970809,0.8349390030280441,0.7603908502852605,-0.22327481751917677,-0.8722811826473289,0.18662750074262857,0.45816655655202765,-0.8165162460759599,-0.4680113167935985,0.39246649361923125,-0.07692419962872954,0.3667705625532478,0.9598663397308014,-0.8850945011283335,-0.8697606374715818,-0.8973685062357319,0.5565731863746792,0.5506902544515462,-0.5031345302129662,-0.6864169881549071,-0.9370963347983237,-0.7482075375829764,-0.9160661888449382,-0.07534893916706809,0.3395495173434994,0.2012576899262537,-0.000038035790618895504,-0.907757443733469,-0.8890206080160878,-0.686860751374855,-0.1724283990539912,0.5031806926712752,-0.21566189959704568,0.7825051359973565,-0.277979571328687,0.5863368472050747,0.687308629257299,-0.6421523521612511,0.977559887689269,0.36142289363578683,0.7937614216908566,-0.8583589902795903,0.31546391893145254,-0.9643648057651244,0.15546873388218158,-0.3260183989561356,-0.27231387554008313,0.6214536468575382,-0.4679224418446664,0.7032286243885528,-0.8334148504000944,-0.8740667813230389,-0.39805433534295337,-0.2990490243305186,0.9029731335445146,0.15489261039752034,0.501059213294393,-0.4950781997764164,0.052961020999518826,0.4769885103979554,0.06406347592858137,-0.937444714984806,0.8216934519183741,0.9464716663552779,-0.010914623470132214,-0.10126522620085687,0.9361267632332013,0.024190403895173018,0.7899301330737614,0.8948781630684062,-0.16141663944807716,0.23141407199064168,0.37818184854964104,-0.30544477790965785,0.057228245669866507,-0.6480933108226872,0.9829625539995008,0.42372021214973077,0.5059377141827093,-0.27422167557024224,0.6474350968033553,0.9543427341451864,0.09659695758786913,-0.7122385758507439,0.31340046020950413,-0.5718632973397961,-0.7122750847730308,-0.46736413935187326,-0.7282259936902695,0.1537292627206568,0.16247005953073312,0.9606470288640172,-0.5251264397684832,-0.5807893865460629,-0.6332266651703591,0.01112587904742468,0.3635142923922489,0.42778731455876895,-0.7928762779291278,0.06541500772093167,-0.8603553546866511,-0.5230413571039504,1.012778521201946,-0.8968799129001089,-0.5271063136012826,0.22798976794077044,-0.8329183164754675,0.10151233846205794,0.376153138540032,0.24002792357999944,0.5169942053038767,-0.6204161706015688,0.07922856609394596,-0.41400115460405457,0.6497356713917983,-0.657205597553497,-0.6485990754884805,-0.32988589353797876,0.44217594452980785,0.3741628605040392,0.7315046000616467,-0.9808745524401355,0.03768433620339347,0.7139464732816275,0.19918502335773475,0.28175998689842063,0.1808494143891194,0.49493678121603657,-0.8344101667102037,-0.16362999704737904,-0.5554191668656834,0.548486193933349,0.6798405599305783,-0.09624847131631642,-0.3456167858247517,0.9582826134576251,-0.7097354043443769,0.8014434974437721,-0.9579419176585209,0.6854884139579054,-0.3708677280751625,0.5612030939165771,-0.3409190245346303,-0.7960627563705955,0.12658983579979877,0.5578113988004882,-0.4860441687038908,0.8542607588619391,0.04071316460166984,0.528210418662145,-0.5700316268348211,-0.6946358995061666,-0.9119990745866389,-0.6531625766887335,0.20505067447773584,-0.569423031072599,0.9724932084738143,0.10565351693459624,-0.788423147311426,-0.7089858013400208,-0.3633583110793535,0.5236237957069971,-0.17549664442741042,-0.3302675655498537,-0.26408633658077624,0.9549770376585873,0.8061160972186239,0.8406863052811224,-0.8161468581142046,-0.2759282535724721,0.3290787338643124,0.4320742151313932,0.2856812741293399,0.263162726568015,-0.34506637766081205,-0.1548271676998172,0.2180356023735736,0.7995116485493523,-0.9170203101151357,0.9109105002068103,0.4823338308496283,0.1893008163071972,-0.0627933401633971,-0.5084015065959526,0.9607741030309374,0.5119017639587549,0.025289420302561316,0.3904705680839331,0.13091236117903837,-0.852739853617132,0.9565472947908173,-0.9958294519917508,0.7854532369441649,0.5245480931203379,0.09077890274658884,-0.17469158977214372,0.06240480259281032,0.16433265291859267,0.19884707403872537,-0.27839891198466904,0.12857706698862603,0.4811873528642938,-0.5623020146747733,0.6565235315415217,0.7794417304354306,0.18646161238098058,-0.5130314380456893,-0.12895986627973555,-0.178213773625078,0.1304496340964022,0.5148182376393207,-0.5731358254099115,-0.36202918276983237,-0.26912784069730417,0.9258178898843097,0.17866870962578738,-0.5292662210526564,-0.2602191230584163,-0.04271917966763873,-0.47580358798542094,0.2954125956571087,0.3485999786445191,0.8151538733227617,-0.5643132477732198,-0.10554673301670206,-0.535495960951775,0.12499001749824326,-0.746003074973631,-0.19789569456674921,0.6061359187001604,0.6324733226210449,-0.5792827136285862,-0.793010868713858,0.17193178538940518,0.8934971954312242,-1.0367734732541352,0.5993046167629736,0.28849308962281367,-0.8904434663821001,0.7032233727299921,-0.22852190360036506,0.27269724770319004,0.748084671566612,0.22907605517731733,-0.19954502772169153,0.22204934451814623,-0.836205880656581,0.0906617681797891,-0.9085738077818724,-0.593006199539194,0.04675493282962144,0.32775514378254716,-0.25015551222020155,0.6606488656738672,-0.2556701218382122,0.8447696836140732,-0.24545986202412406,0.5099360334329535,-0.5454330944231307,-0.6528700879210037,0.6959980764463105,-0.4053461753249601,-0.8414862907665377,-0.8489625267775454,0.7057330691770478,-0.7262809904321605,-0.781042335222061,0.9603444763683884,0.3248999125303191,-0.26328282655204593,0.9765635789247873,-0.8063205076843831,0.449839654252943,0.15645900622478148,-0.5091642393786497,-0.32533409270312785,-0.24956383674400012,0.14666263009704994,-0.2803017243660042,-0.9004543002644094,-0.11561542055620797,-0.1497374255412791,-0.018662169758649094,0.1859123823555624,0.09812925101839376,0.5079753832971072,0.43934023455070004,0.20561296396618234,-0.9957392960178378,-0.5851142415752777,-0.18818625139159018,-0.6258810004465909,-0.9844869793663827,-0.9010406134845119,0.03005915742683163,0.6023212981055335,-0.013183019205536406,0.809572926683725,0.1867546112747036,0.9620864088822385,0.24515444133363123,0.7742013208652452,-0.5430680434399155,-0.24157872036633599,-0.6460461492440257,-0.9427524955342814,0.5985791743112345,-0.4881842285139266,0.8034522514526787,-0.5327269246932564,0.7748289748093202,0.7518616714190842,-0.9793634906309573,0.004173946391820449,-0.42701552039666857,-0.4043802056383594,0.41281606186877035,-0.2085092276510394,-0.6948579153271752,0.43828528481851015,0.29695186819135516,0.1945191737709134,0.816754067825363,0.6088955077473678,0.61261989195047,0.4677107064889908,0.6368332186534117,-0.17168732072770282,0.38226957147759405,-0.44108384500394304,-0.519649224552206,-0.6195986327449161,0.2620713759692535,-0.1337640722371484,0.6531652344122345,-0.04163713329839161,0.720981624258326,0.8881033657496672,0.23342762476058257,-0.2897052065524729,-0.6040415912420414,0.8454474268249517,-0.61305089281589,0.17615566308273772,-0.19213220192608188,-0.24680027278892064,0.3275743688977125,-0.6909748671612791,0.018966898454002488,0.516950168295944,-0.3219232732128082,0.34801294676076566,-0.5466918525946547,0.6550811430340419,-0.8018363324965968,-0.7478052706832566,0.9519469773242679,0.8007179311773635,-0.021488732310922957,0.4621486338280016,0.6669227697151268,-0.833057985035701,0.09550892681128016,-0.578497749086747,0.10336078076419164,0.8860498896347124,0.7536067578899537,0.04711376271479344,-0.09749289823334939,-0.016587941266778206,-0.09168123894842672,-0.479383601287076,0.37121723763121145,0.14519266319005708,-0.6316804678046135,0.9590511978647522,0.510732746562864,-0.270432735314144,0.9223677918137774,-0.6208662195859778,-0.12076221397567685,0.9416213246516216,0.47091927252542476,-0.6388953713213767,0.054347059113859945,-0.48307202505388624,-0.20920114851767502,0.3793956816157278,0.4856861247075081,0.5594882841988478,0.7326264264092348,-0.11800699744563303,0.4027749388668708,0.24438956769670406,-0.9446620987323977,-0.48092173491201984,0.3332204415869346,0.9265708323568285,-0.9372113741272234,-0.872013425708063,-0.8798582418786915,0.40096191792214153,-0.015147214604922965,0.880796426765931,0.3579534432289599,-0.10069177560975673,-0.1133907047567484,-0.49141639996285535,0.25257216159539103,0.5757108504733524,-0.6271212724330235,-0.38800129583089005,-0.33828284636304967,-0.4924316739996195,0.5236068512452747,-0.7624145039851877,-0.03872737843740096,-0.7332326915412972,0.11483311241087613,-0.1505969991756364,-0.35679361153888706,-0.18297551841248394,-0.25344597351591114,-0.7827473944539589,-0.7784657377702195,-0.9122323916013959,0.7545347685618669,-0.2716599163324649,0.8111137847200292,0.7084726329265003,-0.08380619126329902,0.44620635325421776,-0.7806255514193219,-0.0177625822354728,-0.20638881055164657,-0.09605517537632267,0.7205563987445387,-0.30140600966377,0.5114334851264012,0.7743776310600794,-0.907010845442149,-0.09970556482396492,-0.1597483646637755,0.4759587752557563,-0.4177017664087295,0.09869663906898724,0.10372909146086579,-0.7246738094982205,-0.9371274322434642,-0.6643247173282368,-0.14135659451985652,0.0017805788015557472,-0.3832575399333327,-0.3527778814052018,0.4272252215663145,-0.3701559032639791,0.3958933196430971,-0.8994965897247621,-0.06949745767946232,0.06651151594488922,-0.43349518257263725,-0.9991634627926919,-0.009998165143587368,-0.606158935589313,0.9164720841540672,-0.7840213619794715,0.8521249020045311,-0.3832615881146907,-0.06994553489664201,0.2733607287564897,0.2723675915325657,0.5192172162818256,-0.42747112467047305,-0.25027725210835644,0.13550980167006815,-0.13814800813947603,0.6615740958164811,-0.6736537756730197,-0.4230297654255117,0.8856054769950263,0.11096326148061819,0.22721870417397239,0.9787488618228479,-0.023562433410970307,-0.9162600433281181,-0.2268601191461843,-0.1730755737909564,-0.48881957252559705,-0.35794224292453786,-0.15881029137079872,0.4232540931611257,0.7441828743197854,0.6053747174110171,-0.44179003588090193,0.984523143080219,0.5867851195522991,-0.6791842536081232,0.6149948264470142,-0.3857545210001081,0.804336701915862,-0.8550143124582728,0.22039611251055757,0.7504218935830509,0.8994209590975064,0.5519132911199289,0.34184932962893244,-0.23863251577913291,-0.2508652040501258,0.4909382345672932,-0.29304032035863004,-0.25648743343063196,-0.3142455931494941,-0.4469049445322462,-0.8632784192119443,0.1596904689269547,0.29054677822184316,0.9093050317515972,-0.6010790659605265,-0.9594281971460505,0.4806160282440466,0.9867018085181871,0.04479425277212434,-0.4871444404564498,0.5305956643673309,0.3261670471601596,-0.34506873543962824,-0.21431454883366374,0.06938654616367534,0.7652538945788063,-0.7505416744735574,-0.3338433236782341,-0.13772758405643293,0.31627042671851274,-0.054966748190154346,-0.5964054479360936,-0.1954617369301388,-0.0032017216642630814,0.6816233988178573,0.3321303247388072,0.6003421566589466,-0.9772009115397169,-0.9822696979339385,0.5845624680101882,-0.9832592188361715,0.057315821052904316,-0.9899454469816664,0.27545383601817647,0.6436947020368731,0.30621024833119564,0.9188264781137844,-0.8741550617948851,-0.27635871051326577,0.8185131877588327,-0.9087530433958224,0.929525012994461,-0.045755227016411035,0.37038101722830014,-0.12716792158103643,-0.23889008036878437,-0.8725655214224767,0.7171784218460675,-1.0545690551909042,-0.3410226751450723,-0.9057904845332468,0.2674103067129228,-0.6341735117462229,0.8238834806137402,0.7425495765245983,0.5654274453785877,-0.5258120301976404,-0.9663556804503003,-0.8947675164634951,0.7987703718180144,0.9576661977066011,-0.8393861071927938,-0.8413976730478067,0.12680227648849257,-0.9814553104509333,0.6845702234881691,-0.8173280149208727,0.23733668455471107,0.6447241478431628,0.8422584044613503,-0.1959857442505394,-0.8902243944692665,0.6593931045827145,-0.8138116136340073,0.8216601615021765,-0.5481944939263141,0.3418141668774029,-0.4660297007970741,-0.15075257222482155,-0.9997120851826388,-0.37460079816499947,0.8394447557004756,-0.5760482139588559,-0.1745802092275553,0.9187588772083679,-0.2636138714387559,-0.4718312086982015,0.7800985655318222,-0.2697290158762433,0.13674249333144983,0.9200760660825713,0.4051302944474841,-0.6369659390922371,0.2438798375295803,-0.8280570380967689,-0.07840743433093289,-0.12652403611211693,-0.6754622383811673,0.011877228456685485,-0.4372032736057017,-0.6565158611092392,-0.8288234971181043,-0.7278856858945457,0.6874431513510819,0.4322586561429729,-0.7173604677974359,0.8823285334650202,-0.666185831621612,-0.4449427992679631,0.4764098558234575,0.03114871711909828,0.16009538706643872,-0.6008065740791604,-0.26030041649848634,-0.7683280164003354,-0.4433693346245123,0.31091529321910016,0.31065181689234067,-0.2748795609140824,0.15374188881745682,0.8265403919192007,0.42216551322765783,-0.8046091827525643,-0.9446330596340031,0.11073395015547405,-0.2700712563184118,-0.21423671769381292,-0.9319004440434693,0.4778363298958572,0.9717404561246101,-0.4941772358668868,-0.3191632772549469,-0.08913090088014597,0.29764025243162706,0.6161507784303815,0.8068524470255558,0.8285275432100632,0.10011489083876546,-0.920357290192809,-0.20635187880236644,0.17729599719165623,-0.9296845470832624,0.3562026714654958,-0.3127497389288481,-0.3946051810963389,0.6702559044233344,-0.5700628532580932,0.8499494913888732,-0.34701481412610846,0.9390494444705706,-0.572021964148143,0.4227279621879831,0.16516686167932407,0.5653264175924545,-0.8751466230578789,-0.054001209895625506,0.7104711527694638,-0.44901239571767704,-0.9562946664062468,0.7081120356594368,0.8258560407069147,-0.6560049550833515,-0.8198283049042467,0.499567142391043,0.7282268468215376,0.2124644833578693,0.9217346676317899,-0.47155930968383825,-0.5064820313360898,-0.5733821296526441,0.042089210599019065,0.6309022401051159,0.3025390797165624,-0.3253221232107832,0.8487834212260956,-0.9964944409186943,-0.8080577537225402,-0.6545382235309809,0.6984270867766731,-0.7890349252433642,-0.673064638103881,-0.21729224685430285,-0.9521932493187566,-0.16935589468162832,0.3808297883420587,0.42063591470204187,0.43305565810396096,0.7528318405441585,-0.5032329074255011,-0.7453982514593345,-0.21265080742451306,-0.08961549176699424,-0.925118567168816,-0.6827225960548895,-0.6797168543261038,-0.6422658442185203,-0.6209476886734246,-0.5559400091369833,-0.12457056383718723,0.5385482571444093,0.32245606964372686,0.02919615299343814,0.6321133907209722,0.9576530983711977,-0.38714997222970915,-0.04145165640164872,0.3971937213785659,-0.47969514453870155,-0.08865852137292851,-0.5822211792259646,-0.023713883878554887,-0.6807199615242601,0.3559357633926423,-0.8115924529263012,0.23339460148937974,-0.5681300609708315,0.6668625001569723,0.07917940796103129,-0.6526440587024009,-0.8158396373571717,-0.6313816261077132,0.6753321352518462,-0.037154310339754026,-0.8868206758269439,-0.18260657567288852,-0.15433417702921925,-0.7291230664745807,0.5349899911193088,-0.4001085699384239,-0.3618186118304634,-0.9757183133468683,-0.731302653471531,-0.10811419813137069,0.28794495524755925,0.9329376419677171,-0.9410546429393631,-0.0005711830330485945,0.8386909261015898,0.819776790673449,0.02005293430708156,0.9757329975649669,-0.7304735799270046,0.4043268658076893,0.29159768287356996,-0.3319519741939634,0.64423214553249,0.4917679735973133,0.8709728179818723,0.5475510360534271,0.9414460151324301,0.8072305628800195,-0.5386291441924576,-0.6594944523103354,-0.9172572751564132,-0.10968814327462226,0.4869965847637456,0.09760035976453522,0.47349230534258746,-0.7541673309911395,0.16376516143842273,-0.1728967293900957,-0.030153678587479804,-1.0469493987592642,-0.8973084779079559,0.36716016254550843,0.7642063806138635,-0.30247306742035673,0.24774349890307706,-0.09815644077665955,-0.6010146743211582,0.07078388906798858,-0.8570104537583063,-0.15679513439021436,-0.13520930884057997,0.0024720456352997186,0.2005233359734177,-0.6602332605593011,0.18068220000983354,-0.05384940108383248,0.8146930799744083,-0.7900391340117725,0.752838097133903,-0.010871423655863466,0.5249557741991401,-0.39559222740655964,-0.588180974832914,-0.042650306279367875,0.7746319027593356,0.3478103711462354,0.4077693055453064,0.5519177914212665,0.9426791092449796,-0.41427119168048065,0.8589029537136537,-0.21508419556785938,-0.055231897103521714,-0.8502885477746244,-0.8172490815217638,0.12449346378005892,-0.9350804990930803,-0.9567681771781583,-0.021810804249378788,-0.5810980740574937,-0.8242986436011728,-0.7982152078305971,0.602248405792355,-0.0764166019467527,0.7314150953768921,-0.6776832426822625,0.4996346683541957,0.5449919557954666,-0.5523101732124247,0.2777950982138986,-0.34257343531517814,0.1957775815534777,0.49697852320874664,0.8283022537420959,-0.35233642612151383,-0.20681656704393392,0.062431271336852646,-0.2246881222967403,-0.7692062382478342,0.6765074745880371,0.9615839763316747,-0.5381051564844943,0.7256265687477987,0.5746470501153149,0.25159384888079545,-0.7919772082751968,0.3011256227943062,-0.5328432202788445,0.7560444668075792,-0.11448124037503016,0.20730376442167953,0.20681683486414504,0.26286402734442854,0.6943653120094688,0.30033722466699286,-0.7886076703583496,0.8444111597604933,0.2124110171533431,0.00545241459195922,0.45105971997546224,0.8291978025557065,0.18458737652586277,0.4137227629820135,0.5234955276377025,-0.40653872452757694,-0.7930605119731198,0.9523628441875356,-0.3964322642807654,-0.014436825541759448,-0.8332484596131098,-0.5686812111405999,-0.16838519197294244,-0.7687913664452102,-0.6391123262252573,-0.23239257896975576,-0.6834995982046937,0.7699205619128358,0.5605047601788445,0.9557997085461226,-0.6062592798653504,0.3051912008199406,0.12785447138990502,-0.17393963474773227,0.2791636987826902,-0.7714914237044559,-0.36819498929134975,0.9068388996936412,-0.7326344430438172,0.9474361523679546,-0.5840132322356478,0.29256059448901406,-0.1680877421300696,-0.993643361884359,0.5218468265238752,-0.9897378449627878,-0.29142724635070394,-0.10636280277912405,-0.07477019371830713,-0.9723428212903854,-0.3090478057113215,0.8273101661548261,0.31175102611924405,0.4973642915197348,-0.48385820199493734,-0.5335364804723504,-0.12759731478170191,0.7028696150704153,-0.12126239068035886,0.449769719339065,0.9753532169909231,-0.7502633958082219,-0.8081909820083841,-0.3891193684475312,-0.15866393148965058,0.5371063223722409,0.20063115663882874,-0.5500113930269908,0.7381833075213743,-0.7042752176912853,-0.9041666575076018,0.4377107134133164,0.8945108038702707,-0.077388474033714,0.5502085895428852,0.9448917113040274,0.619676854512466,0.16437950619182357,-0.9409166820155328,-0.6550903200769336,0.9781501280206845,0.23279128789669826,0.834324025601355,-0.2966706447605348,-0.23461637011049108,-0.24480324575046475,-0.33492641558625924,0.005720884184462851,0.22045550459794505,0.9892062080152972,-0.5645324027395848,0.6367343312282354,0.3555429463740869,-0.5787123292020153,0.45667240292213274,0.3420150438237903,0.5925034985589395,0.8086131858976315,-0.27906129444697303,0.6369274879936673,0.3071224534052839,-0.7370846543398679,0.308911032070758,0.6119174516054728,0.5654138334088143,0.23251108929444908,-0.37791386838762486,-0.3407381529539249,0.4987234567069012,0.9447599213591416,-0.7762471179343766,0.921355364407175,-0.49012111506278155,0.2072819557701684,-0.8065204682544622,0.2675992262205707,-0.7044942785612345,-0.8674047459774223,0.6048345076742359,0.3552383692236129,0.6982717303847186,-0.9709930029749203,0.8573310728455259,-0.4126444802362,-0.46340138589249946,0.4965232491419542,0.7762800203996572,0.334876943698132,0.9486086937062788,0.6941473859349827,-0.12768563282582357,0.6599447614040006,0.27006458404598477,-0.9810815562314178,0.2844148218893616,-0.550328896654356,0.5401599363205934,-0.5120777914724345,0.27543505650118855,0.8362208998509111,0.38236511932388867,0.4327014423851619,0.7461678571988165,-0.6368234416120531,0.1892062427379533,-0.6662488570780111,0.20923076038926608,-0.9292372696302866,-0.9956733030640015,-0.9777548579943212,0.09806835831997925,0.22362175218957953,0.12400736387805081,0.637901783652558,0.8539192249733105,-0.32318326163085903,0.9532416466000603,0.47216207179180963,-0.5003311994611152,-0.4134860040806197,0.06098358232991858,0.2379260121151679,0.9722885577505811,0.21101557270000398,-0.39916336800353386,0.8896863514826637,-0.9290924019331841,-0.7634839567635456,0.5800657078816328,-0.35711628261297895,0.5595110125097235,-0.23785943323227643,-0.020720762742258352,-0.645700944235262,0.23305692626947222,-0.299821338165323,-0.3931306372847244,-0.7262888137878428,0.7022078653229601,0.7523048614139394,0.6945580589900111,0.6375899109420671,-0.30681363933710787,-0.39265995536270243,-0.11385117961919371,-0.10776186502041711,0.7515713310314133,-0.71760482345729,-0.020774765050314527,-0.1908645347750318,0.7471553240650879,0.8078310493996403,0.34808730168571883,0.40104816437042284,-0.12615063267458576,-0.5912266645627471,-0.16758450640242506,-0.9225613162957602,-0.23843785787747485,0.9485771677577368,-0.8080156105637926,0.49264989003494186,-0.14395092130112053,-0.29243558410983145,-0.048939933442207595,0.0822532647385692,0.33795586152444246,0.691887786142118,0.3197872877446897,-0.06844929281505907,0.2704420824511735,0.7477523022444408,-0.5922712806805328,0.7589365923701941,0.44865630940617085,0.1985402647974434,0.8170034327789013,0.7362854730538602,-0.3303060974069758,-0.5333424378944753,0.8234358458803057,-0.6260597129871417,0.7990627011093896,-0.8222986677409372,-0.9019765641312472,-0.27670634019220697,0.9925649908377512,0.6195459267610663,-0.6645908512859366,0.928481803310186,-0.5088483921484206,0.4210811698414771,-0.32607062899018224,0.3972311368156767,0.9807401735633428,0.3872084440736558,-0.6021750522778664,-0.2209745494071711,0.2274811212229939,0.5139126506350861,-0.9859193327353575,0.36195275336283217,0.2967080490715437,-0.23516642175906566,-0.08873134658626622,-0.08055215355103937,-0.18815258595007237,-0.12917279093059936,0.6778474430874307,-0.22627813517077022,-0.49028135287228053,-0.07688986836211398,-0.7592259283430606,0.7576730366455388,0.7548982320800494,-0.6564356125776232,-0.5046202906073287,-0.651028806760369,-0.6663935979235659,-0.1877328561254648,-1.0321391203956543,-0.7399623212363019,-0.28556360218403154,-0.05309084529192409,-0.8866134554040556,-0.29686807614116995,-0.5561771174600233,-0.7359782064106086,-0.48023897354090767,-0.6665049436176023,-0.3859573207086848,-0.07464893608740097,-0.37121870473226093,0.9301985722641388,0.5605042790500416,0.9262870170198085,-0.6935926686089686,0.2838981367240434,0.6067349456659561,-0.6244870571855747,0.4302639616591107,0.7104904025578165,0.33387307888985834,-0.3506891485601851,-0.9934953918959744,-0.2004141647196732,0.3834283627753448,-0.4549656248813248,0.45436597367967413,-0.3006928738149304,0.8313378190299301,-0.4190851129664748,-0.47349115506886225,0.42908812566895166,0.3044973890424541,0.48160349401807906,0.3222630277603309,-0.06417137802360424,0.5148012922051567,0.5697601716995966,0.7525187229559396,0.4339517060069548,-0.45753107350860517,-0.052326811991918874,0.905565263896733,0.6450393459428033,-0.31907819909493584,-0.07475341703316696,-0.7973343788695146,-0.9337891679349384,0.4630490596655883,0.6837531697899761,-0.18507404354666268,-0.2828296893775255,-0.7444697283773676,-0.4430800916726026,-0.972164968519351,0.4445632815179419,0.8644870799528841,0.20333480959178835,0.817430104010556,-0.5808328321996006,-0.004858291646336221,0.8754510500562585,0.17702540382666188,-0.8395965785814046,0.16357755181568034,-0.8187713002775223,0.8455492496411823,-0.1195521346220394,0.8541550049120143,0.8714995830388017,-0.16566099303685555,-0.7615574152609335,-0.6685359627551781,-0.7263569771967531,-0.5280294804196759,0.6230281490819518,0.27227650723686336,-0.9044133013998523,-0.49659817108190407,-0.01313969583968011,-0.8646773590985721,0.6721847325498096,0.9541540591707298,-0.35038533113242387,-0.7304339827367745,-0.7183498974986136,-0.003741175441532185,0.7782254481362476,-0.07894918134993412,0.027054216186915097,0.24428551670533427,0.567011577984526,-0.7559671091153799,0.7715450427390278,0.3822248038009756,0.33339714427906125,0.24372358091754384,0.011046438542418323,-0.5039657391749068,0.5576194973944021,-0.9073826230399858,-0.6758049255657883,-0.30239725533848144,-0.36302911773981034,-0.28975692929570956,0.615672068121262,0.32702498245834777,0.09055889846984053,0.3348708369733535,-0.2166719877525441,-0.5688064347389198,-0.9998077212988253,-0.4447313892878916,-0.5940975408438665,-0.8260282240573005,-0.08310270946949605,-0.7241595577764246,0.6735872042158766,0.3333011372757825,0.11664168543081749,0.7013715434317233,0.32541068439087834,0.45792050720484256,0.37484740420906204,0.7695443290890079,0.03141559877198074,-0.16906788842684817,-0.09519987196809304,-0.07763960985239378,0.17243500341717616,0.7891460387450285,-0.29882372645113986,0.5440137762701859,0.23860870026153597,0.36496351917510744,0.1229703736999572,-0.1965485086031756,-0.7118515935938179,-0.8629692846521013,-0.15459575583546037,0.6346238425608965,0.886302942305466,-0.1877166886613745,-0.6490395926916502,0.6789615147959466,0.15812778680708556,0.8569582793190591,-0.9482863146673917,-0.7123484483844011,0.6290310087183046,0.9349240492004682,0.6620107622403393,0.033319220655658316,-0.4021893494224798,-0.980067882545281,0.0403116971107539,0.48053149657475913,-0.045044053756368725,-0.038686863107098235,-0.5255092968652586,0.9873740272114948,0.5609309950100376,-0.5083044611501608,-0.9187048298442597,-0.4267798542447667,-0.5861457570975546,0.011151580708088638,-0.03870154136550363,0.024779527608064678,-0.19048092041075965,-0.9310512335951802,0.1177195351135194,-0.35680000485696106,0.35924543990374186,0.7249342174414433,-0.614260644488368,0.8408348016921718,-0.626898066335438,0.6611105465843337,0.10626449247604253,-0.3029300511262807,0.08331106160114671,-0.9361009018287638,0.8428868602594128,0.7873386519618057,-0.06268465659831657,0.7981165619020947,-0.1961082762392934,-0.09251715869356714,0.8756637445497824,0.7331349238298963,-0.4084410292950851,0.28514012841509095,0.8265949645330235,-0.18357483550522535,0.3491898734971761,-0.9976785690597572,-0.01403723797194885,-0.36548167566959827,0.4468581580653325,0.49041606705117385,0.26095513243477525,-0.0919212396549994,0.745833386066008,0.8744919309917631,-0.32230391444032175,0.5260297990579701,-0.3948278182435485,-0.5047132779583322,0.8278444455251683,-0.3925857322197601,-0.9874907064722759,-0.7718116226282811,-0.27515901785620983,0.9051171268024524,-0.41572388180701325,-0.09378034788089433,0.2542311372774265,-0.7803772463791828,0.7341089146992376,0.24940613485763788,-0.7122627153321848,0.05563030297596029,0.010353934981698563,0.724166653901868,0.8047443504746008,0.13820717351822576,-0.7995208672511956,0.4998426895501849,0.7715460613180871,1.0462999311867256,0.09544884245875732,-0.5587833467190662,-0.7575804947896445,0.6089029328606336,0.48792655683205455,0.09835677128444785,0.9697614163597608,0.5423983858814234,-0.4572674032860375,-0.05174128917217952,-0.009948090922537971,-0.5559819117570031,0.9029431278950915,0.6905004950383722,-0.12317811966832456,0.660299763188164,0.6539897594650124,-0.8015180092312282,-0.6742063700274852,-0.15314045553280614,-1.0459766331149587,0.40465313208099424,-0.3015161803533782,0.5887363940053024,-0.2949413439073903,-0.9676675271830394,0.025878462400554508,-0.8767484102424218,0.12455503622509449,-1.005560608478861,-0.7675952191148723,-0.6336632359204843,0.6408592054968596,-0.4839864418638142,-0.06189008024702738,0.07824858161546588,0.2950508988873146,0.3098079480032121,0.8630427093023307,-0.34405738374031225,-0.3961412400688542,0.7614122849491343,0.31186062938495346,0.05920202051612011,-0.1878758075189504,0.8521904318227074,-0.8736340610639342,0.23078729577595158,0.6392963764146518,-0.9538938824911292,0.502533323184099,0.5647569728333053,0.28501862748743023,-0.9847142753191143,-0.9354313159967578,0.31958966953814993,-0.2506830367086277,-0.1390221516387775,-0.794824162224804,0.3209180024013445,0.4321716000992406,-0.5042734842112631,-0.9408789777218323,-0.9771802094014554,-0.8740426819940526,0.536669242087757,-0.6968206778348518,-0.3374037643238015,-0.2506123196221026,0.634952439776745,-0.343544922176563,-0.6014959092888972,0.8221409299385218,-0.7334496313682355,-0.8466735181823701,-0.28247501228152294,0.6684415741780336,0.5520173014902674,0.2960239181913175,0.2923726744461557,0.31760964072008596,0.4318230000670867,-0.14595255669577295,-0.9163664191292925,-0.135095628256836,-0.2897671841639572,0.83379585185682,-0.5910919518695743,0.10393541950650932,-0.6085819046849144,0.8663077106078811,-0.19599153045844075,0.04717103336397709,0.46951633701602513,0.21330265200740434,0.45079205641023096,0.8892637492662958,0.8763499428137596,-0.8678397044599933,0.5940159945326933,-0.30093515827153217,0.3262916974067197,0.2947529985954926,-0.26420308622317146,0.3019336072667,0.368740585233936,0.35674719645753966,0.7006676037751297,-0.7414846213922758,0.1822503748840522,-0.6317706346970009,-0.18419356943083348,0.16762012409474372,0.6836445829785122,0.9541745055689421,-0.4306876906149732,0.8969606011950355,-0.30603997940927424,-0.04984068718760066,-0.8692585086921792,0.5396078288652667,-0.7554025598853747,-0.58376354601743,0.4434201058167397,0.07802256231002684,-0.8900895419557054,-0.8990395511101816,0.2639667995165601,-0.15065273986502084,0.04726325001875085,0.9765175715808139,0.4279525614182487,0.24769348277129608,-0.22711175406339829,0.8100653044588242,0.5315998880366506,-0.919296116138516,0.13044216329567135,0.40340083807120014,0.09404785496395496,-0.40615513105396406,0.8007688223412105,-0.6446821481897487,-0.9741181206579806,-0.5896115409821016,0.6281454772776348,0.4835994169608148,-0.10392578412155595,-0.42828022276606625,0.2599613403513157,0.18730175357599615,-0.19653978989423226,0.602388837849851,-0.0438141454023786,-0.9317486221482574,-0.32744188072505853,0.3772239162361022,0.29352236958042166,-0.20475987671525325,-0.5918293979029974,-0.9921232830928419,0.29861533704050447,-0.7326138846239563,-0.6706668474000257,0.8456705036943475,0.9531564427233765,-0.31959226347061614,0.1720638182726444,-0.2356093379122457,-0.6263310283756509,-0.9505049878591261,0.5382748755425524,-0.05364229125027875,-0.9617467328632516,-0.557700111383453,-0.8565732752361024,-0.7457973203324688,-0.5551740431931589,-0.027255439150362677,0.33388418987415536,-0.05407328348975282,0.6779805584101974,0.17793220155179162,-0.6236309898791115,-0.1404854810865317,0.7564130497497772,0.3748233539359184,-0.47931691163554757,-0.4764961006817323,0.36270395533863686,0.9378740985505072,0.019696247947412916,0.3090875796354687,0.23927577633989036,-0.4171158179075241,-0.04551986361322115,0.09153943913164492,-0.8176035202121829,0.9055470630858411,-0.1519038032784125,-0.7497369645729242,-0.8662017309779737,0.4469341968479061,-0.7641159704220563,-0.3848893434135366,0.05009168299178785,0.44192300238379584,-0.4057293023941652,0.6981294779462138,-0.45682440818685105,-0.18448400329223108,0.5773621113528953,0.5332483571057198,-0.6340774802378006,-0.9470441423946216,0.5001112904185635,0.7044026290622704,-0.10599067320396978,0.04445352020916004,-0.5386789235077567,0.60846924048236,0.625568944220724,-0.5336744363030581,0.9720689096223479,0.09948216404994642,-0.3387172284061855,0.6285975882365684,-0.7851799471099319,1.0421426377066365,1.066598773426579,-0.5118755853368133,-0.008000009870157795,0.814024661428132,-0.8210366112430106,-0.30153045861232425,0.7885480896579435,0.016746943740290673,0.3733370809811432,0.5552651105847233,-0.46069786762709153,-0.7966873873455228,0.8264993483600799,-0.2209782032307404,-0.2319524726504516,0.4747532619309218,0.6913772676756258,0.044648910733026785,-1.0235803847291576,-0.961342505393657,-0.5298150853041836,-0.646083479913903,-0.7756633869742295,-0.4752037751332646,-1.0278293053651728,-0.7175199835991266,-0.6198036807931231,-0.9159176787058978,-0.8083703961447888,0.42832791159835065,0.7201124833843805,0.057469426381454594,0.5585208498090796,-0.3657489649285784,-0.32850409889165455,0.9488535764642887,-0.25906227886181155,0.4215045114795159,-0.031704401695171525,0.8263176890635142,0.4953947832014709,-0.2926561737587617,-0.01454506412290213,0.5516225584600576,-0.5233143667401396,0.7792122159970569,-0.6891168076633327,-0.4063644108976159,0.059241148258472265,0.2217948997782439,0.642969577029614,-0.2673684041647555,-0.3220067280592849,-0.26625960990378733,-0.11968514791249985,-0.5364651216492191,0.1775072497017598,0.12126624665652819,0.7130454003447135,-0.9118507893757217,-0.641767993711539,-0.030733776858003565,-0.061132176562199936,-0.658926941888518,-0.22896151759100314,0.8546483101002473,-0.7435343930886018,0.37062463334796947,-0.13028608754959903,-0.31664186371115993,-0.8130103827267265,-0.5506888873297675,-0.1543981476907208,-0.9419574672930111,0.705861869525772,0.41553567703058253,-0.49500327744102973,-0.774704492182329,0.14578965891143833,0.7278894154153855,-0.507771020106422,0.9645944782095164,0.8913285788978794,0.6485931154292773,-0.07928691149106591,-0.009157863376802093,0.10473078138974773,-0.39550147707525907,0.56538041527841,-0.9743180039574766,-1.04149943110304,-0.6379192818850259,-0.45642242165602753,0.13318597115960173,-0.6818543460885947,-0.9435210942235407,-0.23132190727739024,-0.7491600357933315,-0.18357131750118028,0.9052048342820594,-0.015246132333635393,0.23907758576286392,0.5930018889028278,-0.23536541786506512,-0.8149610704864642,-0.024284511969230618,0.8749088628428578,1.0256234957766976,-0.37241411577864464,0.1657699806622392,-0.24375474913686201,0.06530448149522132,-0.6098088937680064,0.06172354780165799,0.2750140798277847,0.7210104084367743,-0.47390599566144986,-0.7294667620046902,0.9517674992233885,-0.3501861771253723,-0.6280004034667811,-0.5937086789324979,-0.4346460251401188,-0.013978605040633313,0.652432470798593,-0.8788852557620694,0.10492645378409973,-0.28633076493928417,-0.7359239671907603,0.634077538890996,-0.9234500012124277,-0.5809714846900135,-0.3366713232457469,-0.719393706423513,-0.4686237900183089,0.14120514701816284,0.9824133777608836,-0.09360729895345377,0.4897356646823337,-0.5611868866058706,0.011104589658506973,0.7167844989514627,0.46178613661204415,-0.3848910136326129,0.3310361356801932,-0.900155073943202,-0.34838204951655327,0.916375169623945,0.13187915616171297,-0.9418345063072984,0.1509249004222617,-0.1795387401134807,0.2447989985954866,-0.007339377325652875,0.6192042797304056,-0.9075029209061725,0.9448760019203606,-0.8420490265136942,-0.8143301154671649,0.0909596929536971,0.8617913644289015,0.6889652244807649,-0.28453804421097106,-0.36495119348341865,-0.3183738786725021,-0.8225588721834343,-0.49810621604142624,0.331368590719088,0.13091456238260823,-0.36388486152637284,-0.3928107163945045,0.045245386779952046,-0.27483155450999486,0.5316139044097201,0.0040173564211889445,0.5137666417709381,-0.09045768238329388,-0.7623363565636712,-0.4280915216637122,-0.9826494768639065,-0.8628675353947719,-0.8393891690038104,0.6887109904486259,0.5661973849546846,0.6364722807689243,-0.8714842131085088,-0.5923368898522433,-0.42590308703463986,-0.42757192809527567,-0.32970324848189675,-0.20513102062322272,-0.37230626249839577,-0.11519465149283135,-0.7112040056076041,-0.25993643695865615,0.6176231344378833,0.34776366627674604,0.38169127826979826,-0.20077363039318621,-0.4998293042484613,0.7656008291923659,-0.5338802378576932,0.6624706102839534,-0.8355198081477698,0.9135688142534363,0.7665742842033036,0.5880692397171209,0.45120950982543934,0.19153281161335683,-0.8709880863445076,0.26031904769595204,0.781800221878483,0.7031938057360039,0.6861903502641626,0.9563438359664536,0.2646390530944418,0.842274432047883,0.6205269084013141,0.6608665031260895,0.5583847072306988,0.7853028722537908,0.884396975225088,-0.8144581351325062,0.19070194854312794,0.20703246739541614,-0.8927472878263116,0.7238569477141928,0.9439228067807196,-0.08415887753645034,0.12013688490643726,0.20941737209433336,-0.8617194437110789,0.8777837579482068,0.2650339628942496,-0.6420945598891102,-0.530073543794439,-1.0241399352470582,0.2825895220959575,0.13267294446989206,-0.8934355866580727,-0.4052758903220266,-0.8360450191458795,0.05899009800798774,-0.2452912863273957,-0.46905198007025845,-0.47736084254629985,-0.8747432283179234,0.45148413610701943,-0.6600942741128969,0.9575950883921507,-0.6422611552538533,-0.6212178033196667,-0.9902957763324978,-0.26065043742891253,0.08763844418743294,0.8155139413293346,-0.2691831620390799,0.8871669214504421,0.29380884658907647,0.2882308984128139,-0.059148466763383034,0.015345062907246508,0.5439777643371129,0.942199366994785,0.48326217945311956,-0.4471613600937892,-0.9123492180224413,-0.08712777333242983,0.06927066803811366,-0.7791645212256608,-0.6851772668796228,-0.4019944528036956,0.769409029453892,0.4772924424807223,-0.18094546744580597,-0.6738202928319121,-0.41737726415459075,0.0304734555999077,0.605793634330964,-0.2288058564755766,0.4488616349184551,0.9565939292645347,0.48693041007894533,-0.18660215713386075,0.7137601416594264,-0.41653457408188804,-0.09744088451321575,0.156852752528448,0.3108593214622688,0.19702080352776846,0.43517555280123865,-0.4803480020963149,0.37064357357941,0.736987572914183,0.7405858787309452,-0.5121823515562396,0.515460811465281,-0.36582719379855916,-0.2872208864493669,-0.19780725773443975,-0.9071199969357305,-0.6341042992966961,0.5302310295405461,0.748713547325172,0.017290003285361063,-0.7121947839377418,-0.17044632118865186,0.10837653632935028,0.9218185208473431,-0.9098170881412067,0.44702733660444594,0.5532261695940532,0.7568412640850302,0.5116985714757258,0.02112705613577664,-0.922715897138368,-0.5737955793605904,-0.5945107195822998,-0.9743045229890285,-0.7463275604153624,0.058376993042025975,0.09163828421959108,0.6664623703215166,0.3628680279974734,0.15124015330094345,-0.2944802811935983,0.07262927272442836,-0.49259046553814506,-0.2595547985785051,-0.28075112741972746,-0.8389717736174869,-0.09980074382793751,-0.1463807227670427,0.7382848017501309,-0.21162196343422235,0.4845424776873779,0.7524058452068579,-0.8960272284543267,-0.711511739762604,0.7734108998606549,-0.7666027119393645,0.47776772073327906,-0.12660448010039244,-0.014228045335364007,0.6866485762685576,-0.8559388176313822,0.7306343966234554,-0.2751341555195328,-0.5605242762310927,0.08027535095472574,-1.0000034979807795,-0.11109071970541082,0.40254295156629594,-0.1373165877061207,0.6213734384372968,0.7941332927092549,-0.35101122373884097,0.23158495002528284,0.5995680708238393,-0.7267740053254539,0.511451180908981,-0.15476093329888202,0.45505081863820074,-0.3585703582879305,-0.844739215837278,-0.4258848387886914,0.19384395754552308,0.7569711190128872,0.4309416090059752,-0.1864295650507089,-0.2845275616536336,-0.6611037013268424,0.29123903259848904,0.8439318442478883,0.46746563526566587,-0.49293348042883656,-0.27534561949911884,0.5264604824106522,-0.9365349444796347,-0.07854011399851091,-0.9364164499652212,0.8276330859749383,0.06752324193633741,-0.6801972925833901,0.5723059479060277,0.6753208786274394,-0.9961644058702355,-0.19769439299546043,-0.9174915427273265,-0.5449459316295266,0.28873297702438006,0.03476830300652667,-0.7757502905856068,0.19038004037357908,-0.4841792089401771,-0.13300824174286974,0.12148805551446706,-0.33546810113269904,0.7425888895510877,0.7739862302891518,-0.09895165232486525,0.5054705196726302,0.292907144935566,-0.3333416060778758,-0.6760787979516358,-0.07509716359226792,0.4527048081417848,0.4230710059164522,0.4475468969394871,0.8541388248608661,0.8959565503948816,0.1769446890026336,0.3269187040990653,-0.5133820526906772,-0.2934399582841058,0.4671143919158978,0.7188861674057307,0.9450240425055321,0.5932272815713665,-0.4630722397923492,-0.3553474718573452,-0.5435902522342688,-0.20721655661114713,0.46291484723926013,0.44615680354225473,-0.5374130390747158,-0.8425574311163568,0.8709591763219986,0.6599302780508534,0.8388053497133519,-0.6618640055347972,-0.4644202392177258,-0.011569085165356765,0.1323404345229049,0.880257029434003,0.6894065524139233,-0.8544840018160075,-0.9428250789453867,-0.5831199726766364,0.08194064230140219,0.5353358097740256,0.8354374312354764,0.3109924135757154,-0.818096474805263,0.827041701507641,-0.03786055222694012,0.023688633343889372,-0.8200122467586983,0.3601628310774524,0.21669693637738202,0.9762534728583437,-0.6350735933742063,0.2615333401769896,0.24138700643230554,-0.6320634915254334,-0.9014046261437164,0.5079202390090548,0.10521815672683643,-0.3364179689547373,-0.03053526443326583,0.5330788453370129,0.3856290332747431,0.027682736979269925,0.2031524841032002,-0.7148374742596848,0.14460487441944953,-0.7590998901613477,0.291710586681172,-0.5083326881714565,-0.5059538385519966,0.4791969166534944,-0.48335353492102584,0.9902991584104566,-0.6565114582017448,-0.7394619727159226,0.2522785441592392,0.25150091097120786,0.9226639855864331,0.008295207444720676,0.5198849187178254,-0.9658806632534549,0.8498155704080828,-0.7435101818739831,-0.9399007867880738,0.11452232837322995,-0.5792368598249289,-0.5208543072457139,-0.011871024102557692,-0.489998483030766,0.3855782730456107,0.07949297255937737,0.5474535079219354,0.7365444659210583,0.5658429944832573,-0.6353230435519368,-0.78709838559448,0.5552858237821414,0.5356777250063971,-0.17539640854677674,-0.09068198632521396,0.9079131323321612,0.9978650322940241,0.9670047491988298,0.24247609341290666,0.3587495076273912,0.1797459148788571,-0.7644906144017116,-0.7758476256946023,-0.9032907598213746,-0.4494154124294845,-0.14489118981988058,-0.7168942632220354,0.2604427423775342,0.9731021828930659,-0.5623241686369231,0.2429552524859353,0.08038205530682485,0.6030824027523927,0.8784150303872791,0.4184906606604517,0.8635638435198234,0.6931694975127625,0.3335488816599155,0.09899613584266698,0.3629975920117763,-0.10937864072914982,0.7364769482281617,0.11272160239910552,-0.42188137985802315,0.4325434688369278,0.6362894633146701,0.07184325716077104,0.11988162119053523,-0.11525872547895152,0.11140264296642771,0.8496427547935665,0.6629782587437449,-0.5035479338860709,-0.1292833828934066,0.447824494374546,0.7443809815346032,0.6959596124133767,-0.4202760300676164,-0.8914406718725912,-0.0957996100065417,-0.691787175449267,0.40339385517187565,0.27639094287692645,-0.9472077144241866,-0.11292267744865458,0.011458301718159454,-0.987603003537668,0.6528854177590353,-0.6755108955707338,-0.7504481919122615,0.8636057210016502,0.05676970897591271,0.9032861970070383,-0.6910853074684178,0.5279397759476028,-0.9791221884803101,0.1941093091713288,0.9427062928820719,-0.20454332100155906,0.06603286046400701,0.6846688562579759,-0.9767871621067916,0.31307282148878807,-0.7999173488768934,0.5775690037780179,0.8414593742673844,0.5411776999307556,-0.35201627475270375,-0.7251260864377445,-0.1642264650939007,-0.36182771328236674,-0.33021439261639707,-0.28452039294861203,0.7090680471930921,0.4711219483060134,0.6036266053996431,-0.9065063727426064,-0.9003279764160972,-0.5614077344144883,-0.8780939100452019,0.9604425549625952,0.46258753932042085,0.8285339976430268,-0.2549491918082931,-0.19509258253044576,0.813459565032066,-0.6321044636415749,-0.5975590086233589,0.04248997157868594,-0.9459639299948486,-0.09979695370462349,0.6814415174703046,0.23153013067651002,0.06821408839537346,0.9527182088607362,0.43991352275827644,-0.5244931254223193,-0.6842879882865416,-0.3374567106480866,0.7748345836246182,-0.409453955567984,-0.9911344371386248,0.3617298561137394,0.7628955255593415,-0.2149126364389427,0.36989719455946357,-0.9987762495025017,-0.5831520932971712,-0.6215492302856336,-0.7892229913960795,-0.5201555903174075,-0.832329082155083,0.5465495386289732,0.27023015602034617,0.06108987580370617,0.4181954301783697,0.7599119930169345,-0.8769659411416693,0.6029728267055467,0.8677056814311781,-0.15227739539048107,0.18072274430783364,0.8163953073151515,-0.31476508314581797,-0.9501747130313434,-0.04340892036392807,0.3883527421610846,-0.4076903952952238,0.9235822706565233,-0.6307818374455993,-0.5174112461853029,-0.8044309635802456,-0.27559001892352725,0.1126799429846399,-0.057031439793047145,0.6231014497664822,-0.6372012697108136,0.5135470955193714,-0.4071888060733344,0.5784561817656956,-0.07421113103011412,0.2050251408818887,-0.39800359310563344,0.9644988639953156,0.7551327418271057,-0.3450063422322692,-0.8993635296567459,-0.9139550500399443,-0.911658364367717,-0.8040818426983695,-0.9151125075076777,-0.26908414596893226,0.3521505233601489,0.27574275165926787,0.7396888457300184,0.13356419701012695,-0.852344775793924,-0.6901529486906061,0.6441429815235163,0.4365000287369562,0.7866362893769652,-0.3226307468237657,-0.041496241849215784,-0.24949455930840533,0.646002181054927,-0.4041334134853939,0.7535576187256647,0.6482949555383273,0.7350927850654514,0.41651371336586634,0.9549945173512352,-0.02128650945358391,-0.04326596451755455,-0.7504794992438453,-0.30372641184797283,-0.5894262061293023,0.8709521274431724,0.9232691401158705,-0.5706976347431395,-0.4255931781119655,-0.6535936991464535,-0.7873275382149774,0.8913879975218657,0.7939553689303085,0.05206559876621774,-0.2393593126409017,0.9119009754902336,-0.4582828617851278,-0.1804284502392624,-0.5465770326770574,0.6710423914588404,0.9045954372063363,0.5285253334777686,0.9121551424146652,0.7142897153135992,0.7413868199707956,-0.18916040618505053,-0.3989239875528008,-0.8298887177826275,-0.8307554176841798,-0.24099190521026304,0.81083813481722,0.5183626123472909,-0.7061918093078317,0.5586921211386777,0.02929859663724743,0.6376981292396549,0.9592472556887235,-0.8494934052883993,0.08708757698179137,0.9216460693332811,0.43898375575391557,0.3547698790738986,-0.2554294855148924,0.7115135606457452,0.9060050747260793,-0.7380109424482848,-0.04449193174501587,-0.8925782196351342,-0.041239924760061,-0.31637979754444095,0.8038654012107882,-0.8659241405221236,-0.01217052919732109,0.18477540778669072,-0.6242074530182211,0.7433388404133041,0.024694810346011398,-0.9949673800013156,0.28154233876862733,0.5349765845174219,-0.2145326591495511,0.11510780642759966,0.486374748458378,0.3162898859480525,0.193788652239824,0.5624647975961463,-0.940578872505639,0.2842516691274313,0.49088366672637873,0.36187263019437194,-0.39358852738346095,-0.697574809233297,0.4811254356008774,-0.05281280972068545,0.2505256458727092,-0.06715893120816396,0.7977074362886176,-0.23916176778293352,-0.5347244773086703,-0.2030661438227388,0.40224800266494243,0.07195412998013936,-0.7933989358992494,0.1043352815128555,0.39760386337217646,-0.5203856873419201,0.5300654380267912,-0.0713902653373208,-0.44336795387686334,0.8638162795855338,-0.7251729928106642,0.04812326389483322,-0.7702796189630495,-0.7813108994218516,0.9107915276332703,0.20890517831612634,0.17236847305189987,-0.889215357828333,0.7619215057111526,-0.028097350031859394,-0.8447659848560218,-0.670175187721225,-0.5421481731163521,0.38018035671820766,0.3706980272242207,0.8505916828348492,0.9111581825496752,-0.8341619312001217,-0.4675744951211028,0.5678895718226451,0.7056630643457424,-0.5547865372566958,0.5681540393301927,0.09595621830040679,0.46325747446549365,0.13874729404331135,-0.5834952824333478,-0.11742843927090624,0.49036396433757323,-0.6252233190593213,-0.5941539074497157,-0.6305045932668176,-0.4748186194785271,-0.8692302582006424,0.30785402434184217,0.43318683235142225,-0.46808364079443154,-0.19663476449138062,0.7528249889202672,0.4084302127768377,0.9991394981466939,-0.4603167630572438,0.3989951744450413,-0.9552925041427323,0.2873387200708668,0.2840806360864012,0.09328339244731909,0.3851536385628666,0.8989003229153294,0.033569637130643315,-0.03546783612329829,0.4732070522476836,-0.9030462413986027,0.41436844414385066,-0.3736143262622902,0.5507733002319175,0.2621577448480992,-0.8695229565735523,0.18151402924753457,0.27881930910109437,-0.357704704738524,0.6765878635840545,0.1716242577636664,0.4008467013643206,-0.9515243432472771,-0.4461611671466459,0.8292540348695658,0.12235789149678311,0.9868746245379794,-0.6471271577118272,-0.5629399624344558,-0.5938976739666113,-0.5279756645668168,0.4425081956608079,0.5105973440676004,0.8138096997517188,-0.17026082492372097,-0.8249050204148574,-0.7697828357148986,-0.4317445742907498,0.8234889509569492,-0.6669264863885869,-0.9961799723643388,0.37497539601386815,-0.5634715870916827,-0.9987420887700975,0.86777749494049,-0.9764123997714265,0.31356440238496,-0.4633898139657735,-0.002239184989262899,0.5508868524706865,0.22420705278873676,0.13294784525780456,-0.8610081099147977,-0.9083533397716546,-0.7696546328398197,-0.6173348180995706,0.6149685612384856,-0.14177192386081733,0.9433710674026037,0.09229618251757188,0.6849445514003427,-0.11723314387576816,-0.5461978370241993,0.3543087474903759,0.8961315845904132,0.6761460789345402,0.4255658876437809,0.7394771551758315,0.2393037167922254,0.9848105323064418,-0.9169434022885306,-0.5014379166098399,0.2135950167378975,0.19870741688562615,0.9334571858474221,0.11860803733571856,-0.889726542679177,0.18776107145777193,-0.6977794019750962,-0.06408260591893544,0.18909590618786964,0.2783269052184942,-0.9671383939662608,-0.21821925127559383,-0.15955274917683626,-0.7137398281657976,-0.1903753688086509,0.5759666804874619,-0.02449245743421824,0.1539617018821941,-0.22659093699227606,0.019100937277414465,0.238524893572442,0.0917481601526351,-0.6170524787533571,0.5970604927303271,-0.3934790765357117,0.64134805811472,0.1799945869149866,0.49505544864534023,0.609173411528328,-0.6097616006986672,-0.009738451569825557,0.27138136737794594,-0.4125776421432472,0.33271717204592516,-0.34904188965885363,0.5013358777268122,0.26434151808461226,0.26644703951462706,-0.04308298717454462,-0.503462776302797,0.6626166920142202,-0.308473752417805,0.2547445387595384,-0.15288686419476694,-0.3258038780783634,0.7675176637895531,0.9281538533041063,-0.45432150804088267,-0.5635130627027489,0.19027865576455322,0.036950071109859595,-0.9867955792323206,0.08224618475629875,0.406904057186856,-0.4889865892945524,-0.008557587743184492,0.27775406601228414,0.040604510631147665,-0.08572113449213825,0.6541203697401254,-0.3574133770325503,0.549874731421411,0.1903790392014908,-0.15017529985840072,0.13110978351015357,-0.48634138401178634,0.07529453469395486,0.7294347179031062,0.1437167306376428,-0.5453505702712724,-0.3995473455466303,0.5251840507898422,-0.26679703106159414,0.3431233826235686,-0.6437714431211561,0.7463691027896449,-0.861739920819266,0.3743498643532445,0.6606208885658129,-0.27857792729055,-0.14431050410622337,0.9687990567095006,0.3123651695631313,-0.8369399842986467,0.5556794005860635,-0.9638510019495945,-0.9035423450632161,-0.7754890946959216,-0.10236602991252375,-0.42888334992253513,-0.9351772980062278,0.18343176908325343,0.9964800945676808,-0.32654988555972714,0.7275121194508769,-0.8840033035398323,0.22250062450680574,0.7705840879823678,-0.47019018381798316,0.7635137646133403,0.5425189253360041,-0.9456703635054122,0.3397857111481606,0.2045010025739158,-0.3733339453372593,-0.8960881962696712,0.6774049920780165,0.16119111181298895,0.3062549379020356,-0.47618347103954584,0.9072184516483734,0.6016400124563444,-0.3344346908112712,0.8331402954494374,0.024948111657503214,-0.19085376875496407,-0.3642190567987833,-0.09940122588704137,-0.7430693246218303,-0.946654742820435,0.34591222493670504,0.34242323341029873,0.07982135464348517,-0.2934483121978393,-0.9579455930736307,-0.7608187089629412,0.9971715009547133,0.34227714276466226,0.45871548863451883,-0.9941088097347122,0.430544415405818,-0.7135112616596071,-0.6587539855512052,0.5437012689596099,-0.6966789793138044,-0.912059149603901,-0.06832318612346033,-0.07214872291348562,-0.18207623384981297,0.39514175259400086,-0.0709200954679956,-0.1373864969961867,-0.6279205948512152,0.07376923323587325,0.7005853253935317,0.9025852744966238,0.7570657606939393,0.27810434085961977,-0.14577853863881307,0.7643363542524972,-0.23010875469521874,0.41456433247408175,0.9036495109377691,0.062018487537984314,0.5588265139310769,-0.16989590266220134,-0.7963776435869627,0.3345672711046434,0.06843385945964986,0.9286324846438654,-0.7569229361061494,-0.5562207950005396,0.373501513891058,0.11946133676805881,0.909682502384878,0.3023735765525634,-0.03071360111251442,-0.3857792223658103,0.7761226143813034,-0.6213208246307347,-0.5048391121940867,0.2748292934024672,0.7225880157758704,0.9767406490584483,0.4055220517231757,0.7533858962167088,-0.734663013186893,-0.5444921990267704,0.5709783412800531,0.28309546819694065,0.3368289534018003,0.24411760743007566,-0.3296716080080202,-0.3991448430499258,-0.43353225541296236,0.42506799896050057,0.852611692759736,0.6445868981440659,0.6649185870444219,0.33032065184624687,0.6157570368310938,-0.7158213077497377,0.0235637957028334,0.6709655718615251,0.6667291843354934,-0.8969169652773352,-0.1332785709054236,0.25433952767828055,-0.650590870372781,-0.05591404703063185,-0.45803592596088927,-0.4821731416023229,-0.2671563476931269,0.22365869362539947,0.06999557388777045,-0.2651590042380712,0.02917656675214264,-0.40108905477807477,-0.21036097386978914,-0.6420328971332094,0.05322954708043781,-0.17019628994641312,0.9423096007874385,-0.37059858454222333,-0.8422593856801714,-0.3823520548902397,0.2560805787301874,-0.21462877431172772,-0.7021373329217178,-0.4171109811722793,0.18195700533893167,0.6124984524967003,0.1366112494344316,-0.8325658872838679,-0.046878652899525974,-0.6847281284490667,-0.5770342545646456,0.8017815002584392,0.07726744535118435,-0.2925111765048663,-0.8498968498660116,-0.25352391446505873,-0.21761251372117063,0.09520955836330147,-0.15354178513656835,-0.02155097459124211,0.38139000025287007,0.40918165597883854,0.5808790912365884,0.9137112393075286,-0.21545053774656853,-0.8189017098727895,-0.9230219719001822,-0.12975186122965932,-0.9551214643959696,0.19479541558342434,-0.7719364694055129,-0.11235209532256163,-0.2810349479023764,-0.16300017494584612,0.8869827529472167,-0.9261896511875618,0.32653514634415703,-0.8838519603794437,0.3740249473653652,-0.34243532646161357,-0.9234188103489769,-0.04115517711749605,-0.4945429140540951,-0.5693800507833482,0.7246415414603617,-0.5891942086647366,0.5755159531621041,-0.4808825823795668,-0.9815435100916556,0.6089346002674907,0.3312941441961377,-0.2607821272602513,-0.08695648078453844,-0.0324367620798758,0.20102267528662,-0.16679691158730514,-0.5114758602158613,0.8356773944227625,0.6734314916293194,0.5690938151457472,0.5950369041070116,-0.8289588043434968,0.20592153126012813,0.824574788479435,0.648428043197818,0.3021611324448083,0.6693702256746858,-0.1215735316134463,0.16791738289895974,-0.4837538068560761,-0.6910308609116516,-0.6665195617357036,-0.7297800344595669,0.1478496752966349,-0.2751104665363435,0.9560917521443775,-0.9558905828642177,0.38884873624384436],[-0.1038407223117166,-0.6368224926000614,-0.8547922784690125,0.7387927687604806,-0.06397491653137943,0.16997096502639386,0.5182824669446586,-0.6779412213871884,0.67868173588188,-0.2021495413379497,0.043562565711404044,-0.03301457895339019,0.7554160601397839,-0.675324267790341,-0.09753935901350541,0.2831391752466913,0.39492957106929283,0.4503299007497361,0.4066477039459695,0.3756787328013077,-0.2723667218032024,0.5848046779544644,-0.6233441628635943,0.9381518319783998,-0.7857699225617334,-0.5059971968877395,-0.8135708180056009,0.02401705464007776,0.33025738876844435,-0.3013427848286183,-0.8408123378151371,-0.46352059079800634,-0.28934711539271407,0.6595442806508183,-0.9331126972541472,-0.07895094795981092,0.40939319828978027,-0.038868133418276773,-0.03566333832397839,-0.16341911989873195,-0.23162081281785518,0.5265161103757896,-0.633543477007271,-0.4839402716066773,-0.9625353240937324,0.3589946637509427,-0.6420360703612176,-0.5218457213065765,-0.6909735888800992,-0.6166716232876119,-0.25186211506725553,0.7042173642773518,0.25622215351545363,-0.6714749038713264,0.5384743704913784,-0.4462208796820416,-0.6517370206277873,-0.09993004322196852,0.30556781860618143,-0.5871423831519761,0.76948884590669,-0.9716264343610255,-0.9718622115977817,-0.7327510560409957,-0.5060877641624164,-0.7375236770129077,0.25394551025342804,0.2285426541542522,0.5114262534155205,-0.5086626479018443,-0.5410358608472621,-0.9066577202098777,-0.12856734661067293,-0.03523879112462458,-0.6570869545079103,-0.2824281441660942,0.7735057328531538,0.2414821723800551,0.9412131207016747,0.2083723826883693,-0.0197154040138372,0.6499411193054321,-0.9056360442205345,-0.5164944642067927,-0.6090847543638791,0.40789353329818145,-0.6781868236512902,-0.02442828044915268,-0.517638929696445,0.9370812464299274,0.6110665877138439,0.4651997342430666,-0.8579669550696372,-0.4567397703745104,-0.035234577613587836,0.2281859508916165,0.2879321077455399,-0.9468397904366923,0.6697934173653834,0.13068261997345704,-0.35626271593860714,0.6574378169542461,-0.41971539357743226,0.6359514392563531,0.7864803201596482,-0.8956731302262395,0.6607813262601896,-0.6396585213298359,-0.7333383214818436,0.6435459064134683,0.5300050579196398,-0.2946807499442293,0.3986898240316459,-0.9759268697438976,-0.19797503532298655,0.3637828481892581,-0.9409636965833061,0.4677444947489171,-0.037013087963084335,-0.720129294788579,0.6583133316837175,-0.12235001328347894,0.015122352158673635,0.6333721939067208,-0.06972290661503555,-0.8644757588977261,-0.21907471465218253,-0.06608744344312154,-0.8970667520534723,0.2624720878124951,-0.21834519781783057,0.7252940265037365,0.6638803988089303,-0.6208953514378068,0.09939424046414902,0.5672034860620222,-0.08660550470393402,-0.1536543640522703,0.6343637041197674,-0.9693494110218223,0.5861417034482996,-0.6789353666095761,0.33210430804356417,0.1507695133269363,0.5640136675687462,-0.7724739721142229,0.9458905618291993,0.40046205537437973,-0.8474859977573621,-0.27380726695905633,0.9513589009298151,-0.4658031538915993,-0.4158797902645086,0.10145678064358954,0.7789234630946353,-0.29114653684851943,0.8799531311737803,0.547601991112854,-0.984652770774989,-0.05773216998563458,0.23628152719372664,-0.8855731396779114,0.04139259234569326,0.6641195039298565,-0.7588508420805027,-0.904263438856507,-0.7437170434808587,0.7533837582253972,-0.397889510201759,-0.002405462328840091,-0.8114173741045301,0.8139250697668273,0.48212270493659415,-0.42643179608440795,0.9365949543345444,-0.3292114766216353,-0.5765278062546533,0.9578631359396692,0.4085745943042849,0.7944399291351106,0.2606640734236214,-0.7940221309546178,0.6892773397286989,0.5806368448083076,0.8905191235823537,0.35842274224761517,0.5748470994038004,0.758444625580525,-0.026413604262387924,0.08697981406162403,-0.6807838691060994,0.979501248681344,-0.5451920005290178,-0.9633755658062912,-0.6451425408908658,0.7244480256540692,0.12418506496664317,-0.3302857588043049,-0.9771661416243898,0.5087171985094562,-0.9488381621337545,0.571915529463656,-0.8746425576598473,0.9027185236473584,0.43123743183244434,-0.14195273542294706,0.26554503270587193,-0.8797992031211425,-0.9296859551812349,-0.7527826645482687,0.9929732184170736,0.2008544425483608,0.36117397314550637,0.9916964327955333,0.30927707555064843,0.1073501223373228,0.6577434574161884,-0.7515919259153983,0.874019064391317,0.5971099915260295,-0.8445142774590986,-0.10827551339679875,0.28659398332277086,-0.20432298003121865,0.8699228194558439,-0.9799275146179358,-0.9852900833033675,-0.03461152466836534,-0.15115968721166428,-0.9876445249676782,0.49315632708844936,0.10774923437952103,0.020908454590637948,0.41444058029569875,0.12760786127726909,-0.4017438527291449,-0.5108893205753269,-0.26164289660044515,0.9992407955715288,0.4875280427488379,-0.8662874450238711,-0.07580012692664595,-0.5680869582701085,0.6204328801552389,-0.09655464615096965,-0.9365539129432034,0.7612299632023505,-0.6590904828031513,-0.046439715156105565,0.8093331158132826,-0.05354527762200756,0.5148684164332019,0.5629070712433701,0.7183158209019582,-0.043379583620762885,0.04783439508219137,-0.9856142959868119,0.6014832142638116,-0.5482565789362188,-0.5589479201219852,-0.5238254339359558,0.7687096687849895,-0.7420561618200923,-0.34240701249563077,-0.40403825411638206,0.2978918317222323,0.7898052292409539,0.9952396488653498,0.8459989668987362,-0.07756911266245403,0.2891743374301188,-0.22521613366979878,-0.34127372027190206,0.8188549758294899,-0.17668266538396882,-0.018408958710390378,-0.13274154861124976,-0.6154641742122118,0.03228798534206301,-0.3806800175533057,-0.7207520355761841,0.3934754593693195,-0.2615092227527609,-0.8277536067823864,-0.7253338032217946,0.25778387468562936,0.9187630921927505,-0.029093095085802805,-0.3025997046472728,0.24143152487002273,0.09906959631581658,-0.978116219516917,-0.0792397337716575,0.18308534620469863,-0.031676233919345265,-0.4874485222171293,0.11707373885173267,0.9400728812378218,0.3227436954115801,0.3865260607393989,0.07869993489595917,0.21323621497211054,-0.14751010734232595,0.5201663983208574,-0.20631025906727207,-0.5980587384756797,0.05491811603535979,-0.36756209680881236,-0.151590651526613,-0.6753790004595925,0.2413895668600725,0.3067182627481425,-0.6977290448574289,0.07437000769459079,0.806033938797309,0.8588680508435257,0.1103086124970627,0.6048082693297849,0.3411883673032796,-0.28827166286208505,-0.728418983846177,0.33424562093136334,-0.6283226867873581,0.8802535807837611,0.4639979531019356,-0.552926685876344,-0.358000760214227,0.3892064685403437,-0.9049344454282655,0.6576380343463446,-0.05545098168679097,-0.40138449767526796,-0.633792596218413,-0.6706806793937123,0.9874796678785247,-0.3980076869127763,-0.36670671499447627,0.8577291647387499,-0.25103703409415923,0.48455518245872964,0.5085301144423375,-0.0727245837119026,0.41987554213385647,-0.24312250696700147,0.12624323526513836,-0.3672491076802584,0.2467323620658084,-0.0351682522921741,-0.698697471071696,0.9688483628311373,-0.4011549478595371,0.17284114068415554,0.4713316174330233,0.9930905520889819,0.36032084543169063,0.10972419422367866,0.6030790290563257,-0.7005170123669779,-0.3498238594618135,0.8504885034275914,0.27312797520881493,0.509945086066611,-0.31187731342318004,-0.2918971867098582,-0.5614692499856067,0.14142869588943108,-0.5940928174040756,-0.9264696335560748,-0.4904358621219611,-0.9724558078212824,0.5282507994737871,-0.5056533429357318,-0.8688238197788454,-0.8145774866120321,-0.5910113375039419,0.1410868017540173,-0.3205124801364716,0.30680034177231486,0.017925347707185013,0.6508485764819624,0.2259172256866282,-0.6761972884991736,0.9782199439747019,-0.6013405967770767,0.5705155970611202,-0.44137422433640006,0.628612524636335,-0.9459291550166503,0.5807347509592953,-0.2418994514968007,-0.20681755176519978,-0.7966275417971308,-0.7629011308154614,-0.19603734280077667,-0.14156545962636002,-0.3068242235802653,-0.8228469849419209,-0.5057316472090532,-0.5466756640669457,-0.05951031621253402,-0.019114298824320697,-0.12754515292505952,0.22615964969507107,0.6756185911956839,0.81175909006949,-0.8332244483876592,-0.11058722155576062,0.8330027434506676,0.1552389289722178,0.8174466967125211,-0.3080585928579338,-0.5893794399801372,-0.32745351588182126,-0.25798869834209626,-0.40933711255350413,-0.2882234191065852,-0.04064189650909289,0.8823517600298625,-0.5130272586856102,-0.5382283153315776,-0.30355727224035856,0.478987659793481,0.3411119396151856,0.5727850488707832,-0.3475399308354743,0.8266905911859217,-0.9908204857267378,-0.3615186418656994,0.8459087807863863,0.44048744385823113,-0.21513626199007385,-0.5367190611303426,0.8171328202360328,-0.44617767777714046,0.4710999036309127,0.5159697743697697,0.5751010489228294,0.1552184072053262,0.1915456572661991,-0.18480425652894797,0.3536172710305703,-0.5126052289092442,0.3697940127130095,-0.9115339669637555,-0.011137955087802798,-0.5824238052071553,-0.6025299469603751,-0.9540498952387316,0.736805282575252,-0.022438221775123335,0.02572474385593404,0.27146807916854276,0.06617682565880534,0.6140995069041115,-0.8447550395145813,-0.06411915725169035,0.11452329221319135,-0.6937727137661558,0.246561743308211,-0.09000105499360164,0.018501644865188238,0.11434159470416083,0.167199405473498,0.8986513700250086,-0.2918468038182993,-0.7506356781509167,-0.057373404825851404,-0.9453186695361405,0.9632215221660536,0.6295786946234241,0.8457505754928794,0.8562042704129306,0.07863861119266202,-0.09511933061342481,-0.6539785071953188,0.662843790264929,-0.41653926824339416,0.2958811525602465,0.6953657280846508,-0.17650163617131934,0.822706730006038,0.6202554090460259,-0.05553119138038065,-0.2605599262116355,-0.8229948201295534,-0.9236253144329034,-0.18664620373625307,-0.36216041805079857,0.6126610440835101,0.018079062975220994,-0.997621440521369,-0.9901649105772815,0.9365601706221851,0.5390234947198729,-0.17557337649918625,-0.5292594941266698,-0.5500338397983603,-0.6489394990659619,-0.6032799090524316,0.797071329157495,-0.005734938595923256,-0.8658398195567978,0.47288516063932173,0.611873400648424,-0.3805976015040672,-0.5023312835468561,0.8467943018382524,-0.349692498286888,0.4208672941393454,-0.8159217766199806,-0.5297178959739269,-0.7449825166602383,-0.2230757128519745,-0.33209713371736,0.025360201176104963,-0.25957776967377677,-0.37150960241315684,0.9399539686365146,-0.788920145350755,-0.678529633912292,-0.19401555481785016,0.5515060544813343,0.4631699679400038,-0.11646390216960609,-0.31257085926007594,-0.9136204020172749,-0.42509672771704404,0.6029776631142999,0.8371415044284055,-0.6252084926305751,-0.5111578694817961,0.29173995999140045,0.20020973086264782,0.169901978441781,0.8907724572811826,-0.032025912896197245,-0.338262782756624,0.6167433704159726,-0.41819683010295505,0.339427164468329,0.1812650128232134,0.37717318756395213,0.12187852242052544,-0.1414035366423078,0.4544495888016331,-0.8271396179650994,0.47196402921497294,0.028981796808795545,0.34782061455548496,-0.2642711783046432,-0.9291939161185454,0.06413066057548739,-0.9155577344176813,-0.8488053942737421,0.7755924245812471,0.1552232753040231,0.7391440453327676,-0.24036099723627258,-0.24919660892700146,-0.19093680132068816,0.0964205172529129,0.35923535555791286,-0.9253434608537154,-0.098021326524631,0.5719823574325458,-0.5565470766197924,0.7569230423609918,-0.9017173690303305,0.6995215316887902,0.8696406763287248,0.8149555324031814,0.40224966053353717,0.613573573622366,0.8739406066947646,-0.12452571499379816,-0.6933923878863274,-0.20130397242271658,-0.06085754897776874,-0.1285484810574935,-0.9714061490582803,-0.8663313678157196,-0.8932199079868284,0.7665828052498853,-0.7979250360995155,0.19880442669499487,0.05489860152081727,0.2984028595421435,0.6971791709050251,-0.1694816176149052,-0.5106135213784688,0.23949050636884817,-0.28790211007668665,-0.7172963465073325,0.34552743096737926,0.47929454367832114,-0.8223248391210772,0.04808383490148982,-0.7302309783892174,0.15578573144525842,-0.1904604855664455,0.5269395059987705,0.655303648151107,-0.8962671172589065,0.2948891778625019,0.4057088046842299,0.46908632052722177,-0.9886274152775648,0.23632309239232505,0.5954067501324216,-0.7971941149133153,0.3057918517170737,-0.7787158717950565,-0.9377035037697713,0.7613760223062939,0.4587800297838962,0.6840244987464233,0.01181166756413387,0.9544384559151579,-0.317317882398471,0.0170664927121587,0.6461647318999623,-0.6894252428159383,-0.5758746327568683,-0.45868057241264826,-0.16564983209700407,0.5876196876997046,0.5136073711857725,-0.709828095721572,-0.49408821561064487,-0.6762747414071211,0.6571073243115828,-0.475755707340468,0.3449804557865964,0.9906222754786275,0.8529035890019331,-0.12117327526148826,-0.76506913025433,-0.5322576165936201,0.4386842211459452,-0.7738631686199086,0.5782287982221795,0.922136983189452,-0.683040931431189,-0.33358641309095394,-0.397823027827542,-0.753353538368938,-0.16204268215843282,0.6244484831234346,-0.46175832299452896,-0.7396368878518178,-0.779095089828844,-0.6475904781559355,0.15724143081232578,-0.5997604681188411,0.9282840379954833,0.3421247259476766,0.9135860011689545,0.9515962631060086,-0.5525831533250218,0.3041742172347853,0.16834528393301995,0.6793253642135515,0.8147376939986004,-0.1425129650380285,0.12138956879304819,0.45983450130446135,-0.18859440604120792,-0.2456573445865492,-0.26996412705368944,-0.013096016463551852,-0.8313600787058448,0.1160819620548115,-0.43803445145705155,0.48401926885554314,-0.3717280634945126,-0.08817522555042331,0.7299591444607569,0.28247536202144574,0.5447678221455408,0.002960940560335382,0.9721054627793915,-0.17715127099236105,-0.4273869012181084,-0.2043607441117065,0.21206822686682525,-0.46322313624368516,-0.09834358021927114,0.4798424521792096,-0.6997962108278908,-0.42552579618912256,0.18116085386845993,0.9712096511453469,0.5430240962454689,0.8336982790619312,0.3628807846812452,-0.49948469179385924,0.5770620884632898,0.10836155803347247,0.9145408104162902,0.83376557798034,-0.9437024600346549,0.3532048146017259,0.1160524588868137,-0.638609840728111,-0.0910569048621328,0.09894845311955303,-0.19002664557029636,0.9330042550942211,0.5996833511269279,0.8816401020160334,-0.7052136416465675,-0.4077203171699192,-0.7677483635065561,-0.429074814818472,0.6600323371683772,-0.05879526050548646,0.3265112080580766,-0.7991534046346777,-0.7586764944095777,0.5098862342585612,-0.2811978177396318,-0.46581233279066725,0.3850726777761432,0.20343110130849848,-0.7757245371697028,-0.11568254607017939,-0.2682877894897724,-0.22428604601127158,0.316098129431432,0.37061365036098426,0.2730515437784462,-0.11030628634151182,-0.08070312254778456,0.7837674282597265,0.9955072289595213,-0.39509525324950634,-0.6933548817758675,0.1775642724957635,0.3957618854294889,0.442780600036354,-0.025070344256973964,0.2420336370142552,-0.7759637844090729,0.6685982628351542,0.14656441349713467,0.2405823812856991,-0.20618631684750444,-0.000486082175353272,0.9787383166994045,0.940539641656616,-0.03736692069946021,0.4237719462812909,0.46034825572930044,-0.5183082131128239,0.22295122795424366,-0.42037057558952784,0.798488676810265,0.35267828092725373,0.13352622099670342,1.0032963180446721,0.9351110860227901,-0.7840041157791474,-0.5885312401362363,-0.9644565315872976,-0.9719467264349941,-0.38230494847517504,-0.9248404226057512,-0.03319281816835426,0.007371409670280382,0.7734430848937315,-0.5836414935728773,0.9381306709883291,0.610692618699971,0.31126314993812954,0.06110879772155675,0.1503836561707986,0.027314689336384035,0.8366113304212988,-0.3315929336774106,0.3917938405860194,-0.5547042549745644,0.9947607345359546,-0.019632750010162514,0.7947348857255118,-0.45314345367730224,0.6325470201771903,0.7535008405760442,0.8247928368131866,-0.6573690477374114,-0.6693595330201283,0.57069336746457,-0.014813444018943732,-0.7898421820286703,-0.8498542191153589,-0.3068502782580198,-0.038721727948399315,-0.2768951996231883,0.6980312917955442,-0.65977279609822,0.26577868175970887,-0.39245956455443376,0.7195217315529086,0.26506870238415847,-0.3856098649265455,0.40289187481967903,0.28563805609267345,-0.6546884159378774,-0.32214510505008953,-0.5562693940395829,0.43006943548153953,0.9631070764485541,0.43591869581003195,0.16926607231716617,0.9677933056180981,0.9768563515949464,0.13945236767623323,-0.45717178083938714,-0.23928249159062176,0.40671197273720194,-0.7517537414292278,-0.5569713591248755,-0.5692011319244705,0.7138625609239462,-0.42110010572806045,0.5680963009254427,-0.23822018919805354,0.7875479663097951,0.8698747401382724,0.664862338880659,0.2369679462181258,0.7032032259375959,-0.837316847955811,0.586495847092655,-0.6705560390483866,-0.5940767103193706,0.045904385354848226,0.05847976747593911,0.791674867830475,0.32197270890755336,0.9244413965910693,0.757757075950437,0.43924154180285757,-0.22791632097093978,-0.48460062273633475,-0.552708216589125,0.8164316397943209,0.6087640627589676,-0.11249667316909726,0.29118335275140567,0.2670206290453779,-0.3236875286957523,0.22272250412800196,0.6537138316720852,0.8251762149349486,0.20066206204849557,-0.2895255466743224,-0.6618385329876701,-0.27237620257183265,-0.5016274031109909,0.7916040453363654,-0.8985851350299173,-0.525496498468594,0.21590009586633274,-0.601058105074537,0.3727988109334272,-0.4680435315926755,0.7817930402534039,-0.4379488428197619,-0.4330712162505313,0.21240236184043337,0.23643239429143592,0.22746875310274248,-0.12018836104655954,0.5148146732031519,-0.7000427689742731,-0.452618936641782,0.4267715320004346,0.8117694508174913,0.9486470775456484,0.02765351040686671,0.21228371269947566,0.13692485690110412,0.5887369504027409,-0.8280959017078003,-0.6216108700384093,-0.8365868943364252,-0.017788687683035986,-0.8054888364367373,0.6786858466509003,-0.5424977081729718,0.901672465043668,-0.14126914340942923,0.837024625384708,0.46921003810607265,-0.7230878196849739,-0.6973702804553491,0.659276569607925,0.43524154699957585,-0.006553783626472631,0.020041990289208392,-0.2924230586973344,0.8049569360930675,0.5178918954599288,0.12586113801472198,0.0624777429164709,0.5637689844969744,-0.3486330249201228,-0.43637771972920103,-0.8061960680272371,0.6356486482088424,0.9456945759547828,0.10920145044770349,-0.655441279012807,-0.2712859761760904,0.6357644396301099,0.3234063771345995,-0.9336924997101448,0.8873029794445153,-0.3078301720458336,-0.9521206298650454,0.4235974423017195,0.41478473537796146,-0.45391054274800435,-0.18430466053239428,0.8081862403236297,0.15823995523449308,-0.6445378219770521,0.3672173304201275,-0.5968614037847302,0.5837313105001853,0.6063340415333573,0.12606136103620977,0.5599896552576766,-0.3888665694609368,-0.06263806570093378,0.25992648612840463,-0.45486101905946863,0.9726121809518466,0.9002252328293086,-0.703604748426374,0.41656902940972235,0.9480965115447826,-0.7535916586905602,0.5797389689020888,-0.28819493468733476,0.9570395385103989,-0.5676996207942544,-0.7868743376796478,-0.06080558717709491,-0.47370063790908373,-0.9324253720792655,-0.9873334839151066,0.7616177657352604,-0.0844825582493734,-0.5983180028632479,0.6093120428266398,0.8882981899596195,-0.8433188564121771,0.6757946921931853,0.05278513719052505,-0.5427705913545948,-0.15773170670574446,0.3165685418104831,-0.12484136865356678,-0.6886338136796628,0.6304737721370126,0.05997523126716308,-0.19038839187694437,-0.8942924956921714,0.7932457869803156,-0.2749536813830781,-0.5424563308172387,0.38366269982805234,0.174464714693185,0.3949810809383585,0.41989825983134865,0.5897248362794792,0.639178993942291,-0.8552139214330275,-0.5668730071777525,0.9937411975084528,-0.16705879817451205,-0.37567447745600885,0.7135004420137522,0.413533633515214,0.786119267550694,-0.9272756325296881,0.6036826347804533,-0.8583328422048542,-0.6218625422933783,-0.5980617557168988,-0.4306315021391983,0.8386932137808565,0.6067798746676434,-0.2559141620183003,0.3272157561933352,0.028512435459752794,0.993089227903637,-0.9502426896874532,0.28675604311078995,0.4192630997949114,0.35909230470407216,0.05272834439834484,0.37141606382598014,-0.0011388205428659592,0.12630463443618445,0.5894453773134636,0.11951678913225974,-0.2497738077176046,-0.7169411820703215,0.6357192239259197,0.9335970927008085,-0.011900748952777596,0.9687539767755178,-0.9768359437424048,-0.4825034518220245,0.37277319665096176,0.08301421111915142,0.3825680823224553,-0.9511265505484406,0.5958477033676666,-0.8754134979214154,-0.7502442222336982,-0.12845132694738584,0.7429875720637371,0.40206808604595845,0.21903187790312995,0.5293972885730917,0.3902236747266372,0.1554560720992515,-0.8148922780383163,0.3713065889489183,-0.8900544926248706,0.9572205315187687,0.07624571597269125,-0.632197673088598,0.3883920646193373,-0.9600602687976141,-0.11521061921376319,0.5063959234863136,-0.7936561782581595,-0.6339527320752918,-0.09296402863359532,0.34243356319409146,0.030338730673986847,-0.6606033629582002,0.40502033434377105,0.30084604827425687,-0.5835190811188818,0.3028024069884168,0.1897672415151058,-0.09873900083996065,-0.9079167439160103,-0.928041195761609,0.9873262409738128,-0.8564302860108802,-0.1956204835360578,-0.3394598661138474,-0.6325738420213288,-0.14566965718306793,0.8096935361406493,0.6571718803661438,0.8464519389968738,0.08726261779812064,0.7402790516760366,0.6452770358081866,-0.5701865387822943,0.8066432971567951,0.0987534215161742,0.9162890464886426,-0.08139494108779241,-0.8771003786025989,0.6922964913379805,-0.7720264974556588,0.32963068751889163,-0.7356410077020387,-0.6336141792120856,-0.17633755710057794,0.7264765526208116,-0.9663654468603459,-0.40923028193013594,-0.3690796817440825,0.5618317349484511,-0.6190792761286309,0.1215548134980208,-0.7220064819637186,-0.2452007554863274,0.4505456461254017,0.06109445156532698,0.310337349592815,-0.8028653633188256,0.4160510437156212,0.36088028565259656,0.8903317113824681,0.4827955978969636,0.3585728123216062,-0.3860928874054932,0.012954324961909973,-0.41184975788488165,-0.5792088923914228,-0.09264154878068465,-0.41745829505925713,0.1974443753711197,0.12260939055453404,-0.5042209557379422,-0.7996648128157215,-0.21831291496800165,0.28784609806760686,-0.5643680671214626,-0.7040055846760016,-0.23098158885208475,0.8648598771719717,0.7760095539257674,-0.39212642239677353,0.9163649866137422,-0.1477032524136023,-0.2599665427074196,-0.8098995645641491,0.8778108286467334,0.9036241245402336,-0.13498006429352993,0.14545938633019073,-0.8770833323859353,0.8861651800040277,-0.09457949452893288,0.6907000007971547,0.9934137943557475,-0.5644097624647259,-0.5230458044656592,-0.8955280817924622,0.9658401393213962,0.31820880592251155,0.335490506751835,-0.9415924568735479,-0.030786663130306424,0.8478567576059911,0.541452193820956,-0.8043473780545987,-0.13819129750442616,-0.20354392179589378,-0.14700538310923328,-0.1950868685781486,0.2939346515561527,1.0020050506095353,-0.7896560899764591,0.6264095547870181,0.2564532167814113,0.2316635395075278,0.15073634636940336,-0.6142686992697457,0.4218289737158125,-0.5541090046486018,-0.5976012298840552,-0.6839309429184879,0.408115769647047,-0.8142113053662342,0.046143669393880024,0.23812123081947156,-0.15790493115973603,0.9361382157281818,0.3499439030834653,-0.923486101732063,-0.005982563407609499,-0.535158167571199,0.40739128636153416,-0.00836255909546497,-0.6560783837771971,-0.9039589081616998,-0.0008661996026521475,-0.3055581727162619,0.6019482021648033,0.6800696763967106,-0.36200390694021517,-0.5283826994866927,-0.3868234271903252,-0.16202277820758063,-0.17444599262491456,0.3886184209302108,-0.6093886530628527,0.48708340554969565,-0.8286510468513858,-0.22641297223818543,-0.07731135804079244,-0.6378153962503218,-0.15908895044486523,0.8836353004048155,-0.5734713782831081,-0.8885010574373445,0.20834442275127232,0.5720384826527392,0.9684919427306318,0.6099189955997594,0.22926540900751222,-0.45995932060445666,0.34052649119592326,0.6371063684397661,-0.9365434482741152,0.3082497640427684,-0.4867185597317438,-0.04239733076847238,0.9888025112789884,-0.1963569950765973,0.737000755823161,-0.9597364704008634,0.7081142581358916,0.652284262275718,0.883108984191522,0.8283075406115635,0.6776830683793496,0.05732211437866069,-0.3301834769615371,0.6922603541236924,0.015647591577560016,0.1925080692270984,0.47572660009836065,-0.9631422641429362,-0.7838563436431905,0.8313033677540136,0.015699589832451677,-0.5403392309563556,-0.7928495414894197,0.17948299355854092,-0.09879000947282468,0.0027621033419248722,-0.7476363106211872,-0.2217088209883329,0.5856127880913924,0.05148118660289239,0.15697832021854707,-0.4384995503593647,0.7078709999806991,0.8815723914095858,-0.724810132443432,-0.44077387890227926,0.4494512320870614,0.25042347959194194,0.46274863216186923,-0.043809259299437464,-0.005339844782505487,-0.39255541616831036,-0.3344963126689042,0.9551285901572251,0.6717847502228633,0.17878925360014306,-0.5393818785452031,0.7327669690903127,-0.42324699665367715,-0.8367049297158514,0.42036723781069885,-0.2871165959688591,-0.5270620085262823,0.7021072352050034,0.24949277867818576,0.9698049789116487,0.07781850209088526,-0.3170935734982948,-0.8203153078424557,0.34183994163814946,0.5900919152411515,0.9097120891292935,0.5624049075653743,0.8674691563141783,-0.45044418594556057,0.4680463208015039,-0.23094505223997652,0.9927833340613932,0.02938989370716052,0.022685108719952673,0.7679483097040152,0.634350679422067,-0.870808155659724,-0.9597546689508379,-0.6744797308715708,0.27539211672560676,-0.7663326692452571,0.11227025427767237,-0.9437403522036184,-0.3286192238260653,0.7177181919708063,0.7968765084439285,-0.34844586750324086,-0.48879816416746763,-0.98361118626079,-0.7763817329696224,0.5566139989909761,-0.5083251361486637,-0.7149775061310709,0.29556060776854653,-0.6971256770048155,-0.8441755430728928,0.2870050506120952,0.9657399390013278,0.964552794697947,-0.7684681263132603,-0.9811243494997096,-0.7971152694307991,-0.3127108955437348,-0.7278055380534482,-0.3464530824773698,0.3867096924587915,0.9740116120381584,-0.5364485866091192,-0.31675929332268205,-0.11742464529359739,-0.905864225441709,-0.17272806340455404,0.23933319238000061,-0.8677393217942629,0.3417431566241908,-0.34227747175943574,0.15588274637755734,0.44552258298207625,0.8907314313469009,-0.15321290278166488,0.9111125293386649,-0.3720241364756861,0.6980514832682373,-0.34114604357404216,0.1260835528713078,0.04326011106304509,-0.8561873398970733,-0.9964659760169473,0.13789465442152388,-0.6150105937734057,0.4332829033171528,0.9907813990298293,-0.6781252687124295,0.07889794273038667,0.7930946883365573,-0.7996961037765296,0.4826055586697755,0.19469817248516827,-0.6879835583637903,-0.5789307371705181,0.27099629361655975,-0.7199464780137724,0.8407323796601731,-0.962469669620422,0.6360075170030253,-0.2620949867721748,-0.7713435016073307,0.018130744314006186,-0.6546176613452115,0.7725723625978081,-0.24257359866940775,0.5431464239503208,-0.15993875356500653,0.266142883836446,-0.9157164709954093,-0.811000406173469,0.14315567419632846,-0.4477076130394487,0.28966855692805327,0.4656524189650153,0.12930708952462955,-0.3426941568777414,-0.38492959338839317,0.5512166655086728,-0.299390070787362,0.8292377625016735,-0.02443378251089756,-0.5934134899447181,0.6295698986161631,-0.39365755057506735,0.24769731358053093,-0.6663069035497102,-0.2892785993015059,0.7132200881364198,-0.12771948321357907,-0.11283784301668476,-0.04360598274330685,0.947907274505179,0.22147772929391368,0.011279446747093637,0.555431056812714,-0.537841971945696,0.9585092651524597,-0.3487517931480367,-0.7118683893281507,-0.3930791144750275,0.5407736689492965,-0.017777521973860226,0.10725330097648218,0.3976478188569522,-0.13653851956476049,-0.9820699096202723,-0.2548899043799251,-0.6646698327210833,-0.5215594824303023,-0.03668806062714319,-0.2581219539199763,0.6539011880751652,0.7585144322772731,0.9915032693577291,-0.6501120062686657,-0.39322516443512867,0.9950519039256212,0.25637816126607693,-0.2957703640644689,-0.8191913815684696,0.056598990329481735,0.37096114326627955,-0.748753476973321,-0.8818527751020396,-0.7087776055234255,0.3491841076554249,0.23161487220302437,-0.3809946726431718,0.041013488248992785,-0.5591728934361325,-0.044858863813839606,-0.5117022841000974,0.5210182320927071,-0.3683515249272552,0.2423537647076581,0.6064421582307326,0.08143798817590214,0.04779951183787048,0.1605717537043728,0.41576941600728456,-0.43825204587895183,0.6436812938674216,-0.1667342698266372,0.9726365477150961,0.4633249227990511,-0.08614223793167623,0.6099251821296248,0.3285712556079755,0.540441119046757,-0.2598057047040519,0.8333691057601235,0.5755135247931659,-0.9539605294994391,0.06287540294006838,0.8537193918867472,0.07550762828323279,-0.6549062181612622,0.09192856379797965,-0.8769108574494509,0.6270721165953567,0.36603440330345616,0.3712819733374053,-0.709680758488296,0.5692621232960361,-0.3923065516162145,0.8874742520799417,0.3722571292426642,-0.026446486902085935,0.9057701130500075,-0.3032539657122584,-0.10517959881187999,-0.4379890194324104,0.5028107758209348,-0.8690385893420975,-0.7689927625664055,0.14962729410977457,0.7205631552776999,0.3306537024748084,-0.08749723242443119,0.5579388192053792,0.10387992825540082,-0.9202522089196201,-0.9496138589712344,0.650734581506612,0.25282686812327526,-0.8248178193229716,0.9440626981050939,-0.9447995692657872,-0.35809721707203535,-0.9122265461609844,-0.7944384758685696,-0.9668117927686274,-0.8294402644200354,0.6168409688122973,-0.47932307632990145,-0.3644332917092322,-0.568211445056775,-0.21508835868948362,-0.24510602409447846,0.07156560228210898,-0.7959270639718932,-0.5361817878860737,-0.5288681655786434,-0.3631707630000397,-0.08915982632616347,0.34517869991394706,0.8786114947713581,0.9063620376410438,0.7758855835087413,0.8990995178691445,0.6242281639042406,-0.15357523007350374,-0.7067142373697206,-0.03488160207424997,0.39054088654567015,-0.9025408811697851,-0.18050228668247448,-0.37468447802674004,-0.26151883321997677,-0.4406107816633801,-0.763699419102205,0.3147664214958262,-0.06976407019280212,-0.7707734895746835,-0.8505321544393584,0.5354754633522344,-0.368394522213461,-0.8184258046821337,-0.3177292949856899,0.8426087697540907,0.12737035531148927,0.24362510325919925,0.40715501437143425,-0.5722292026636818,0.8074261450465546,0.37702015206407624,-0.3812617791292205,0.006973209897022327,-0.5055206452511347,0.012653008978122993,-0.688823652097812,0.7670268347282149,0.6923150328940014,0.03097023991293991,-0.0669173713716841,0.16550579135846216,-0.5116911713228487,0.15594880174269984,0.1415533212000123,0.08426140939356708,-0.04714844920564134,0.5174065610914799,-0.8371850804249862,0.5898403212199049,-0.21358853194216154,-0.06230030788831418,0.5485177587495086,-0.1279258478094775,0.49666615170822714,-0.5092153622642631,-0.758151935683271,0.5342452036694337,-0.8717204183765764,0.10254985817986298,0.2725778845977505,0.07123855888115695,-0.8112752687358457,-0.9729578523637489,-0.8360462507279862,0.7555898410190047,-0.8572942384653903,0.49403732758354957,-0.8659251674146387,-0.7045119730761482,-0.6268300746931936,-0.003514151411411638,-0.14764209194346933,0.41785491811389575,-0.1697828703848383,-0.9744981041169508,0.26026285143652683,0.06368744823246453,0.0724800329066504,0.9598684188957768,-0.4306719490809685,0.06301439026555378,-0.8661433774990146,0.8962938338279846,0.8717867730813029,0.8943881080081841,-0.7824144532297912,-0.061923342907090305,-0.9318608417126928,0.21161629449314323,0.7129058737852634,-0.02684135071753423,-0.8775077274014458,0.25581197529701494,0.5826447610093963,0.5700837230857118,-0.16734204966791855,-0.6270494307484136,0.26735235984395067,0.7867038082136278,0.7438238778838087,-0.6119759626717782,0.0806607806566666,-0.11817056098422025,-0.09075960906752134,-0.2702688311384678,-0.5640343789835229,0.6220747052341474,-0.6546589224504258,0.9363725473438176,0.9315815636245477,0.8013627166438656,-0.7382830192115547,0.9308817997259043,-0.6559428492327951,0.8448052521151858,0.4310469422536063,0.3193979622709302,0.5579298035312007,0.15310753380714046,0.4010338877452305,0.976639519613652,-0.510449466396453,0.053817509257013035,0.8553194898010251,0.0055767213718565635,-0.5117654491637041,-0.6451246885253438,0.911434586618671,-0.8882091166718415,0.7880332393766187,0.26495115848068373,0.08156352638316634,-0.5374428564866505,-0.9806825545178939,-0.15137064127301017,-0.18435459925366857,-0.444593261178832,0.7878008867293437,0.5623889470631528,0.5300050938785333,-0.1086563049434529,-0.9645259097460251,-0.2919958755354589,-0.040990303943434676,0.1200569701545626,0.7060122732335746,-0.35657986354966853,0.9765308260985358,0.44203427503589543,-0.6704984760849625,0.7093634272792692,0.1732304183831689,0.7002735783921161,-0.2687659222846087,0.8103850094342556,0.21776092093299704,0.43105480508288757,-0.0994262925465122,0.6698606080791106,-0.08971387737832485,0.30880721059551136,0.3733507894038797,0.9354852920350866,0.6574820567774186,-0.24466241352514262,-0.11926313276252686,-0.6917671715516945,0.7093643347984945,-0.14101375117871218,0.17785877052400245,-0.16407981409386743,-0.2894661818561006,0.31826750482387767,-0.857623130997332,-0.8639173649275561,0.5652938265843368,-0.07600257241714092,0.1385920482052274,0.061476900938810336,0.973107913529597,-0.823061955646049,-0.5313646515451589,-0.1746175218240266,0.6176668634187581,-0.6882138840596095,-0.49107925125694374,-0.9764992772497828,-0.8500490875709967,-0.6985558781738792,-0.29895859849808315,0.9880660697222677,-0.47876933591113846,0.8811086232341787,0.6062955237080185,0.9887122747627216,0.20305598568861694,0.6951425086429588,-0.27069348412518246,-0.40593098669635597,-0.21163283954060752,0.3327217533969322,0.8798622322548084,0.6768676482100823,0.8453191569690799,-0.806466697580583,0.024123305676744478,0.7256545705369642,-0.677406936022106,0.14244484150495662,-0.4256139266633374,-0.5457438312281387,0.021705253524709534,-0.13796477900303517,0.042756174994817764,-0.1394810365368723,-0.9470109040650263,-0.8800376512223722,-0.5724900159520052,1.0065454198793249,0.8030554507508634,-0.7572107296046351,-0.40166653652225526,-0.16028307228957686,-0.3457326173012156,0.7983649337500772,-0.6063714967304347,-0.12690149358479044,0.07350985472870979,-0.915800154470973,-0.7622822216626176,0.46461615149849667,0.9072327989197668,-0.17237032739293245,0.09851988548917621,0.5593138859933896,-0.5982171777981259,-0.6866952263528668,0.9059823797158303,0.9493741183212799,0.06358058211398507,0.3188956195881797,-0.6858926592553922,-0.3641865444132021,-0.2562827883015327,0.05414123085490618,-0.47025575831471833,-0.7137350364626872,-0.8930326693939767,0.34498974185618997,-0.9695916115009127,0.879453309690286,0.5403988200820804,-0.8558639892647577,-0.5750389631980954,0.027250238828541617,-0.8358365996925403,-0.05690700622463254,0.33908698384244607,-0.38356651491334215,0.4249659733109703,-0.4811146195002356,-0.8451495801107094,0.3096672068608862,0.6743985443605217,0.2926997639404377,0.7215703089997606,0.9431693111081921,0.244668692664706,-0.7116503618464862,-0.22577124116502625,0.36039311987389533,0.10799426636066986,0.8243045199862848,-0.048365173518413185,-0.4883257095734702,0.7157871364910496,0.20226553388355162,-0.2231544106027611,-0.9052819470982286,0.5404364917241116,0.5172200564608975,0.913812470388057,0.028635607964410347,0.8389026899200781,-0.9943271310194458,-0.08710348604334162,0.913833279838708,-0.7522987727778707,0.526151632046852,0.05989772273714755,0.2167289283426562,-0.06967109659579585,0.9937599784058708,0.6056237754379505,-0.8549444977093009,0.3984804801583093,-0.5710237747154272,0.8727636215313221,0.23607714758694417,0.5161024934270955,0.45419811516082276,0.9831468528933678,-0.2380707583503542,0.7127950783955657,-0.4235914879046885,0.9537013867323627,0.7718937707932608,-0.42159014210797774,0.5225698142906265,0.947830675059727,0.475415469404621,0.5677848548246509,0.05791905903148753,-0.9770100701885827,0.24527793402628947,-0.8969566357295673,0.9798555092820564,-0.33174837275286273,-0.7155593796017713,-0.20229927790977476,0.25318993478680385,0.8272534674108325,-0.9737239340784235,0.2845030947297664,-0.0663795057651122,0.7221487889325997,-0.5857424199521272,0.6965731148830142,-0.4652370260503325,0.8470282213801422,0.9851852726593698,-0.5317152789330941,-0.9471026825138977,0.049454378353794355,0.5927336149010075,0.7182540999535569,-0.5359334989813487,-0.9478307384054743,-0.8996774449440806,0.08222752420822498,0.9788737040074332,-0.970780896231691,-0.5896535244085602,0.7804107798669928,-0.24665073781480526,0.30110207712043435,0.5977274279103814,0.7664708614258271,0.6185852524625999,-0.6936993494784036,-0.17448894412366825,0.8716895882967932,0.39777103191596086,-0.2339886730067947,0.06867938129729348,-0.15252979947796083,0.9796127818498718,-0.5647405280986818,-0.15214874291051342,-0.3796406345458024,1.0032016552503993,-0.15788814377007218,0.712991299037146,-0.733947697095416,0.879411549983306,-0.8974648739078237,-0.09132200377442265,-0.6488551801079206,0.5921937065037631,0.9255121056500762,0.8895107854168366,0.4261298494717184,0.46054027706585365,0.04553139262699984,-0.5839619079789499,0.5787696927318785,0.23490116422025145,-0.8827787313527361,0.12639848510825483,-0.37650630772323396,0.008969406847943836,0.08885073420072372,0.9483121211307916,-0.6670452070208754,0.764477243361203,0.5148881325762462,0.5096397473420214,0.03176967367413024,0.5035127331081403,0.938660530966649,0.10302392601852176,-0.9349949172537994,0.1927924909250476,-0.20786304507278205,-0.1187017733989479,-0.9954750607616722,-0.96575344607293,0.4336241680756665,-0.005639935330701897,-0.8408597806512002,-0.6812680111644274,0.14740109228304354,0.4759762930048882,0.0847904656145737,-0.6110784422117403,0.43898092758042395,-0.6481798855980742,-0.36760129367127536,-0.9960105758262581,0.2423551631749461,0.8596818918425796,0.4027216782198819,0.7336293333343642,-0.34256545574090214,-0.5226201762066832,-0.9792895346240578,0.26349532573023926,-0.5414831324595777,-0.808769273115152,0.9659731314628615,0.3133338922119464,0.8491283863183507,0.6592550075197615,-0.5325279516757777,0.14906162934896572,-0.7544771674789308,0.7665170264385687,-0.6863906077515929,-0.0021537003654283904,0.5284077168102392,-0.7964033185646874,0.91846207414843,