{"layers":[784,3,1],"weights":[[[-0.330137638213823,0.9028221426676736,0.5127113608421157,-0.7036601263214186,-0.14227105136604323,0.16583342214928365,-0.8595847232169405,0.8678838600001226,-0.4288800981429073,0.5315297870503568,0.22246285106193997,0.4915567733081865,0.5509331639553219,0.947968678882257,0.7259747560802892,-0.7415226264525878,-0.9225552287384676,-0.3477180907920554,-0.3515917586788313,0.4834609973659216,-0.373154824240866,-0.7261367343511407,-0.847709747702009,0.996684113745952,-0.017556792843217428,-0.5502032621423587,0.4211003838998933,0.35601985589544816,-0.7002330335620819,0.9223579586804004,-0.96189430125942,0.35963685016876035,-0.05328026930394758,0.841465291937022,-0.7989383019089327,0.8373885063094999,-0.048290701874225794,0.28651043378585483,0.4746208230212912,-0.7803512029152686,-0.10489954657900856,0.32082206713523354,0.9367538274827922,-0.2473377928979208,-0.4050382214248802,0.055750735763755,-0.5614488203104409,0.49616272808562734,-0.7659736171024698,0.6971812640314057,-0.05609278202740242,0.8910107603913338,-0.6878840244356919,0.6851158303091274,-0.013830547679131168,0.6236530599522416,-0.487883935991809,0.9463633173698645,0.9440526988799164,-0.8367614961613798,0.5968382672184387,0.5233407392904872,0.8638428744552569,0.44287948243981434,0.7262122443423558,-0.9787037413620144,-0.6922654167511761,0.7028440114711361,-0.19570111408640511,0.6961794223257463,0.10842801085722732,-0.6486514793619107,0.9824828554767152,0.27538147868193197,0.9774832312931436,-0.3802333900158166,-0.5405611184555681,0.09951107654952662,0.4779939780464358,-0.9273362963809866,0.01631729161994655,-0.37126260380683496,-0.897677217474119,-0.4325676893871866,0.6570603297633584,0.6190777244580836,0.7820819638414176,0.6260688221907786,-0.8782959185509367,0.8360235087044499,-0.7990002934252358,-0.5274859047010745,0.4388664709837739,0.058987456514985936,-0.1416738695823161,0.6987895407606513,-0.9807592167594864,0.4837782703182705,0.970021722351682,0.7693741245864996,0.3405344774683188,-0.4514662379026904,0.5130698165084273,0.6970671108433135,0.5255336437522728,0.166565337280683,0.4998403338511328,-0.8022374677609851,-0.25023462060519,-0.3518516249915813,0.29286228381262513,0.4591648755670934,0.8033872980062369,-0.5362796477471024,-0.7634927329065668,0.21662746226207164,0.7765942067201292,0.17145446445416537,-0.03745404167470223,0.7529068140258779,0.12351139459462623,0.46962617253900607,0.32969258246608457,0.912234095171834,-0.00839347533950559,0.6336431432786559,0.09846949260210977,-0.9870341675239529,-0.8095128109349686,-1.0727352856788497,-0.0928108970925478,0.7908951800097601,-0.8357946945783508,0.9767893473742209,0.02363410681193412,0.36914123421971023,0.07773885437093697,0.5141543147975691,0.15655373077379875,0.5158272089276958,-0.8625108278115772,-0.33498171753801587,0.02003537283468848,0.1338488761845371,0.2563511823307152,-0.7041731382991632,-0.8568071348269712,-0.35100868875510693,-0.8760791990256815,0.2552040297920406,-0.7571569085498744,-0.4822233673991875,0.878035853084623,-0.1961928293183034,0.7511918088741875,-0.03173877005763576,-0.0033519879047157553,-0.0006272112190542998,0.7231131743519861,0.009594999302239561,0.6778867430551588,-0.1693842047476288,-0.672318087267837,-0.25163236615046625,-0.10937642243894774,-0.2636689918143189,0.47343630874772225,0.9000340264719779,-0.6607832014370405,0.831915120597507,0.43362326980889376,-0.1342724602167209,-0.6892617628132813,-0.21077617156643136,0.9589896585254284,0.6984902492213347,0.2541639600423802,0.6774920624464467,-0.4897922186294439,0.9755671974360101,0.12391798831896558,-0.6361221681170872,0.8079184069278736,-0.17987292765325427,-0.2628570803129262,0.816582514273302,0.19439249463307587,0.26636114576436265,0.2171322300557823,-0.9685356614457693,-0.8649448867801953,0.6689751642731585,-0.15611101622565826,-0.08367138289655718,0.9576134538836908,-0.6880500067053397,0.010211798104601044,0.4226186383044592,0.5252668665581599,0.8384758126368579,-0.8564478020321149,-0.26211879701760643,-0.15154035768188856,0.5242861186412406,-0.32252846590468875,0.14710470829572664,0.38015675598434306,0.286381348611182,0.3139343827991453,0.7524962239829706,0.6045193433295216,-0.8867001746226937,-0.07031862024248131,-0.8756935548982646,0.2953711337931943,0.6880360412388704,-0.6608630352986733,0.2099279353998822,0.8359390275500017,0.8591880394998643,0.9598413173624052,-0.39948811610592583,-0.7486372307503761,-0.7819690341636303,-0.426119551364081,0.12247556368592584,-0.3117573520795469,0.40321025230815,0.7627221966405935,0.6952910209329868,0.5236313673612527,0.08876359895649344,-0.036630419594862795,-0.20370756458056083,-0.6637491479945505,0.6324988929113733,0.8167442084993789,-0.13774085522212196,-0.6530310710012789,0.6108670633948812,-0.802234242733028,-0.8917989422080669,-0.8143661907876275,-0.9776997033752474,-0.6316915360447531,-0.587245479739198,0.10653218879645912,0.9614124577382832,0.29072924776394893,0.18128503641773053,-0.7908930382961332,0.46378522103854025,-0.9816402274215126,-0.3291157930549038,-0.29224474106308307,-0.539595270470886,0.8391193116914817,-0.40403686592796695,0.06966635631787033,0.3173455477197893,-0.07870727592306093,0.22451579773038863,-0.7377613643107278,-1.022842540152809,0.3168616096642797,-0.225661191583469,0.049769309676349835,-0.23178948947448658,-0.14217414490988672,-0.17901464550699606,-0.5524246290239491,-0.6410826848584132,-0.20739618038830132,-0.13008077288468672,0.14520725665019557,0.09121217929682655,0.23896695669333232,-0.2312140001808609,0.8295121251992514,-0.23077624157058008,-0.8498336577285244,0.502531521365313,0.8138329754838804,-0.9391977314820767,-0.6752873782984816,0.407062812321461,-0.4295617700120844,-0.12258401650732176,0.6281683377724232,-0.3592680028222212,-1.1485521091992081,-0.8957923112970585,0.19548881689466704,-0.6179278310120958,-0.6354501101896757,0.580194724892777,0.38005338682129824,-0.2993532912811661,0.5346338374584089,0.008435007481930188,-0.5534169122241596,0.6266183176514623,-0.808742511819048,-0.01662449875041272,0.6998621564453584,-0.5770541190050571,0.21133477422253977,0.4025043252732803,-0.9359788786028662,-0.8047168806562726,-0.8065840080405553,-0.10736885344135327,-0.0933463011441178,-0.15340335826970763,-0.9266186674365204,0.6339231662419236,0.15691737731171,0.6196277006137846,-0.5412676520581635,-1.10727448786719,-0.4732443593155236,0.47519253961733326,-0.7380975413614855,-0.22041185048575307,0.7339127177652186,0.5765103934101622,-0.831541560880319,-0.722769246809665,0.3724438146150149,0.21186264105320277,0.353675946961084,0.04549945500923181,0.6498269226953579,0.5963854317729751,0.5692412292041953,0.6166583276100781,0.29924591301044434,0.4552507679182898,-0.4588263980001295,-0.23559192084909952,0.8561286584981314,0.09236494567028351,0.915747312088725,-0.19037337592528283,0.5119821933901408,-1.1830169352851276,-0.7426021735465083,-0.7261172284624919,0.5484848416836413,0.7978547645721136,-0.18933762838824286,0.005213600326295183,0.6958156298774083,-0.03578727733931911,-0.3677262962894502,-0.2513172067346738,0.7264444053878638,0.6308418457104644,0.26474568723821723,-0.40818020764157303,0.7931792006984046,-0.2910511650430616,0.24977410066867867,-0.2461893635248884,0.34659989656742574,-0.8218652059807263,0.5030115716906616,-0.942247326498951,-0.03959578462568358,0.6304752372949878,0.692336592282633,0.837534517677804,0.40789347705464124,0.3260753461329076,-0.7094279395498801,-0.3014424734572481,0.5481969509858113,-0.48588957508689296,0.08476509077061178,0.20238580214196014,0.6915330435074641,-0.005303954338776788,-0.4095500128712749,-0.6542344556307056,-0.22353341305439164,-0.5743796929807929,-0.4694297343677482,-0.6217532450461127,-0.3082288119391112,-0.44957377411187704,-0.6980530757829211,-0.6301889762190884,0.031988754076889725,-0.007118722630183871,-0.565292695133349,-0.5123143323265609,-0.9837515217149336,-0.77829919209716,0.8278768136424831,-0.06877013228014714,0.7198223769937219,-0.21629882215898716,0.7935206928165297,-0.9419453539188924,0.8544645221053353,0.12505324216185368,1.1911682541391106,1.1892339396553289,-0.7100541906461294,-0.7054298308343588,0.022532251229238024,0.4393638356340735,0.5398482470410654,0.6067753080382637,0.4001033509745502,-0.6326365488881591,-0.5056305093622049,0.30667238537773067,0.5553914146806727,-0.4186045988666973,-0.48795139464999426,-0.67355146426196,0.1824567793104923,-0.09788124805457232,-0.8221513413801316,-0.2870383766424249,-0.5067120035284219,-0.6483328491119679,0.47741391066532474,0.5036651667112446,0.2969237372653222,-0.4753126217636777,-0.7924722578195035,0.40272927683862375,1.2600638409555596,1.1937447556916716,0.7165349048017116,0.4990586867069892,0.31405707252467036,0.20454378886887173,0.5719622848820599,-0.299361764656449,-0.9654566078658632,0.6399957154582188,0.24980384999436156,-0.5138448726059237,0.6540777570899201,0.4144937244304905,0.7412540760622446,0.4757487722523803,-0.9162169914151252,0.33913022889653455,0.7830505121547335,0.15651395910642002,0.6530237848051873,0.4724169478521694,-0.5937646826073671,0.6667517847648857,-0.9087525825443226,-0.6326310405357741,0.6355417302728119,0.6221310724686258,1.0525542095916884,0.5429625514144619,0.6110835089006352,0.757966212358476,-0.32952651904211366,0.4468957429400514,0.7403955985983453,0.1351259215213429,-0.5643107101945659,0.47688409916139984,0.8007447118421489,-0.09392735007967046,-0.5111795235224814,0.10249388053411224,-0.7298400872934796,-0.6767153255814098,0.255413135321535,-0.4504318936376961,-0.8964511768444727,0.061243155285034864,0.6475732102568205,-0.43184926447645916,-0.5866935513251625,0.2437772785370233,-0.21412145315997988,0.474097607055967,0.45312015623502705,-0.5411734533551585,-0.2733918405218573,0.9631242012919358,-0.4551993235855753,-0.6783644162811718,-0.22109316548536512,0.2949216697676818,-0.2060263582256019,0.10214062874945234,-0.6308078202634037,0.743316614742547,0.2516235832423048,-0.816839673663502,-0.6529010877852999,0.8685950576995869,-0.7616098437674368,-0.6951942107413258,0.06821684130952055,-0.8208748369379966,0.8760627401474614,0.6722479097280287,0.3969082949478959,-0.22824312220567675,-0.8221271210126818,0.12635501291299248,1.054437677654651,0.1815679357708886,-0.5734473158727844,-0.09553340374414615,0.9889933307434751,-0.7323752093333435,-0.18016114152012544,-0.3457848599880499,-0.0027787114884636386,-0.4594532679059705,-0.08022761823208503,0.41918859934943203,0.5721543577514046,-0.9413346999813796,0.9946519512183832,0.7106617471378518,-0.29514592080193647,-0.7697198730082284,-0.9852755296189526,0.4834576537082145,-0.8436130426124699,-0.9367624190295608,-0.771127104948621,-0.9822572065611694,0.23101079242170758,0.6591695722333705,-0.5978687085558819,-0.510643352422406,0.05247987996937334,-0.2523976634322067,0.9825004408904783,0.7896863905642291,0.09004559151585034,0.547039125474659,0.24407751060958102,-0.3368984149725533,-1.0961206777914876,-0.8977991532890507,-0.39753254363482926,-0.29312477130564774,-0.01440050039102303,-0.974403851786035,0.8374631290126955,0.4382402301419106,0.7763284787268563,0.731919975856602,-0.06763834597855789,-0.2063880510924807,0.6990442171759503,0.028268132622668585,-0.7234035982251337,0.13554218077732055,-0.9773864230873786,-0.012268734092002494,-0.7848195456567418,-0.19693545905198645,0.39469696731547643,0.37070050553123585,0.3458120954187778,0.507477782675546,-0.1902133609611724,-0.01925996081064786,-0.18307484116194792,0.46272602934781465,-0.5573161632199309,0.8611708599981188,-0.8704550832270443,0.678723254083309,0.5036701302650941,-0.8126462983429379,0.8815957263362388,-0.2650508793569275,0.8225920052114459,-0.42322787428592945,0.2797162731404552,-0.734551776916039,-0.2992720614481592,-0.027826445307827852,0.9288250075746708,-0.5422640968704437,0.6022551298373305,0.07653606811574182,-0.9717073932858562,-0.1933873043263807,0.4807923342899517,0.7083026223254314,-0.6331433000780654,-0.6459935164959831,-0.5173425606047476,0.042257715267248266,-1.0915690403278606,0.5859540645410624,-0.9759213822989146,-0.029633465145236793,-0.8204261698011908,-0.7988548461487499,-0.8323827804763646,0.06742758803509186,0.8259184040149672,0.8406003910524948,0.539562085137155,0.8319605128391196,0.8328770957411558,0.10200875700401002,-0.6202622148309891,0.6931894542513588,-0.3451973036908176,0.6827384850579958,0.03231409262356106,-0.3891325312607052,-0.07251801783524614,-0.0014406506256417788,0.8280757904561781,-0.21030908727973208,-0.9603604316337364,0.660272958216273,0.5640406238456858,-0.5056596799135696,0.8876224359700727,0.68678414008084,-0.21657999323556412,0.4186275778224342,0.0749224806882629,-0.27566181850214067,0.8475216774425114,-0.09105069479135786,-0.2897349911174507,-0.2572672952918773,-0.6178776622008106,-0.2655133283225839,0.31830207584821735,-0.774478942476845,-0.8752185050492349,-0.650543707127031,-0.8754200986953296,-0.5582089252910118,-0.9739152180659744,0.4347203198576648,0.05453426607432014,0.6639634210777294,-1.0119293369430062,0.18969925790050318,0.7785360538087338,-0.08695499227384205,0.24371782275223416,0.8488398511151503,0.6811074309854055,0.8238993580556346,0.6523831815688967,0.9657829538483912,-0.22180937636190112,0.8015904332545432,0.30321160246460366,0.10583615127504652,0.9829766777691372,0.3147446827823386,-0.1523154466124048,-0.45811520754603374,-0.5047383652075321,0.6601891159047091,-0.9035618511182386,0.7533912508754266,0.8722532879141818,0.849520097775458,0.4264857131796614,0.6387815620986663,-0.020264954219438865,0.4887629886982251,0.000995028217744583,-0.6391285769109828,-0.8329796337849301,-0.332904279283644,0.7293394242035577,-0.28526144662438246,0.31632309227470656,0.6068336687880311,0.2076100866891468,0.9058554556410152,0.8037364691781095,0.8488382053651329,-0.19554530329053432,0.48233666255119734,-0.27163282138552325,-0.08181826401458325,0.05576484572698237,0.10354301804427402,-0.13352283441502832,0.987570071426646,0.18878328195928917,0.7129319915369066,-0.949638239145648,-0.5202722886889897,-0.01967396342500627,-0.5191412287999913,-0.7306773866109884,0.696503186821942,0.974841411771723,-0.2422431257212283,0.1802435952712893,0.4371606886188317,0.028689080386222532,-0.1244727664459928,0.6161338848802773,-0.5895418365913356,0.3906268227629688,0.9244591479147288,0.4225037872797499,0.9770189683780366,-0.3042242144321081,0.7686273096200669,0.16237339561038966,-0.04186901844170321,-0.9376452415168022,0.12971631280340956,0.4397957988757393,0.2289602216162152,0.4630688257211893,0.4597927397797532,0.7458895635457723,0.2367719059325777,0.9649516934791234,-0.1715261348934458,0.4524526755417746,-0.3298071444578441,0.38036756410701256,-0.9441947093791604,-0.45467253969238497,-0.7498717637360057,-0.7415013344352497,0.8641172490764397,0.4881241856432337,0.010154229008270566,-0.1434653067469167,-0.22405142885537432,-0.2060837697778961,0.0019999953575349227,-0.2098811332929729,-0.9103960946813204,-0.07323458098349578,0.943759314392392,-0.9962467445408012,0.7169664926059596,0.4832885529321691,0.3926885531215707,-0.431489961987076,0.2732305627486058,-0.5365549138407959,-0.5711811426922018,-0.5532029570746322,0.9935249136738684,0.779005084160495,0.8701823467218939,-0.25845119529220817,-0.34369956342205477,-0.6330820547821836,0.15607046530936897,0.3986204511276568,-0.5637819521345642,0.757913351723845,0.35363308583168496,-0.13471760450995585,0.19759666980034377,0.6704006523887447,-0.2378420576886786,-0.9857788090107696,-0.890513851023818,0.8101196937675121,0.04989946065165984,0.4005768506121399,0.7157755354358066],[0.8130778119294102,-0.7244648008570567,-0.4252258194765095,-0.4592552505880611,-0.23748581710804273,-0.5619788839449025,0.6066603780375182,0.5413108149533821,-0.1187737235555053,-0.5810420047329417,-0.20444060430604336,0.9138212515219044,0.7295747875242644,-0.39773681864082344,-0.805266589282988,0.12048220900770425,0.5181677496581085,-0.2253926701514204,-0.5453574012129847,-0.23022107981583373,0.12445838513209906,0.7044706810379984,0.25130077176147436,0.6854892524603615,-0.41514284931181344,-0.18191665029482285,0.06385868991150945,-0.9924477824986256,0.8062820978027609,0.6748280158281261,0.8631581729289906,-0.4300736246203342,-0.45905828131750215,0.008235706638733076,0.31592507877953335,0.6321617051283099,0.5437556648594133,0.497184931386627,-0.43511623041590886,-0.2829970375618065,0.8831746239321305,0.0946569686984282,-0.29938171838435323,0.1114615483919328,-0.694326665254704,-0.3948483294676761,0.06797481523164817,-0.5002680407085316,0.6175477474534867,0.1363476340714025,0.5314656900679253,0.5236589181901128,-0.6230172149826545,-0.1665138159740975,0.325883616922122,-0.8025400242450447,-0.4149899137913242,-0.45885627464826495,-0.5473358640307577,0.4046756849291619,-0.10354975451012804,0.850906958270115,0.2552773427143633,0.5629157055714133,0.9541667704821186,0.0475590720353698,0.7651758271653895,0.6166318550155494,0.9455546621588248,0.037266897276531985,0.7638930770442829,0.35597985786822517,-0.22026037692932787,-0.8548745603316559,0.7613645368285711,0.5585744232311649,0.13184891245972752,-0.5749486246112017,0.7158890882790412,-0.7650878839109363,-0.8405131667529191,-0.1964679381021328,0.5535555512839252,-0.8618345324014742,0.3802140165177508,0.21920290983282056,-0.3094411974136053,0.9012715603412746,0.9343901089445888,-0.71586733531029,-0.27439123479530836,0.1456647944724705,-0.35976954717425347,-0.9230514243667722,-0.2901588792008656,-0.6528139998682823,-0.545653903735454,-0.0988697042179929,-0.34085792151867933,-0.8521062611461414,0.11457299734764036,0.4138352291150813,-0.3856148330483564,0.3786782654760796,0.29572981043604796,0.24636346623035063,-0.3900311968007246,-0.15760041461465546,-0.9932930675461936,-0.8810724800456669,0.926877403833726,0.7364001784263827,-0.2974545717709969,0.6198770358400536,-0.44469740134869706,0.8582945050437087,-0.7142942252556923,-0.9019867872374974,0.2448745483235233,0.7193018539698719,-0.8725356161639313,0.006711494383333072,0.2239488311138218,0.3720963708331213,-0.2991901493670317,-0.696844172075703,0.2794313398962192,0.2018110501163438,-0.7439496505390493,-0.2917919834897648,-0.017367981580270097,-0.16220782052515648,0.8132021867186565,-0.19151733640858823,0.915136464293386,-0.27282060593348434,-0.7061278332948493,0.06227780070015121,0.17241184830347955,0.43219022176429367,-0.08094973413732931,0.8231326328404109,-0.34083216144644024,-0.3034664461153267,0.9367829064582376,0.9047300556436584,0.06147973430393816,-0.20714700499287075,-0.539216710436708,0.9620078367538952,0.1778527015782061,0.6829022705679072,-0.4474394363971754,0.23736686260396656,-0.13019813512799955,-0.9956700970427652,0.27689037456589494,-0.0959477119772831,-0.6747817259344264,1.0576679036472219,-0.5099062289085399,-0.06897545846485174,0.028302244700955742,0.6035722613862866,0.3238198697407606,0.26831082464200096,0.8702981012772035,0.41961622709357194,0.10107988058055706,-0.3981905232959211,0.22151146186332535,0.5030158132725213,0.45359450424141,-0.9496767900220724,0.11908393530488004,-0.08468635452232864,-0.12740158674999646,-0.354688122584379,0.0812493778393959,0.8189782279017884,-0.6545230252415207,0.2796409544968017,-0.6479740769547949,-1.0849046364987522,-0.37668162353765916,0.18129791046207197,-0.8883492763860108,0.7006594356566854,0.2505019302148112,0.34049991481862296,0.4059600737687826,0.49946469781407266,-0.13429252866942587,-0.07751117401391383,-0.7911635262762244,0.5333700365357863,-0.4263595413923298,0.8938087462550166,-0.6490778030722966,0.8842591833448445,-0.4889130354509202,-0.4654675699689104,0.4323497084186603,-0.4607910619347213,0.14294776322614644,0.40652340596656056,0.5371716540293539,-0.6069505140341498,0.7042800316968808,0.9851131763956328,-0.09523929668150204,0.20414968019434465,-0.4946005680264313,-0.5180241785802692,-0.5433461927727531,-0.2910932973312993,0.4685974529573562,-0.35561193090881515,0.18544891452317827,0.9507554555955032,-0.5973127731251455,-0.7683697392549651,0.5846772563046414,-0.09161256195270684,0.04223530102697426,0.7150953800592967,-0.3047510226796337,-0.7277237868400086,-0.7556165394406911,0.9221239714939272,0.34809527392274453,0.02529995184315403,0.35334551120422697,-0.7476644060785653,-0.953050722897556,-0.6280074337482194,-0.45549967348508835,-0.8705951862938694,-0.4630481305430328,-0.8369358943586163,-0.20608889622692259,-0.6157371541488103,0.16451013635553238,-0.3845061065206847,-1.0123765744997646,-1.0092338295829748,-0.34620281440757183,0.8644072771558013,-0.3636957937523251,0.8348891856667988,0.6184437307845316,0.8463790070655857,-0.1276975990612765,-0.5216078289031907,0.8175512569883303,-0.22392121258710773,-0.7023584640575185,0.9701440574155727,0.525182088340334,-0.6095987321312211,0.6651957581850356,0.8487932451191285,0.21873296972997602,0.5579360735136117,0.33186145158110664,-0.6073923319034256,-0.5378953954332892,0.13168362833527072,1.0146761076395827,0.5590386527739978,1.1152666599977323,0.9105843332429768,-0.9519920212406588,0.14004832146006324,0.7096252407753405,-0.043102155185969826,0.8093451541316465,0.6863579400599691,-0.5062109313798908,0.28847872699152877,-0.01068973830535258,0.2627093379691481,-0.0771748131136556,0.40957913442815297,0.26945113002116505,0.2907175859508895,-0.9780109928880488,-0.7752974840063296,-0.7863785428676955,-1.0127931069498066,0.37531569371174867,0.07950954274960378,0.3198619780887529,-0.17494742792642037,0.3654577927353231,1.1285290116468933,0.18820554294998926,-0.683673854168019,-0.3308791045224031,-0.1856529612997679,-1.1737968743301896,0.3677318570911237,-0.6805924560045592,-0.08750244406781982,-0.521176568793158,-0.5687804110522279,-0.961310692320863,0.963584062797714,0.35656709435057143,0.23633917341795696,-0.019756285469349155,-0.457951141694068,0.5544641671472168,0.10363374500680857,-0.400672172137299,0.2007878925988673,0.6800027759163516,-0.9106618354679417,-0.15536745086519066,0.6705556937541102,0.619095582985316,-0.2841943924174358,0.5826263562137822,1.0588079065769656,-0.07469969083617109,0.9029113041005921,0.14187077048787566,0.1717455420531453,-0.49532944975325477,-0.24418642395426485,0.07067253486153138,0.18338681473966467,-0.2892727145254044,0.12081310577555882,0.002808869584332019,-0.32472371938558275,-0.5988770886793355,-0.9065849229225722,-0.08295260981639418,0.46045837633888054,-0.1370802825491444,0.1439403930518539,-0.600122714872666,-0.3245209753275258,0.44506236042425257,-0.06701076258154459,0.445708656342165,-0.7748698218758746,-0.46749660237913265,0.09609642444270237,0.7039479418384339,1.2994143467158012,0.9326617904556139,-0.4085709084925414,0.3386863850814709,0.38144024017202577,-0.4100626025500286,-0.36709350832183985,-0.8246187575840609,0.2619055473805447,-0.6051200272545716,-0.536452307093449,-0.45703475791981063,0.07795910306472531,0.3244905128804665,0.7367677975551516,0.03206358259120967,-0.6744404298566673,0.30690694040137223,-0.7995098343602716,-0.6236474712390874,-0.18364423228381987,0.7335998478861844,-0.4103223485331122,0.04410210475267223,-0.35444239107853676,-0.2404594516769835,0.6042061276667523,0.005195059186257093,-0.09754961715992523,-0.5355457826225151,0.7116145795046257,-0.5312703464228057,0.2765576977848537,-0.6111223005128048,-1.0209061294306747,-0.9912899176722205,0.3618353202016167,0.4036433074594497,-0.4082090663087796,-0.4506221256499767,-0.6299383857889964,0.5651776731005664,0.3909853189729853,0.07516758371478693,0.2975595867122325,-0.032826965192532365,0.7600334647859068,0.15319809588364638,-0.35812545613123775,-0.9054702037267288,0.4689788230266447,-0.6328365137558507,0.2535288381751431,-0.6644505095064527,-0.001752931982056917,1.2659288359351737,-0.24809796345578716,-0.2915940268432852,-0.25221611940936484,0.8201061272198581,0.10907442961193176,0.5665063378794245,-0.5861827254978571,0.5764628516063585,-0.0655213416435132,-0.878150905406238,0.7980199489447484,-0.02177537223454729,-0.40727823944025543,0.6880993289813977,-0.18728645551211365,-0.9529924509150868,-0.874284066863749,0.4380479580770813,-0.827075212162418,0.5879268053506629,-0.3621173311597581,0.247784207378591,0.8412792506399148,-0.013425155007549858,0.21465711499617748,0.7899071266730273,0.04860540653176028,-0.14137063742255174,1.507048591331658,0.3881741739978594,-0.8278318965936301,-0.14652075100174813,0.3150775297392743,-0.42119985557273426,0.8276828044310521,-0.15494495783498533,-0.9456831705514066,-0.1411403085186156,0.3389835008730877,-0.4743541913140281,0.547003969704249,-0.7974433981291329,0.2705160537559046,-0.6351891133523866,-0.05131593790559896,0.4385790467289299,0.3750662559454691,-0.5172488702630418,-0.7992267678979791,-0.15210381963668823,-0.3761904874369063,0.10422218772626356,-0.02621691401423335,-0.7726179003633832,1.2598775597145986,0.9820013588625311,1.0686011324005784,0.7649914259933537,-0.16902563724277903,-1.0254264137768943,0.3941127828062287,-0.10387948089609031,0.48428454626046513,-0.42623952897670314,0.7994577834472332,-0.4966489644781869,0.13729917400317793,0.43031921456750344,-0.5317251859411156,-0.9192071750400264,0.9418818702014612,0.2777580677095639,0.7015295348521517,0.08423688583284794,-0.5548967356784317,0.6648694140871316,-0.557314667659587,-0.9228872915742359,-0.37711457818339983,0.6893488123120721,-0.7079913039355628,-0.1288995080240454,0.4260824185532874,-0.0003149267949976914,-0.6022662656561748,0.6845831581705809,-0.05534767795701593,-1.021628917366447,0.3787712562184103,0.48105339670244784,-0.813345011025675,0.881824742370677,0.7028635614440275,-0.4903411139833431,-0.4823956388366164,-0.41147307890493967,-0.8823859298721741,-0.3910394289937949,-0.13766295864937916,-0.7887438046361313,0.9999492916909776,-0.5695005865041458,0.09592009302721569,0.9065945667022062,-0.47364936323369894,-0.7994441880205828,-0.5407401961854991,0.10352642364720621,-0.15467954803707898,-0.4468308632110679,-0.21059999651341968,-0.40246048512890903,-0.6234603280511439,-0.20966569313131586,-0.8425559615730461,-1.1029529740170758,-0.005438740885796713,-1.0535570660912177,0.22101986953717706,-0.9403896092303938,0.6163306694365676,0.6320151318993941,0.7872724181758559,0.5755714283756783,-0.49692975982398346,0.6929231494582446,-0.24870426064490392,-0.5709301115116441,-0.14799262130051138,-0.813243530988063,-0.6572798546123101,-0.44026523996350386,-0.5971157533005228,-0.07462620910613715,-0.4810845649988179,0.5133952707815135,0.8992903737102073,-0.7084979767969806,-0.5794890182915571,0.7734021131753447,0.9617294992809045,-0.09366147346375475,0.23433992619251118,0.7162521350966978,0.8711398985548459,-0.4755074743079775,-0.44707891086882534,0.39171316257934263,-0.4500570848650116,0.6871952146165146,0.13582865660031265,-0.4084449653036579,0.2873592952550488,-0.7889511527538835,-0.627817358213655,0.4353857603987985,-0.20630070699976577,0.6550872007639463,-0.3548078371157904,0.41738478646541766,-0.38282253272687805,-0.7559736683311377,-0.6312210530510383,0.06766928682137913,0.8526849808247156,-0.6506312778875619,0.5445976016629995,-0.1858561311071299,-0.07669720063808448,0.4962066166474657,0.40547200686007917,-0.12634028909367914,0.2726170388140689,-0.6290628209916922,-0.5384311102653832,-0.8746964271249191,-0.1125080326498824,0.15203132471990877,-0.2659396350740171,-0.865284186284554,0.7645058239238576,0.16651319577891344,0.7367156667419976,0.8672872541270098,0.7595382678135811,0.4501876006781669,0.6425286725419648,-0.09084010086506364,-0.5057505198323595,-1.0691268628149142,-0.941562715229025,-0.05859991677429229,0.2574849700075023,0.8261782709171681,0.3260192144535671,0.8681507299523262,-0.7209195140768789,-0.08841586726442353,0.007514715621240104,0.3818224409807736,-0.8589222464970736,0.47254914723404307,0.1960414261715724,-0.435480182429834,-0.9398079701109034,0.0962634616409701,0.2113004092275459,-0.7754013206022616,0.9411210808504122,0.7992755441078179,-0.47247577409040176,0.5383935818501393,0.5313704025047039,0.45655488272245526,-0.3893667377954826,0.7615054694861215,0.15917832649066652,0.9402337818695826,-0.6030123110008642,-0.3248101614046443,-0.37915812671211524,-0.8057469071043668,-0.47478972849576945,-0.6110312114732699,0.36542608144699057,-0.8514060845027459,-0.7052314987803074,0.10219484584742843,0.4121518309632375,0.9255469907755356,-0.7702159279289762,-0.1995097010848721,0.5294958852237275,0.23668719626291668,-0.7223165954549073,0.95654640845969,-0.39812552418930314,0.7963040250207285,-0.03244449741799538,0.8352604745359395,-0.6512081049839409,0.06066151710288836,-0.1870573464253011,0.4523599324056846,-0.09914793488797509,-0.5267560881645,1.1897291355827393,-0.17212867738374404,-0.6018086905668747,0.33669484708554653,0.6554587059293405,0.6956538564355662,1.1665761502376446,-0.27616318056778694,-0.03933264883596029,0.6668802213492631,-0.26462736850147217,0.14121409733175705,-0.78654893993427,-0.22728057130486956,0.9926926074215812,0.1977059877070149,0.7175199771752083,0.6820540874729686,0.6298230275812915,0.741665708978327,0.33716301916671454,0.18809617883293409,-0.24196910671853367,0.645922739988307,0.8187991003008601,-0.9601670798292344,-0.9915143149115544,0.21359857468568033,-0.5804114421388706,-0.337633257840894,0.1128401490057457,-0.2218905431498502,0.6911191602764646,0.0019389748842368606,-0.1370247176091462,-0.46564315123703276,0.4781116635613971,0.6234868882017655,-0.03897329784536208,0.8531263313236963,0.5515331172356339,-0.04013388608056179,-0.8640140002988155,-0.1716955171214738,0.5002381396546276,-0.4324400754969191,-0.37043086365752176,0.06801365214447519,-0.09311290205644962,-0.5548925741524551,0.7451151023721418,-0.9875154724604138,-0.958856714527634,0.06920753740811736,0.5948047231987013,-0.3650383793771159,0.7187482932007565,0.4280159132565713,0.7611053363957152,0.7767632613256603,-0.8644608168611871,-0.3126696061542189,0.8021214234950933,0.8133501846673414,0.13582308857676773,-0.02928084504269557,-0.6856563667091893,0.009116482154825745,-0.14901564213804552,0.7893548058489472,-0.8791780191063288,0.6333401110567995,0.7690327752497366,-0.9316700128948848,-0.12780148400110525,0.6237279113339353,-0.09849318838383823,-0.14279898837165717,0.018420494866761672,-0.1400674159419797,0.9391624658248288,-0.7769582076869539,0.7787600080684995,-0.4858071103628712,0.5578015919609816,-0.4853007457308305,0.8007699833889033,-0.4204085487234859,0.7060892827031735,0.4928902705197149,0.13669868834670384,-0.34773899245265594,-0.2420318257580889,-0.0020542400401266647,-0.8432741307613127,0.3259277326633643,-0.404560073831431,0.9859450018901176,-0.5285570582288144,-0.8077446567128848,-0.26649141957719236,-0.12931325222075074,-0.5457848192462187,-0.6403692449918938,0.2827293312921224,0.1540328608943049,0.6244212250614605,-0.5691981460819517,0.04901302325113677,-0.5563722025309097,-0.6599315372927947,0.4274779192232081,0.9302407386784504,0.016181776255386637,-0.14878416398524785,-0.3454636735281178,0.32054206871515656,-0.16033900592852435,0.3422307097336523,0.16428181148190468,0.8201621999837925,0.7356387428425546,-0.28459569187583855,0.4077915539648061,-0.5486450810960593,-0.35806002212408683,0.04228498575909678,0.5480309146389566,0.15396912276550534,0.4319789915516188,-0.03697186167738953],[-0.1440012649590101,0.7199798398587738,0.9616162312294738,-0.2578141474169997,-0.13741859256997024,-0.3632653303912172,-0.2342258217172384,-0.14872100235356478,-0.154088699042066,0.6393027455982538,0.261925756712889,0.27459977292126836,-0.21531311543804144,-0.7846601986253223,-0.088527821916079,-0.11483549158926044,-0.3009708298644389,0.10970130476130292,0.03870886763680992,0.3245570717984425,0.34463862228213427,0.7851793271186238,-0.9960103123228355,0.8873778543928241,0.3330905137784428,-0.8475752264793124,-0.4508696737213458,0.041253597446789136,-0.9633858536937236,0.6007843731999607,-0.32079208866422926,0.04056079416328085,-0.36472056654594054,0.4655938811394187,0.8851699777143096,0.6248655793002327,0.5918377947395006,0.29702834710437354,-0.0641412537522581,-0.5624835633407765,0.4834040841679832,0.9090215609855076,-0.2897598912667314,0.6244368993684939,0.5576637683284862,-0.23841513408995052,0.5099602700301276,0.6564490415333564,0.05401473194187845,0.20126527513000392,0.8065620188362577,0.9780219324726992,-0.8207899567619272,-0.8503196988682571,0.7720444405549167,0.8898448233091019,0.4530323906192417,-0.923783663564114,0.07248269718183464,-0.8483150996066746,0.23931720697933212,-0.08039892141330096,0.9673260355551634,0.7133368322770179,-0.17578252055217458,-0.9586321816730315,0.3016105218663978,-0.35214461170389955,0.2677974447810003,0.7149510900144633,0.350193485949968,0.05529723233406458,-0.5515953580210715,-0.012764598084809007,0.6909608754133523,-0.3454173723299079,-0.9980327900597128,0.8032540988518118,-0.8306632574213628,0.8270934132452339,-0.633673928951382,0.17923036035668183,-0.6468055468765401,-0.985191430276224,-0.6180063929648054,0.5629606435968895,-0.5515695237330251,-0.6778906692048947,0.36753702582172143,-0.6385716848281457,0.15013624528314562,0.2795610425948074,-0.4537372718415469,0.49217239234372623,0.10075913185408791,0.35979330370441964,0.9915482413070148,-0.0927500667411152,-0.3884996676909449,-0.9934364962616692,-0.3164213528639026,-0.4677456132995923,-0.9701754168171576,-0.7771454465768834,0.5900264010446734,-0.1284965266782705,0.22641580199230615,0.8694036554727635,-0.18693523644087073,0.9957951318241738,-0.6765030537807231,0.12143004138220048,-0.3919808198207919,-0.43303141850071625,-0.30209203923982875,0.8217238466531778,0.38354192511604435,0.3348898449359927,0.8992220253471654,-0.3981954022413001,0.12264855429421596,0.6888101095569434,-0.09910627022068196,0.7409790698823517,0.9431601495189916,-0.3612962450661868,-0.3461321437908232,0.7175653461854431,-0.3572276300239327,-0.6649050917267242,-0.11987408301629209,-0.8006297129329545,0.12559003924826867,0.619880977278211,-0.8856993711376207,-0.8095542083838543,-0.16409659108023922,0.5118739643437491,0.6542447306174475,0.4923449999425533,0.984188935084167,0.57871982754509,-0.6316180042728454,0.21263879871287727,-0.006178227904347411,0.8895600993344976,-0.10465012078369518,-0.19888540880380567,-0.6480552813728151,0.9393648793667896,0.653011977995825,0.4395166489530165,-0.7912248780522342,-0.8187886243004125,-0.5204414123784622,-0.329774050782359,0.2704927474123061,-0.5128318386983467,0.8582393640661378,0.6689914114023678,0.38642910879690834,-0.43861811313150695,0.6357394341507573,-0.5051762148285166,-0.1987777628751657,-0.294628571662771,0.9115519168863524,0.862647760970539,-0.8871108452154821,-0.677028149726635,-0.5163038366865673,-0.281517480343737,-0.012135200671197444,-0.23085490325472025,0.6190177754728186,0.9077186172217776,-0.6627724063860492,0.5221273120336507,0.3640270604645497,-0.9137568548995744,0.6706769092386903,-0.9026997663096484,0.6596684294386702,-0.002170039028260282,0.34122669982142256,-0.2622906870712757,-0.1618250239988051,-0.8043061321712066,0.4604281199615714,0.9204307164366115,0.5730574133666868,0.5818274546330886,-0.7637684783265255,0.8996306735505815,0.6658743058345395,0.6327506136804828,0.7221832313457177,0.8383362772252252,-0.40930740823346823,-0.17029713204178032,0.024363275922365313,-0.09750800274543758,0.4333520383428078,0.6563013367061832,-0.975578796735416,0.4521244034474059,0.09323328392591355,0.6435356487688787,-0.5252869242983225,0.3388380453433443,-0.31380321012086204,0.6716291628777077,1.2722890966907303,0.5038361590698234,-0.7743474867401849,0.6395188387473912,-0.45048862512801563,0.270864118531349,-0.9616745249388762,0.6809307444749191,-0.958666162289458,0.6923323403877282,0.07267721603547406,0.7699030670849571,-0.2206217410111504,0.5010316495168294,0.33742174142311043,0.45499990614577057,0.04406360650477348,-0.38762916512799106,0.013275268184225196,0.1900819456743048,-0.9052580923146544,0.16109675968591186,-0.7796040238819324,-0.2592091050762436,-0.7591453849299129,0.9661393283932417,-0.21067633042663672,0.8250885490590044,-0.5123950329105031,-0.39379760956134374,-0.27813709742811166,0.28524836949682636,-0.2398327571262469,-0.40525641541924573,-0.8454168234393362,-0.9345365058447476,-0.5386793000742387,0.07209737053674004,0.785031384856663,0.3144238357833864,-0.00010228691290525838,0.09043311875818127,-0.5568083221074323,-0.3376439172429546,-0.2983307074532895,0.8656718206735057,-0.42243622007246473,-0.5912103232401158,-0.4508711245485779,0.5660297198578412,-0.3485896624109042,-0.6654655776938468,-0.29424140427335194,0.3279857176458517,-0.6201852920861316,1.08024131107397,0.6045261676391233,0.09945267179874874,0.6076224407832046,-0.9917761372261542,-0.14424558448137417,0.9079062361045028,0.644125210247716,0.04786617352910571,-0.2293461646897492,-0.4154423768042763,0.13824723892880164,0.2733598308027796,-0.4075509043166998,0.9202421171245994,-0.697498221134468,-0.024705883245627502,-0.5883142036867093,0.5271308659679181,0.7147382113516043,0.9718107507719762,-0.4416187055380274,-0.5680274570815107,0.2605028267635269,0.08452890453572608,1.1285371627334544,-0.4500263149648383,-0.6574242248779232,0.7259071477743485,-0.6926299258678265,0.013773724867243634,-0.04610653667554869,0.28106223597778385,0.6734729494125399,0.8541013449283913,0.07376974257050137,-0.3210122287514736,0.015415863657933793,-0.7611880624357985,-0.5400520260333332,-0.587234931814038,-0.153387831676582,-0.4689825531229818,-0.8254651031729172,0.10829806339470748,0.28263267545326065,-0.5315766382818525,-0.01310014882403676,0.005055805331884988,0.3587293894940248,1.0684933609690141,0.7673013744558972,0.6952289331828632,0.17825135890182173,0.6174664372399425,-0.3524243114674041,-0.40254171617958995,-1.1922380652238385,0.5052084411115881,-0.11014416006423361,-0.06854026393035395,-0.4688428606393814,-0.013242630327884176,0.8641218681818613,0.46626853529055934,0.8402443075077659,0.15447048240900418,0.3472530741074369,0.4657423381602175,-0.42634932074735343,-0.7390151425415066,-0.42411060263933154,0.8721883005126068,0.6727053865766526,-0.7046442087989471,-0.3802773789473573,-0.6395061417362211,-0.7629518499050535,0.685158514202215,-0.4075095796642981,0.1350185871148831,0.5510114903908234,-0.27028260619273986,-0.5359561411792833,-1.1674708687377309,-0.05412403887399064,0.22191532515560813,0.6308648877242479,0.10065112316314002,-0.4920245354989419,0.7517596823461263,-0.4358997679714884,0.013375728004741294,-0.7302034115863725,0.9085194123521978,-0.8690020860257059,-0.5092677204247527,0.6051729598692419,-0.01933064570500398,-0.3214375609358906,-0.22447351599168308,0.6371323905945623,-0.3849697158911112,-0.8254070727861238,-0.6419068408389399,0.691640025569502,-0.7677502271973378,0.013117104592780052,-0.7197235122840452,0.3243790712230633,-1.1023630699571516,0.30529369139421786,0.4332976636511772,-0.03679419131577019,-0.7995536654890769,1.0014958434195238,0.06326387577816117,1.162989174013348,0.036625524768640796,-0.30046120711520047,-0.5710790158679953,-0.72832527873425,-0.747471256306355,-0.8252258962694641,0.6411686483297565,-0.463602960601766,-0.607239149560294,0.41290451899263503,-0.9216916546268684,0.8205906783687387,0.2977522008634583,0.13622075190923136,-0.7407884238609757,0.039188661464982844,-0.5758972956120052,-0.16902507176835274,-0.40313060012907265,0.29784962820263255,0.3327605154026713,-1.0588482334014577,0.1126621629194198,-0.0883007626176142,1.057238638520018,-0.6576942989385516,1.0420431522521596,0.2364989510908421,-0.15361862905058007,-0.1810918889127949,0.13134130270509337,0.8936412643794931,-0.4418508262781857,-0.5934172822478585,-0.298093538610404,0.016639053463419096,-0.12296037985067064,-0.9122071600924893,-0.10333256614198284,0.9566612810153868,0.5597999281985436,-0.4919305859070747,-0.6005325336926712,1.1101893540009737,0.005279315776653961,0.9444906021028394,0.9199942571603787,-0.4051505273096687,-0.084539818301913,-0.04243161835777674,-0.5639892354848562,0.4269045571891877,0.5158304064524253,-0.4335190406559022,0.2934655951279462,0.323313022030675,0.7026894161561881,0.16600654993837918,-0.6628020018612746,0.2759345604050798,0.35657264939954825,-0.9840277071824888,-0.29025788677066133,-0.7162899552805764,-0.5758592708570218,-0.45945321624985613,0.30218161440351254,0.3043831309213956,0.7672888739130597,-0.5220287478688699,0.22719644759890512,0.452548056079962,-0.1075655689726804,0.2886521267434559,0.30646050222946847,-0.5544381847554568,0.2890490663922829,-0.5224165436161858,-0.08054843217964439,0.5841041087756494,0.31145151349690786,0.8305819215083059,1.0388432176223612,-0.11387417069693467,-0.6449080974922293,-0.7186620073323671,0.20942549047779305,-0.5060855483222733,0.352944859044408,0.5553067172729373,0.8443021528619548,-0.9001275689390047,0.9079372930074074,-0.2820007471366206,-0.8168164934100288,0.7300858704954603,0.2600205504864394,0.3801914105417965,0.3678216389334119,-0.48080790882930075,-0.11190310592201168,-0.10017355084131639,-0.9986530758518881,0.02105030984238188,-0.40264913398940827,-0.7634501609825993,-0.014283132892256564,-0.4578981722689717,0.4554113209151774,-0.01910301140865461,0.9209537514121575,-0.2988750447928555,0.45619382483851234,0.6530945585588052,0.627903081941728,0.1154934108938499,-0.9458490818798364,0.12411222109415432,0.7774916466849315,-0.32782697110278614,0.12270563315364758,0.9429829793963256,0.45291049354745216,-0.2317327766272761,-0.38398128399594283,0.6572800150087654,-0.3182193930076292,0.34039683659759135,-0.8449682349148108,-0.22363268252276908,-0.20637207553438672,0.06345787910476969,0.3622637004168386,-1.0668886566352804,-0.9169352566789021,-0.769591303861233,0.8114987701307717,0.06208619578310603,-0.5406553977416003,0.8994571202135764,0.10657047163677186,0.30015858345216273,0.8270639417373582,0.43071867760459104,0.38606839566817897,-0.9823332497503252,0.18511244964375884,-0.6699332283803539,-0.35974087087672446,-0.554187031673806,0.3781688419587519,0.5633396047950694,-0.11161762602013371,-0.838165604190285,0.5435818231146047,0.716861707431341,0.41860792191742213,-0.5795358484282117,-0.6220425637196707,-0.7797327479439937,0.23059398173877652,0.06486569062400502,0.5420697652456058,0.6775041497840211,0.1521999121639737,1.046001602178826,0.6329369463570425,-0.3958732709971958,0.05923372311355557,0.34093883397620184,0.46566178985337325,-0.5208847627472197,0.07311344327199287,0.3994580918026276,-0.040298667954383305,-0.18824180480327324,0.6577439368950675,-0.18276138383880047,-0.8206905234798594,0.6724126164248303,-0.4910188529521194,0.05228993636307415,-0.38161159492878083,-0.49232214901531257,0.22650057112685584,0.6708490649864162,-0.6115904026064307,-0.8307693783144707,0.3537732265517762,0.4804133444786749,-0.10206266781117457,1.1296928114977776,-0.7344438943304288,0.047225160635416735,0.454090276281624,-0.5333109929883488,0.8449673266991584,-0.8359637714122989,-0.332167751369693,-0.4339368595145652,0.9884795418380296,-0.5955985265402848,-0.5575639813527327,-0.11280068628998197,0.09674536378313504,0.9500251893490956,0.8982532977131716,0.5575636741634369,-0.7612821269485985,-0.529054985116196,0.6131582241990982,1.1335881533472594,0.8559934982786742,0.14524330728863744,-0.8099882090969458,0.5928809649135578,-0.47830309575577745,-0.7351718084788993,-0.47353605404664406,0.12717215072457663,-0.9003755298857035,0.5011678869320272,-0.8320144591611449,-0.9245386832301288,0.8015710173440425,-0.34280573451606355,-0.4330149045617231,-0.06381934230170594,0.1605398437837693,-0.6126710619479847,-0.06439394034846435,-0.5107385016395873,0.8170589877828256,-0.22026910958728063,0.13382493835836917,0.626418182536931,-0.9961117269814233,0.40507808584952243,0.6420872913379853,0.30766958661846777,0.5497455533166862,-0.70604057913166,0.1861328187348559,-0.18159394355108133,0.16101028150267108,-0.07126500850208246,-0.9976285317444225,0.8494637516116061,-0.2013760979193193,0.23770646065694084,-0.8303753477388454,-0.8484763538764408,-0.6356875009915006,0.1981645539771022,-0.33417043170269656,0.7245685951987384,0.7681191082934216,-0.6047183148070645,0.4373408746902214,-0.4496518440362973,0.019931894310813547,-0.01190865855071066,0.6176459903968727,-0.0969515952330986,0.9673048228194148,-0.2269765904075267,0.9190084244414576,0.5348629631664591,0.4512966091554442,-0.8473273908674902,-0.47035317564525275,-0.1771407531250515,0.15853555240975056,-0.9615670947140438,-0.5393481680187165,0.6205442159619431,-1.0613036934584779,0.39944510075335965,0.30817785671266273,0.35826272411083426,0.4770474937588984,-0.6981153895046022,-0.8611615354345696,0.44514272841290525,-0.3719228635110603,-0.042665358036308776,-0.16684961551236,-0.16861334419061702,-0.00787112120870681,-0.7080784054253548,-0.9745581560851956,0.3918702200384043,-0.5102977868020147,0.6279003980925153,-0.8254693045659693,0.3188710324639132,0.17778258022685423,-1.135981827968465,-0.44091877085341813,0.9318053140218261,-0.5032416004767752,-0.5679116739685983,0.7676830433134997,0.5914221174415923,0.9485695564947229,0.2552952195673308,0.975845609320799,0.6731224877230535,0.8398382036345973,-0.7195098861295428,-0.15712986530734008,0.22832204974975337,0.4409565374511999,0.1011000285463708,-0.6340358681458977,0.6280955696584387,-0.22731590964231185,0.9629609857690304,0.028965773561816732,-0.48318468395623815,-0.1343018456285754,0.664649857000575,-0.9876523166880516,0.8389259396204443,-0.5573070276971732,0.6885638767877145,0.7590325589280364,0.6086741220815701,0.5393877423932698,0.7036725565499673,0.11394290536982066,0.6380665091219853,0.9418499055104224,0.0849233736858035,0.6705745187630172,0.0860957042538022,0.7624132728430237,0.835743831214385,-0.5371801541102659,0.4903819043192257,-0.919483590832048,0.4846216719429544,-0.4016469976618134,0.5489637310181712,-0.5742644012870635,-0.4788452536572181,0.5281629761588682,0.32594091426782756,0.9785488639412332,0.537620716343512,-0.7169940974032847,0.27374818099789877,-0.04741998038819384,0.5215358357119411,-0.4604085703186498,0.2004176439444616,-0.9114785872832922,0.9463720987888458,-0.6516854893165429,-0.13268672109279245,-0.1120572987033326,-0.2632774819278936,-0.20684439838452717,-0.5485971671365757,0.8811553772706113,-0.22059675677834023,0.04263053013389495,0.10475141507585106,0.17676189116614038,0.9635043106532436,0.03451688273793052,-0.46434688460665874,0.03667253230257361,-0.4961458450465064,0.2948197255748133,-0.5393406624791786,0.7861755242896495,0.966609849542812,0.18151792919964735,-0.7495851379929876,0.9318859433421608,-0.35147420810184093,0.8081211620246642,0.6237318041075568,-0.9994885916444718,0.8581786303946752,-0.4544053732183342,0.9903772156060526,-0.244744609154542,0.21100170621988945,-0.8601494430113381,0.7742352209652743,0.5643658666483566,0.1537818725409155,-0.6769892964296595,-0.36007703371346134,0.2955781393325094,-0.27339927306805367,0.7382625712430992]],[[3.5295877049425037,4.4050129902161625,-3.1652584859275965]]],"biases":[[[-0.5737611571901842],[1.3796189717407084],[0.16194883754635533]],[[-2.3125882958803636]]],"data":[],"learning_rate":0.5,"activation":"sigmoid"}